tree
version=v3
num_class=1
num_tree_per_iteration=1
label_index=0
max_feature_idx=9
objective=regression
feature_names=starting_cases ending_cases pending_cases LES time_since_last_event time_since_last_batch min_delay max_delay month weekday
feature_infos=[-0.69478978394771107:6.4418719423695947] [-0.045715644093882159:29.708555116681524] [-0.69478978394771107:6.4418719423695947] [-1.5781029253134184:14.840031179135794] [-0.17577495959854686:34.664338038177817] [-14.350289893452933:2.954721624866985] [-6.3439090338218742:3.3835006294887706] [-2.29618010673477:4.7138573991709949] -1:0:1:10:2:11:9:6:7:5:8:4:3 -1:1:4:0:5:2:6:3
tree_sizes=2933 2895 2865 2853 2906 2842 2831 2844 2740 2813 2892 2822 2882 2903 2886 2841 2909 2927 2830 2895 2888 2869 2861 2902 2885 2838 2876 2925 2856 2862 2808 2862 2880 2884 2844 2775 2916 2750 2903 2865 2896 2858 2860 2868 2885 2828 2867 2853 2875 2775 2856 2823 2765 2872 2858 2873 2883

Tree=0
num_leaves=31
num_cat=8
split_feature=3 3 3 3 3 8 3 3 8 8 3 3 8 3 8 8 3 3 0 0 3 8 3 3 3 0 9 3 3 3
split_gain=4.81685e+18 8.78655e+17 7.25468e+17 3.03375e+17 1.99349e+17 8.34314e+16 6.56003e+16 5.31061e+16 4.32089e+16 3.92005e+16 3.11597e+16 2.47077e+16 2.29272e+16 1.38954e+16 1.32184e+16 1.28841e+16 1.19427e+16 1.07113e+16 9.45062e+15 8.33969e+15 7.62724e+15 7.58547e+15 7.11689e+15 7.93025e+15 5.9194e+15 5.67711e+15 5.46239e+15 5.08289e+15 4.92832e+15 4.61063e+15
threshold=0.15725480151285742 -0.52926275112894083 1.1274292235752779 2.7499377516749255 1.8424329817208851 0 -0.78684378628069129 -0.095286366511295975 1 2 2.32132992117146 -0.50822678398766652 3 3.7834391998188903 4 5 1.4481181601508513 0.76181973216677445 0.50584860059743575 -0.66960156609012045 -0.76580781913941676 6 0.93273696518962879 0.37287346471091992 -1.0365363337544637 0.90886008631888371 7 -0.65810804986924643 -1.0523133091104195 0.18092026454679114
decision_type=2 2 2 2 2 1 2 2 1 1 2 2 1 2 1 1 2 2 2 2 2 1 2 2 2 2 1 2 2 2
left_child=1 6 5 4 16 17 12 9 -5 11 -6 18 24 -10 19 -13 -4 29 -3 -8 -21 26 23 -7 -1 28 -9 -16 -14 -2
right_child=2 7 3 8 10 22 14 21 13 -11 -12 15 25 -15 27 -17 -18 -19 -20 20 -22 -23 -24 -25 -26 -27 -28 -29 -30 -31
leaf_value=43051613.590924487 44791282.536670849 44417258.540421695 45045956.968954191 43929425.496139549 45628830.188195668 44219413.026614591 43827517.446684323 44246559.928346314 44415100.253395244 43694133.395400278 46092388.733531035 44101383.010097131 43495695.00627508 44861970.650493622 43389214.077590063 43878522.432586707 45244502.967355981 44692510.969876908 45533930.560699478 43861316.80690594 43542979.494007349 44011982.373366766 43702560.54079207 44366475.280896269 43232947.092964679 43280120.368707053 44040791.555406101 43507849.442035228 43360865.555341884 44517202.971774496
leaf_weight=937 163 90 2226 346 1018 2201 330 676 373 2778 563 744 776 326 1991 4758 1148 1703 24 201 2946 4715 54 1571 866 1957 643 1652 5353 2617
leaf_count=937 163 90 2226 346 1018 2201 330 676 373 2778 563 744 776 326 1991 4758 1148 1703 24 201 2946 4715 54 1571 866 1957 643 1652 5353 2617
internal_value=4.39879e+07 4.36417e+07 4.47484e+07 4.51673e+07 4.53306e+07 4.44458e+07 4.33983e+07 4.39287e+07 4.43931e+07 4.38474e+07 4.57939e+07 4.39239e+07 4.3315e+07 4.46145e+07 4.3514e+07 4.39087e+07 4.51135e+07 4.45924e+07 4.46523e+07 4.35895e+07 4.35633e+07 4.40419e+07 4.42718e+07 4.42807e+07 4.31434e+07 4.3355e+07 4.41474e+07 4.34445e+07 4.33779e+07 4.45333e+07
internal_weight=0 31437 14309 6000 4955 8309 17009 14428 1045 8394 1581 5616 9889 699 7120 5502 3374 4483 114 3477 3147 6034 3826 3772 1803 8086 1319 3643 6129 2780
internal_count=45746 31437 14309 6000 4955 8309 17009 14428 1045 8394 1581 5616 9889 699 7120 5502 3374 4483 114 3477 3147 6034 3826 3772 1803 8086 1319 3643 6129 2780
cat_boundaries=0 1 2 3 4 5 6 7 8
cat_threshold=3169 7 3872 112 3073 512 384 60
is_linear=0
shrinkage=1


Tree=1
num_leaves=31
num_cat=0
split_feature=3 3 7 3 6 3 3 6 6 3 3 6 3 3 0 3 0 3 3 3 3 3 7 3 7 0 3 3 3 6
split_gain=4.34718e+18 7.93334e+17 7.31433e+17 7.45656e+17 3.1338e+17 2.29727e+17 1.71066e+17 1.42784e+17 1.40499e+17 1.33215e+17 3.59856e+17 1.10107e+17 2.42327e+17 9.16617e+16 5.91546e+16 4.73596e+16 4.21695e+16 1.25928e+17 6.49391e+16 4.67686e+16 1.47495e+17 3.29272e+16 3.78482e+16 3.00732e+16 3.24659e+16 2.93686e+16 2.60562e+16 1.57059e+16 1.40402e+16 1.45536e+16
threshold=0.15725480151285742 -0.53715123880691873 -0.30211235967686567 1.6296629390732036 -1.2195080491753176 0.83544561716123467 0.93273696518962879 -1.2195080491753176 -0.97160076406667251 -0.52926275112894083 -0.30027748380986036 -0.97160076406667251 0.25454614954125149 -0.21887267346628295 -0.66960156609012045 -0.84469269591919571 -0.65280942085172688 -0.72910443897104737 -1.1417161694608355 -1.1600130783805898 -0.86572866306047014 2.1739685888536786 0.41556963833528954 0.45153921683297721 -1.1082276517198422 -0.63601727561333321 0.51212718469300189 3.6490062223066837 -1.091755747500309 -0.97160076406667251
decision_type=2 2 2 2 2 2 2 2 2 2 2 2 2 2 2 2 2 2 2 2 2 2 2 2 2 2 2 2 2 2
left_child=1 7 6 5 9 11 23 16 -5 -3 14 12 -4 -6 -11 28 17 18 -1 -18 -21 -10 -23 -2 -25 -12 -13 -8 -9 -30
right_child=2 4 3 8 13 -7 27 15 21 10 25 26 -14 -15 -16 -17 19 -19 -20 20 -22 22 -24 24 -26 -27 -28 -29 29 -31
leaf_value=1357372.7271929826 205183.49993188013 -273601.3897509579 3218435.800884956 2884505.3218383789 -283362.88175746927 1019747.5085352423 -623694.93625919125 -900366.75620549347 1452873.2313376989 119101.45375000002 1017112.4900848765 272123.08687470778 446729.16283524904 -20519.422390639244 2964895.2761904765 -536104.62890726328 -822170.98791469203 2153314.1478260872 -488711.11172413791 676947.41432506894 -417497.75197433372 1936683.2875767814 183647.84130859375 534749.17520938022 -476786.91927710851 245776.19677244211 548631.30956920912 -196314.33242984695 -425111.80493421055 -718496.37357920199
leaf_weight=57 1835 261 113 256 5690 3632 476 983 1069 20 162 2139 261 7953 210 6168 422 69 290 363 2026 814 32 1791 83 518 1416 392 456 5789
leaf_count=57 1835 261 113 256 5690 3632 476 983 1069 20 162 2139 261 7953 210 6168 422 69 290 363 2026 814 32 1791 83 518 1416 392 456 5789
internal_value=0 -328838 722459 967615 -62767.7 733096 201189 -565953 1.78438e+06 722190 1.0078e+06 468112 1.28417e+06 -130142 2.71743e+06 -637876 -267385 202458 -185464 -336917 -251201 1.63732e+06 1.87037e+06 349063 489948 429536 382260 -430684 -724722 -697074
internal_weight=0 31437 14309 9732 14814 7561 4577 16623 2171 1171 910 3929 374 13643 230 13396 3227 416 347 2811 2389 1915 846 3709 1874 680 3555 868 7228 6245
internal_count=45746 31437 14309 9732 14814 7561 4577 16623 2171 1171 910 3929 374 13643 230 13396 3227 416 347 2811 2389 1915 846 3709 1874 680 3555 868 7228 6245
is_linear=0
shrinkage=0.05


Tree=2
num_leaves=31
num_cat=0
split_feature=3 3 7 3 3 3 3 7 7 0 3 7 7 7 3 3 3 3 3 0 3 3 7 3 3 3 3 7 7 3
split_gain=3.92333e+18 7.15984e+17 6.60118e+17 6.72954e+17 2.07329e+17 1.54387e+17 1.11381e+17 6.18545e+16 9.42648e+16 7.50487e+16 1.289e+17 5.67718e+16 1.22631e+17 1.11598e+17 1.20226e+17 5.68721e+16 4.37604e+16 4.25228e+16 4.24892e+16 4.42149e+16 3.83064e+16 2.72293e+16 2.89598e+16 1.50387e+16 1.43831e+16 1.38934e+16 1.38543e+16 1.36869e+16 1.16281e+16 1.02397e+16
threshold=0.15725480151285742 -0.53715123880691873 -0.30211235967686567 1.6296629390732036 0.83544561716123467 0.93273696518962879 3.3256877898384509 0.72383661420574374 1.2824965212660946 -0.65280942085172688 -0.72910443897104737 0.41556963833528954 0.97629021213805423 0.72383661420574374 -0.52926275112894083 -0.21887267346628295 2.32132992117146 -1.1600130783805898 0.18092026454679114 -0.31696651608385368 -0.84469269591919571 0.43576224147702142 -1.1082276517198422 -0.20835468989564579 3.5307884694658762 -1.091755747500309 1.2509059682014041 -0.67776752242157501 0.97629021213805423 0.86962906376580562
decision_type=2 2 2 2 2 2 2 2 2 2 2 2 2 2 2 2 2 2 2 2 2 2 2 2 2 2 2 2 2 2
left_child=1 7 5 4 18 21 16 20 9 10 -9 15 13 -13 -15 -3 -5 -11 19 -4 25 -2 -23 -14 -7 -1 29 -24 -20 -6
right_child=2 11 3 6 26 24 -8 8 -10 17 -12 12 23 14 -16 -17 -18 -19 28 -21 -22 22 27 -25 -26 -27 -28 -29 -30 -31
leaf_value=-884988.2487383798 189584.34456706283 -275469.23334804544 622369.68699324329 1421623.8461624442 1650928.175 -639800.29648848693 2844950.5204427084 47322.29615384616 -634625.75884094753 -754164.07306791574 2723837.5236363639 -3041.6651969359627 -252144.14600931678 -259921.31800766286 957406.19871243986 -30507.483250692618 1924878.2463795133 -210614.98602973326 548572.14820029249 3312894 -496055.59426940163 501635.07115384622 -862456.94237288146 -5342.3315356518488 -229545.49904024717 -656611.26166030206 1033503.782798256 553763.09999999998 363491.35485046013 793637.73024231137
leaf_weight=753 1767 3965 37 1342 36 380 192 247 2364 427 55 1179 1610 261 910 5888 637 2287 1258 26 4729 1859 59 1001 488 5761 2523 24 2608 1073
leaf_count=753 1767 3965 37 1342 36 380 192 247 2364 427 55 1179 1610 261 910 5888 637 2287 1258 26 4729 1859 59 1001 488 5761 2523 24 2608 1073
internal_value=0 -312396 686336 919234 696441 191129 1.69516e+06 -537655 -398227 -212933 534767 -59629.4 78313.7 340346 686080 -129084 1.58361e+06 -296133 444707 1.73274e+06 -604374 331610 460837 -157526 -409150 -683011 968760 -452948 423717 821467
internal_weight=0 31437 14309 9732 7561 4577 2171 16623 5380 3016 302 14814 4961 2350 1171 9853 1979 2714 3929 63 11243 3709 1942 2611 868 6514 3632 83 3866 1109
internal_count=45746 31437 14309 9732 7561 4577 2171 16623 5380 3016 302 14814 4961 2350 1171 9853 1979 2714 3929 63 11243 3709 1942 2611 868 6514 3632 83 3866 1109
is_linear=0
shrinkage=0.05


Tree=3
num_leaves=31
num_cat=6
split_feature=3 3 3 3 3 8 3 3 8 8 3 8 3 3 8 8 3 3 3 2 3 3 2 3 3 3 3 3 2 2
split_gain=3.54081e+18 6.4633e+17 5.37066e+17 2.24326e+17 1.4743e+17 6.51994e+16 4.85191e+16 4.15034e+16 3.34176e+16 2.92856e+16 2.31013e+16 2.048e+16 1.92621e+16 1.20252e+16 1.1023e+16 1.09046e+16 1.01073e+16 9.31007e+15 7.65462e+15 7.33961e+15 7.30741e+15 6.74929e+15 6.46521e+15 1.09922e+16 6.06771e+15 5.36609e+15 6.77254e+15 4.475e+15 4.45918e+15 3.49886e+15
threshold=0.15725480151285742 -0.52926275112894083 1.1274292235752779 2.7499377516749255 1.8424329817208851 0 -0.78684378628069129 -0.053323994557608022 1 2 2.32132992117146 3 -0.50822678398766652 3.7834391998188903 4 5 -1.0523133091104195 1.4481181601508513 0.74878181503233876 0.50584860059743575 -0.045325944550769326 -1.091755747500309 1.0000000180025095e-35 -0.69755048825913579 -0.94713347340404763 0.93273696518962879 0.34898887701926457 -0.65021956219126853 0.90886008631888371 -0.61922513037493954
decision_type=2 2 2 2 2 1 2 2 1 1 2 1 2 2 1 1 2 2 2 2 2 2 2 2 2 2 2 2 2 2
left_child=1 6 5 4 17 18 11 9 -5 12 -6 24 19 -10 -14 22 21 -4 -2 -3 -9 -13 23 -8 -1 26 -7 -17 -18 -27
right_child=2 7 3 8 10 25 15 20 13 -11 -12 16 14 -15 -16 27 28 -19 -20 -21 -22 -23 -24 -25 -26 29 -28 -29 -30 -31
leaf_value=-744186.79561997997 466779.66524985572 381901.96083333337 906556.13754492369 -60546.615730337078 1409188.3097049976 185013.54592547787 -148796.0761682243 422450.82837591239 355370.42535606568 -248555.15983312676 1808328.8374048588 -450378.6824228029 110243.91783182989 771082.13412337052 -91314.672053006332 -517510.61432984791 -518204.47700837295 1081857.5640135019 599144.53033439489 1365985.3583333334 52389.844035914306 -102798.46076555025 -437073.10238515906 -373649.95915043657 -595468.03025812621 103666.72333333333 319672.49312831077 -405320.71528589999 -611527.34181465046 -706293.58750000002
leaf_weight=1992 2599 90 2226 346 1018 2073 856 137 373 2814 563 421 766 326 5520 2104 4419 1148 1884 24 5077 209 1132 1489 1046 30 1699 1539 1802 24
leaf_count=1992 2599 90 2226 346 1018 2073 856 137 373 2814 563 421 766 326 5520 2104 4419 1148 1884 24 5077 209 1132 1489 1046 30 1699 1539 1802 24
internal_value=0 -296776 652019 1.0125e+06 1.1529e+06 391716 -505581 -50618.7 346767 -114411 1.55132e+06 -577237 -54955.7 541503 -66723 -406058 -525144 966202 521244 589077 62113.3 -335070 -337970 -291571 -690709 237960 245667 -468829 -545237 -256316
internal_weight=0 31437 14309 6000 4955 8309 17009 14428 1045 9214 1581 9889 6400 699 6286 7120 6851 3374 4483 114 5214 630 3477 2345 3038 3826 3772 3643 6221 54
internal_count=45746 31437 14309 6000 4955 8309 17009 14428 1045 9214 1581 9889 6400 699 6286 7120 6851 3374 4483 114 5214 630 3477 2345 3038 3826 3772 3643 6221 54
cat_boundaries=0 1 2 3 4 5 6
cat_threshold=3169 7 3872 120 512 3073
is_linear=0
shrinkage=0.05


Tree=4
num_leaves=31
num_cat=0
split_feature=5 5 6 6 6 5 6 5 5 5 5 5 0 5 5 5 5 5 5 5 5 6 6 5 6 5 0 0 6 6
split_gain=3.64813e+18 1.27848e+18 4.16851e+17 3.34146e+17 4.89467e+17 4.70183e+17 3.3351e+17 1.19457e+17 9.44983e+16 9.05229e+16 6.72844e+16 5.77284e+16 5.58488e+16 3.75147e+16 3.58036e+16 3.04514e+16 2.97988e+16 1.89257e+16 1.53949e+16 1.28327e+16 1.26802e+16 8.49675e+15 8.44297e+15 7.19418e+15 5.91624e+15 3.47118e+15 2.70889e+15 2.63653e+15 2.6321e+15 3.77622e+15
threshold=-1.8767958030689205 -0.2210559574442347 0.44452041416306776 -0.66515981441848626 0.44452041416306776 0.34057883343772416 -0.66515981441848626 -0.80347591497189275 -0.99152182054136084 2.006874496678289 -3.890671687599347 0.21271197056496663 -0.65280942085172688 -0.38026380457857023 -0.85048739136425977 -0.064133390412305882 -1.1325562497184618 0.66955034532227409 -3.2426315442740097 -4.371233446276876 -1.0803212759491652 -1.2195080491753176 -1.2195080491753176 -0.29919077237414099 -1.2195080491753176 0.83409051269555878 -0.21621364465349172 0.18679784106795613 -1.2195080491753176 -0.66515981441848626
decision_type=2 2 2 2 2 2 2 2 2 2 2 2 2 2 2 2 2 2 2 2 2 2 2 2 2 2 2 2 2 2
left_child=10 2 6 11 5 12 14 16 20 -7 19 22 -5 -10 -2 -6 -4 24 -12 26 -8 -16 -3 -9 -13 -19 -1 -28 -20 -30
right_child=1 3 7 4 15 9 8 23 13 -11 18 17 -14 -15 21 -17 -18 25 28 -21 -22 -23 -24 -25 -26 -27 27 -29 29 -31
leaf_value=3540297.9401574805 842856.06433121022 -154916.67290779387 505198.4932983194 745227.4285778444 -348842.89470737916 -130466.68217970247 1246022.5010093169 -54615.854215366002 655478.04231636378 -524453.56578549847 2704077.964312268 -476081.27376164787 302695.39271986473 996115.6173939195 323501.52785170561 -586689.41870023427 191094.95077089826 -690192.86092211283 2283769.4851562502 3093418.9469613265 1727900.8829113925 25985.697983861741 -366413.63709995849 -227166.00003617947 -586657.68720578344 -849814.51836734696 4352709.3916666666 3703777.888888889 1387243.3608695653 2274982.2239999999
leaf_weight=127 157 587 1190 835 1965 5483 322 4802 2760 1986 538 2039 4878 1143 273 4270 2066 1117 128 181 237 1984 2406 691 2974 490 24 45 23 25
leaf_count=127 157 587 1190 835 1965 5483 322 4802 2760 1986 538 2039 4878 1143 273 4270 2066 1117 128 181 237 1984 2406 691 2974 490 24 45 23 25
internal_value=0 -69795.3 294871 -266072 -146714 25936.8 586185 65922 842315 -235227 2.85661e+06 -507160 367375 755234 112759 -511731 305893 -589547 2.57129e+06 3.39698e+06 1.45033e+06 61972.3 -324934 -76322.1 -541682 -738864 3.67731e+06 3.92949e+06 2.16536e+06 1.84961e+06
internal_weight=0 44655 15625 29030 19417 13182 6876 8749 4462 7469 1091 9613 5713 3903 2414 6235 3256 6620 714 377 559 2257 2993 5493 5013 1607 196 69 176 48
internal_count=45746 44655 15625 29030 19417 13182 6876 8749 4462 7469 1091 9613 5713 3903 2414 6235 3256 6620 714 377 559 2257 2993 5493 5013 1607 196 69 176 48
is_linear=0
shrinkage=0.05


Tree=5
num_leaves=31
num_cat=6
split_feature=3 3 3 3 3 8 8 3 8 8 3 3 3 8 3 3 3 0 0 3 3 8 3 0 3 0 3 3 3 3
split_gain=2.96808e+18 5.35067e+17 4.66761e+17 1.97184e+17 1.19349e+17 5.2349e+16 3.89146e+16 3.75114e+16 2.75376e+16 2.70669e+16 1.88428e+16 1.7185e+16 1.65448e+16 1.02395e+16 9.77774e+15 7.85829e+15 7.13606e+15 6.93669e+15 6.91205e+15 6.7426e+15 6.68032e+15 5.68008e+15 5.88496e+15 7.75225e+15 5.459e+15 4.86296e+15 4.84376e+15 4.48713e+15 5.17827e+15 3.98017e+15
threshold=0.15725480151285742 -0.53715123880691873 1.1274292235752779 2.7499377516749255 1.8424329817208851 0 1 -0.095286366511295975 2 3 2.32132992117146 -0.50822678398766652 -0.72910443897104737 4 3.7834391998188903 1.4481181601508513 -1.0523133091104195 -0.65280942085172688 0.50584860059743575 0.71448880609890708 -0.94713347340404763 5 -0.045325944550769326 -0.56884869465975851 -1.091755747500309 0.90886008631888371 -0.69755048825913579 0.28347060436050375 0.93273696518962879 0.049335907584965394
decision_type=2 2 2 2 2 1 1 2 1 1 2 2 2 1 2 2 2 2 2 2 2 1 2 2 2 2 2 2 2 2
left_child=1 6 5 4 15 19 20 9 -5 11 -6 18 16 -13 -10 -4 24 26 -3 -2 -1 22 23 -9 -8 -18 -14 -7 -29 -23
right_child=2 7 3 8 10 27 12 21 14 -11 -12 13 17 -15 -16 -17 25 -19 -20 -21 -22 29 -24 -25 -26 -27 -28 28 -30 -31
leaf_value=-684952.17014307238 410871.64542676212 311269.51054421772 841872.98560197675 -60590.541221910113 1294759.2600442043 141923.86273174695 -411364.48527315917 -3367.3662627551021 317774.77660857909 -237548.7678777671 1655238.9993450269 102530.47559681698 -100202.67223557693 -96130.413442481135 692630.89705833013 1002927.5283754356 -458342.75920509297 -377096.6847748392 1226450.7416666667 533520.76884319936 -533603.68843478267 -10234.423616728025 105007.20078870532 819068.84397644934 -98769.158851674641 -545252.63180592994 -399629.0025 266693.72890117695 -228269.52962962963 88964.144276470848
leaf_weight=1992 2270 147 2226 346 1018 1308 421 49 373 3107 563 744 416 4758 326 1148 5812 4197 24 2213 1150 3441 1043 69 209 2226 200 2464 54 1432
leaf_count=1992 2270 147 2226 346 1018 1308 421 49 373 3107 563 744 416 4758 326 1148 5812 4197 24 2213 1150 3441 1043 69 209 2226 200 2464 54 1432
internal_value=0 -271719 596960 933015 1.06465e+06 354291 -466450 -53208.9 308859 -119167 1.42313e+06 -53818.5 -428117 -69255.1 485653 896672 -469710 -354100 439716 470367 -627560 42766.5 141651 477549 -307662 -482411 -197419 216487 256079 18877.7
internal_weight=0 31437 14309 6000 4955 8309 16623 14814 1045 8780 1581 5673 13481 5502 699 3374 8668 4813 171 4483 3142 6034 1161 118 630 8038 616 3826 2518 4873
internal_count=45746 31437 14309 6000 4955 8309 16623 14814 1045 8780 1581 5673 13481 5502 699 3374 8668 4813 171 4483 3142 6034 1161 118 630 8038 616 3826 2518 4873
cat_boundaries=0 1 2 3 4 5 6
cat_threshold=3169 120 7 3872 512 128
is_linear=0
shrinkage=0.05


Tree=6
num_leaves=31
num_cat=6
split_feature=7 7 7 7 7 0 9 0 7 9 0 9 0 0 0 0 0 9 0 0 0 0 0 0 0 9 0 9 0 0
split_gain=5.09921e+17 4.17667e+17 2.44689e+17 4.12141e+17 2.06069e+17 6.56582e+16 5.68569e+16 5.4552e+16 3.49909e+16 2.69438e+16 3.03082e+16 4.32867e+16 3.28197e+16 3.72998e+16 2.01925e+16 6.47109e+16 1.73714e+16 1.61084e+16 1.29698e+16 1.27676e+16 1.50828e+16 1.27218e+16 1.15796e+16 1.0218e+16 8.97279e+15 8.92493e+15 6.89974e+15 6.54499e+15 6.34691e+15 6.21593e+15
threshold=-0.30211235967686567 0.41556963833528954 0.72383661420574374 1.2824965212660946 -1.1082276517198422 -0.65280942085172688 0 4.5779438209078984 -1.873217296861029 1 -0.63601727561333321 2 0.35471929345189279 0.65697790774297871 -0.51847225894457749 -0.46809582322939663 -0.48488796846779025 3 -0.66960156609012045 4.7878456363878197 -0.65280942085172688 0.50584860059743575 -0.65280942085172688 1.0264051029876395 -0.66960156609012045 4 -0.66960156609012045 5 -0.65280942085172688 0.42188787440546743
decision_type=2 2 2 2 2 2 1 2 2 1 2 1 2 2 2 2 2 1 2 2 2 2 2 2 2 1 2 1 2 2
left_child=4 9 19 5 8 6 -4 -7 -1 10 11 18 17 -14 22 -16 -5 -12 -2 20 27 25 26 -17 -13 -6 -11 -3 -27 -10
right_child=1 2 3 16 21 7 -8 -9 29 14 12 24 13 -15 15 23 -18 -19 -20 -21 -22 -23 -24 -25 -26 28 -28 -29 -30 -31
leaf_value=-625293.5817021277 164131.55898777174 6397.2678050397881 375948.44124174293 -150745.05160449955 -258945.12789690937 218849.46037692972 1025588.6917946466 2657490.3739130436 10707.283951644848 169386.14203077508 428471.39428944432 971952.00188530819 1047540.4879198967 412839.19831271702 1312763.3188235294 343229.20636543568 -367870.93886438524 194794.26529221243 698191.52930463583 35088.811802325588 -403105.25905672199 -466089.08396826679 -100827.58471278683 2793.8918396226418 704905.56894164858 -447604.0563470812 674720.99352941185 -341443.69517569127 -327056.25536410237 -105517.08229899628
leaf_weight=235 460 367 1220 1330 3446 7838 483 23 7495 329 1893 576 387 576 170 1310 2997 1307 151 215 3218 1940 414 265 693 1698 85 207 3059 1359
leaf_count=235 460 367 1220 1330 3446 7838 483 23 7495 329 1893 576 387 576 170 1310 2997 1307 151 215 3218 1940 414 265 693 1698 85 207 3059 1359
internal_value=0 142168 4479.04 103772 -196013 286961 568427 225985 -23114.8 428188 486435 653868 411991 667906 288377 385983 -301132 334977 291349 -339738 -360990 -350944 86155.4 285950 819659 -323712 273138 -124881 -369309 -7131.99
internal_weight=0 26514 17898 13891 19232 9564 1703 7861 9089 8616 6043 1880 4163 963 2573 1745 4327 3200 611 4007 3792 10143 828 1575 1269 8203 414 574 4757 8854
internal_count=45746 26514 17898 13891 19232 9564 1703 7861 9089 8616 6043 1880 4163 963 2573 1745 4327 3200 611 4007 3792 10143 828 1575 1269 8203 414 574 4757 8854
cat_boundaries=0 1 2 3 4 5 6
cat_threshold=116 54 16 18 98 16
is_linear=0
shrinkage=0.05


Tree=7
num_leaves=31
num_cat=0
split_feature=3 3 3 6 3 6 3 3 6 6 3 3 3 2 3 3 3 3 2 3 2 2 6 3 2 2 3 3 2 6
split_gain=2.57727e+18 4.50832e+17 4.1766e+17 3.07961e+17 2.90991e+17 2.25752e+17 4.98787e+17 1.00053e+17 1.0003e+17 9.54305e+16 1.74325e+17 5.31192e+16 5.01114e+16 4.77829e+16 3.86736e+16 3.00691e+16 2.54368e+16 1.3014e+17 4.69149e+16 4.10484e+16 2.63604e+16 2.32257e+16 1.72397e+16 1.29963e+16 1.21472e+16 1.10868e+16 1.05032e+16 1.0148e+16 1.01251e+16 9.66394e+15
threshold=0.10729437955233076 -0.52926275112894083 1.1274292235752779 -1.2195080491753176 -0.30027748380986036 -1.2195080491753176 2.7499377516749255 1.9370948338566198 -1.2195080491753176 -1.2195080491753176 0.25454614954125149 -0.21887267346628295 0.51212718469300189 -0.66960156609012045 2.7499377516749255 -0.76580781913941676 -1.1600130783805898 -1.0365363337544637 -0.53526440418297117 -0.86572866306047014 -0.65280942085172688 -0.63601727561333321 0.44452041416306776 -1.0654607885737157 -0.50168011370618382 0.8836718684612932 2.32132992117146 3.7834391998188903 -0.65280942085172688 -0.97160076406667251
decision_type=2 2 2 2 2 2 2 2 2 2 2 2 2 2 2 2 2 2 2 2 2 2 2 2 2 2 2 2 2 2
left_child=1 8 9 4 13 14 7 22 16 10 28 -5 -11 -3 -4 23 20 18 -18 -19 -1 -6 -7 -10 -12 -26 -9 -8 -2 -25
right_child=2 3 5 11 21 6 27 26 15 12 24 -13 -14 -15 -16 -17 17 19 -20 -21 -22 -23 -24 29 25 -27 -28 -29 -30 -31
leaf_value=842223.55625000002 2119054.9817602043 44902.075000000004 490894.64722222224 -227066.17564240794 854824.43317307706 867312.37161902152 -490397.5302124506 1246108.7572592068 -705763.11713164777 179246.65482893609 256614.7199790795 -23758.037619202038 427623.83372012229 2602578.645 2486406.4719917015 -394189.66097647534 808354.125 265058.01365795726 3327623.4545454551 -268035.78020094562 -646254.33708530804 158752.62316247585 -298318.359375 -326927.78717047453 1745385.4913793104 215153.01250000001 1537246.9483922103 -122602.47320417367 3053457.7267605634 -541345.25046552229
leaf_weight=32 49 20 27 5565 156 3638 506 706 1147 4662 239 7601 3598 210 241 4931 42 421 33 2538 422 517 32 569 29 20 552 298 71 6874
leaf_count=32 49 20 27 5565 156 3638 506 706 1147 4662 239 7601 3598 210 241 4931 42 421 33 2538 422 517 32 569 29 20 552 298 71 6874
internal_value=0 -257820 546289 -48428.5 844814 866975 800658 989052 -431018 324310 1.07078e+06 -109692 287438 2.38017e+06 2.28537e+06 -492603 -192285 -140054 1.91683e+06 -192188 -541340 320101 857149 -549097 403646 1.1208e+06 1.37386e+06 -354075 2.67191e+06 -524954
internal_weight=0 31078 14668 14069 903 6000 5732 4928 17009 8668 408 13166 8260 230 268 13521 3488 3034 75 2959 454 673 3670 8590 288 49 1258 804 120 7443
internal_count=45746 31078 14668 14069 903 6000 5732 4928 17009 8668 408 13166 8260 230 268 13521 3488 3034 75 2959 454 673 3670 8590 288 49 1258 804 120 7443
is_linear=0
shrinkage=0.05


Tree=8
num_leaves=31
num_cat=15
split_feature=8 8 8 0 8 9 0 0 0 0 9 8 0 0 9 0 0 9 0 9 0 8 9 8 0 0 0 9 8 0
split_gain=7.56016e+17 1.14121e+17 1.07344e+17 6.96551e+16 4.7396e+16 4.42227e+16 3.50317e+16 2.42251e+16 1.93888e+16 1.70661e+16 3.30007e+16 2.13334e+16 1.67864e+16 1.67408e+16 1.4961e+16 1.62869e+16 1.38119e+16 1.37018e+16 1.31506e+16 9.81641e+15 9.31026e+15 8.57661e+15 1.14653e+16 7.8397e+15 7.27795e+15 9.34264e+15 9.28935e+15 1.4265e+16 1.11421e+16 6.93774e+15
threshold=0 1 2 0.97602866727245829 3 4 -0.31696651608385368 -0.66960156609012045 0.60660147202779779 -0.61922513037493954 5 6 -0.65280942085172688 -0.35055080656064097 7 0.035668533922413176 -0.28338222560706633 8 0.94244437679567095 9 -0.55205654942136484 10 11 12 1.597338041093024 4.5779438209078984 -0.51847225894457749 13 14 -0.66960156609012045
decision_type=1 1 1 2 1 1 2 2 2 2 1 1 2 2 1 2 2 1 2 1 2 1 1 1 2 2 2 1 1 2
left_child=1 3 12 5 7 6 13 19 -9 10 11 -6 17 -1 15 -7 -8 29 -10 -4 -16 22 -11 -12 26 -26 27 -14 -28 -2
right_child=2 -3 4 -5 9 14 16 8 18 21 23 -13 24 -15 20 -17 -18 -19 -20 -21 -22 -23 -24 -25 25 -27 28 -29 -30 -31
leaf_value=207821.76954225355 531003.68344816274 -488775.32868611172 1273553.5392784553 -400580.12851562502 677679.36071533489 -284677.62283328205 -500509.22099447512 379297.39134590293 1552090.6098360657 380547.93262199982 305136.2959555572 281349.53009582701 -247227.54727310111 765224.54312500008 -192990.06313606974 73846.99490740741 -30506.076036212915 94136.011498815176 385528.32125000004 598157.21595271537 -90935.419236526941 141092.54738055554 195516.99719378309 117445.21549682617 -241411.37719780221 270206.76418918924 131005.01022588508 51235.098652291112 -12182.63433161666 178354.88894886363
leaf_weight=852 381 3251 113 2720 841 3248 181 1916 61 1167 1050 652 617 160 3557 351 1146 1045 40 257 6012 3895 3355 1270 455 111 3496 1103 2223 220
leaf_count=852 381 3251 113 2720 841 3248 181 1916 61 1167 1050 652 617 160 3557 351 1146 1045 40 257 6012 3895 3355 1270 455 111 3496 1103 2223 220
internal_value=0 -216000 191195 -167106 276660 -126261 74051.9 481096 414890 236399 324346 507624 61601 295949 -161776 -249020 -94613.5 207086 1.09009e+06 855014 -128737 196838 244003 203337 31763.1 -141076 44913.7 -56969.2 75555.1 395336
internal_weight=0 21478 24268 18227 14617 15507 2339 2387 2017 12230 3813 1493 9651 1012 13168 3599 1327 1646 101 370 9569 8417 4522 2320 8005 566 7439 1720 5719 601
internal_count=45746 21478 24268 18227 14617 15507 2339 2387 2017 12230 3813 1493 9651 1012 13168 3599 1327 1646 101 370 9569 8417 4522 2320 8005 566 7439 1720 5719 601
cat_boundaries=0 1 2 3 4 5 6 7 8 9 10 11 12 13 14 15
cat_threshold=31 7 3072 32 2 38 320 9 52 32 576 20 384 65 1024
is_linear=0
shrinkage=0.05


Tree=9
num_leaves=31
num_cat=6
split_feature=3 3 3 6 3 6 3 6 8 8 3 3 6 3 3 8 3 3 3 8 2 3 3 8 3 6 6 8 3 3
split_gain=2.25402e+18 3.84582e+17 3.59218e+17 2.76177e+17 2.61274e+17 2.05673e+17 4.4548e+17 9.12533e+16 1.20571e+17 8.79121e+16 9.85908e+16 8.33931e+16 8.14007e+16 1.63643e+17 5.93501e+16 5.50531e+16 4.98846e+17 5.00421e+16 4.53272e+16 4.47308e+16 4.33247e+16 3.43293e+16 2.45674e+16 1.68482e+16 1.52514e+16 1.69196e+16 1.42861e+16 1.307e+16 1.29746e+16 1.29299e+16
threshold=0.15725480151285742 -0.52926275112894083 1.1274292235752779 -1.2195080491753176 -0.30027748380986036 -1.2195080491753176 2.7499377516749255 -1.2195080491753176 0 1 0.038817924014328202 1.8424329817208851 -1.2195080491753176 0.25454614954125149 -0.70806847182977306 2 -0.75802889379029981 -0.1846892268617121 -1.091755747500309 3 -0.66960156609012045 2.7499377516749255 -0.76580781913941676 4 0.7802262034153894 0.44452041416306776 0.44452041416306776 5 2.1739685888536786 0.38865044006687571
decision_type=2 2 2 2 2 2 2 2 1 1 2 2 2 2 2 1 2 2 2 1 2 2 2 1 2 2 2 1 2 2
left_child=1 7 12 4 20 21 11 8 14 27 -11 26 13 -2 18 23 -17 -5 -1 -14 -3 -4 -9 -10 29 -26 -7 -6 -13 -21
right_child=2 3 5 17 9 6 -8 22 15 10 -12 28 19 -15 -16 16 -18 -19 -20 24 -22 -23 -24 -25 25 -27 -28 -29 -30 -31
leaf_value=2277634 2614875.4134955755 29373.434999999998 478241.23518518521 -208756.88885450488 247330.23801886794 799224.6552521009 -339506.14619286382 -507692.41587892902 -301014.38537827355 2754876.092013889 156018.29763513512 1080304.4687835122 436784.5320048448 369672.32947048615 2493693.4524590163 2675109.2577419356 -300305.31828478968 -15593.924288659226 -437645.31470588234 132404.16594735606 2464810.6978571429 2358335.2697095438 -367672.38805009128 -641439.84385692072 610136.03225806449 -758845.69457831327 -296781.49270833336 -238848.37949826987 1368466.5367987806 294873.47425291542
leaf_weight=22 113 20 27 6160 255 3332 804 8590 1021 72 74 746 2712 288 61 155 1545 7358 51 3024 210 241 4931 633 31 83 30 279 820 2058
leaf_count=22 113 20 27 6160 255 3332 804 8590 1021 72 74 746 2712 288 61 155 1545 7358 51 3024 210 241 4931 633 31 83 30 279 820 2058
internal_value=0 -236739 520268 -46858.4 796274 815079 751779 -397806 -169787 303547 1.34549e+06 929822 307383 1.00236e+06 1.24933e+06 -229525 -28847.8 -103616 380658 272142 2.25303e+06 2.16892e+06 -456628 -434370 185011 -386579 789445 -6405.64 1.23119e+06 198198
internal_weight=0 31437 14309 14428 910 6000 5732 17009 3488 680 146 4928 8309 401 134 3354 1700 13518 73 7908 230 268 13521 1654 5196 114 3362 534 1566 5082
internal_count=45746 31437 14309 14428 910 6000 5732 17009 3488 680 146 4928 8309 401 134 3354 1700 13518 73 7908 230 268 13521 1654 5196 114 3362 534 1566 5082
cat_boundaries=0 1 2 3 4 5 6
cat_threshold=3080 1536 20 3121 4 512
is_linear=0
shrinkage=0.05


Tree=10
num_leaves=31
num_cat=0
split_feature=3 7 3 3 3 3 3 7 7 3 3 3 7 7 3 7 7 3 3 0 3 7 0 3 3 3 7 3 3 3
split_gain=2.03442e+18 3.80165e+17 3.74011e+17 3.47144e+17 1.06106e+17 9.83833e+16 8.27316e+16 3.67915e+16 6.45836e+16 4.24164e+16 1.85268e+17 3.63513e+16 3.4109e+16 1.03421e+17 1.94108e+17 7.7822e+16 3.1148e+16 2.98649e+16 2.72796e+16 2.90885e+16 2.05154e+16 1.92654e+16 1.73398e+16 1.23228e+16 1.09786e+16 9.09515e+15 8.91815e+15 2.23318e+16 8.9118e+15 8.09406e+15
threshold=0.15725480151285742 -0.30211235967686567 1.4481181601508513 -0.52926275112894083 3.157400052708256 0.93273696518962879 0.81966864180527887 0.72383661420574374 1.2824965212660946 -0.86572866306047014 -1.1600130783805898 2.1739685888536786 0.41556963833528954 0.97629021213805423 -0.43701127022814384 0.72383661420574374 0.72383661420574374 -0.13220887133738693 0.18092026454679114 -0.31696651608385368 -0.8604696712751515 -1.1082276517198422 -0.38413509703742832 0.59616149092923865 -1.091755747500309 -0.35286740166304637 0.97629021213805423 1.0272892549965029 3.5307884694658762 -0.20835468989564579
decision_type=2 2 2 2 2 2 2 2 2 2 2 2 2 2 2 2 2 2 2 2 2 2 2 2 2 2 2 2 2 2
left_child=3 5 6 7 11 21 18 20 9 10 -9 -4 17 14 15 -14 -16 25 19 -3 24 23 -11 -2 -1 -5 27 -8 -7 -15
right_child=1 2 4 12 -6 28 26 8 -10 22 -12 -13 13 29 16 -17 -18 -19 -20 -21 -22 -23 -24 -25 -26 -27 -28 -29 -30 -31
leaf_value=-674762.79515272251 198738.38903581596 446172.54422244517 928733.50878594257 -257377.33000359542 2181981.2174722222 -542282.03423930926 2324734.3693181816 -439310.06641304347 -472722.2593763214 -68864.717683531751 1146751.5851791531 1319232.9297036082 -270997.03513513517 -213235.2341728856 6437.7198106957985 2266199.000606061 422094.49587248324 1277.37918170282 297816.85923246428 2628467.7384615387 -362595.83507213229 20009.213331182575 -336908.74196606787 407075.38190993789 -469780.21236559143 -124624.06435725902 562877.24412765959 721290.87943283585 -219350.13330718494 -32130.322116585812
leaf_weight=753 1581 37 1878 2086 225 380 22 460 2365 1008 307 873 37 1608 1141 165 745 4263 3821 26 5684 840 1503 1288 4929 3382 1175 1675 488 1001
leaf_count=753 1581 37 1878 2086 225 380 22 460 2365 1008 307 873 37 1608 1141 165 745 4263 3821 26 5684 840 1503 1288 4929 3382 1175 1675 488 1001
internal_value=0 494270 671012 -224917 1.13804e+06 118465 465289 -377944 -273579 -129902 195528 1.05265e+06 -44515.2 66139.5 328401 1.80147e+06 170629 -97926.4 314832 1.3468e+06 -429759 230608 -229307 292269 -496945 -175268 668763 742078 -360726 -143750
internal_weight=0 14309 9732 31437 2976 4577 6756 17009 5643 3278 767 2751 14428 4697 2088 202 1886 9731 3884 63 11366 3709 2511 2869 5682 5468 2872 1697 868 2609
internal_count=45746 14309 9732 31437 2976 4577 6756 17009 5643 3278 767 2751 14428 4697 2088 202 1886 9731 3884 63 11366 3709 2511 2869 5682 5468 2872 1697 868 2609
is_linear=0
shrinkage=0.05


Tree=11
num_leaves=31
num_cat=6
split_feature=3 3 3 6 3 6 3 8 3 6 8 6 3 3 3 8 3 3 3 3 2 3 3 8 6 8 3 8 3 2
split_gain=1.8366e+18 3.06587e+17 3.00629e+17 2.25036e+17 2.20392e+17 1.7412e+17 3.70175e+17 8.43781e+16 1.1314e+17 7.38334e+16 1.06952e+17 7.05211e+16 1.4044e+17 6.46205e+16 5.45393e+16 4.94191e+16 4.34759e+17 4.25097e+16 4.10369e+16 3.79924e+16 3.73544e+16 2.17002e+16 2.14913e+16 1.34782e+16 2.70907e+16 1.34546e+16 1.29341e+16 1.18586e+16 1.08402e+16 1.06706e+16
threshold=0.10729437955233076 1.2114635298115146 -0.52926275112894083 -1.2195080491753176 -0.30027748380986036 -1.2195080491753176 2.7499377516749255 0 0.038817924014328202 -1.2195080491753176 1 -1.2195080491753176 0.25454614954125149 1.8424329817208851 -0.70806847182977306 2 -0.75802889379029981 -1.091755747500309 0.49635020933704604 -0.23212971525844026 -0.66960156609012045 2.7499377516749255 -0.68966200058115801 3 0.44452041416306776 4 -1.0654607885737157 5 2.32132992117146 -0.50168011370618382
decision_type=2 2 2 2 2 2 2 1 2 2 1 2 2 2 2 1 2 2 2 2 2 2 2 1 2 1 2 1 2 2
left_child=2 11 9 4 20 21 13 8 -6 10 14 12 -2 -7 17 25 -17 -1 -13 -5 -4 -3 26 24 -20 -12 -11 -9 -15 -14
right_child=1 5 3 19 7 6 -8 27 -10 22 15 18 29 28 -16 16 -18 -19 23 -21 -22 -23 -24 -25 -26 -27 -28 -29 -30 -31
leaf_value=2185717.8000000003 2354167.6169791664 560805.44166666677 -11641.011250000001 -202126.24935280022 2932233.1292307694 721427.3322669426 -309644.27251413831 -247693.65622837373 -29366.869726562501 -603022.8005231038 -284615.59209505335 141150.56305977725 185104.31817213329 1016304.2574580869 2374230.7688524588 2504168.6948387097 -273553.9356957929 -443818.73627450981 307627.32094216417 -29044.232980805707 2249774.7245238097 2137366.4589211619 -289407.83549840935 391205.8967832168 -716822.17000000004 -589889.22115085542 -425318.81476689363 211079.62518181821 1291661.0062952898 994211.4836734694
leaf_weight=22 120 24 20 5321 65 3202 804 279 64 1147 1021 4502 242 1014 61 155 1545 51 268 7845 210 241 2829 3565 85 633 9545 265 552 49
leaf_count=22 120 24 20 5321 65 3202 804 279 64 1147 1021 4502 242 1014 61 155 1545 51 268 7845 210 241 2829 3565 85 633 9545 265 552 49
internal_value=0 461187 -217613 -46625 716942 742359 682804 260296 1.35767e+06 -359047 -153943 275342 914870 850155 1.18249e+06 -210235 -20172.3 348644 244125 -98994.8 2.05313e+06 1.99458e+06 -411957 362449 59267.9 -404289 -444382 -24434.2 1.11336e+06 321346
internal_weight=0 14668 31078 14069 903 5837 5572 673 129 17009 3488 8831 411 4768 134 3354 1700 73 8420 13166 230 265 13521 3918 353 1654 10692 544 1566 291
internal_count=45746 14668 31078 14069 903 5837 5572 673 129 17009 3488 8831 411 4768 134 3354 1700 73 8420 13166 230 265 13521 3918 353 1654 10692 544 1566 291
cat_boundaries=0 1 2 3 4 5 6
cat_threshold=384 3080 20 14 4 1024
is_linear=0
shrinkage=0.05


Tree=12
num_leaves=31
num_cat=0
split_feature=3 7 3 3 3 3 3 7 7 3 3 7 7 3 7 7 3 3 0 3 3 7 0 3 3 3 3 3 7 3
split_gain=1.65772e+18 3.12455e+17 3.07594e+17 2.82664e+17 8.38226e+16 8.13553e+16 7.78476e+16 2.989e+16 5.28174e+16 3.68164e+16 1.55203e+17 2.80308e+16 8.46983e+16 1.57331e+17 6.34232e+16 2.50151e+16 2.49471e+16 2.20952e+16 2.41019e+16 2.14979e+16 1.71626e+16 1.61325e+16 1.47967e+16 1.00388e+16 9.06722e+15 8.38542e+15 7.59826e+15 6.70125e+15 6.62243e+15 1.97721e+16
threshold=0.15725480151285742 -0.30211235967686567 1.5138555574673338 -0.52926275112894083 0.81966864180527887 0.93273696518962879 3.157400052708256 0.72383661420574374 1.2824965212660946 -0.86572866306047014 -1.1600130783805898 0.41556963833528954 0.97629021213805423 -0.43701127022814384 0.72383661420574374 0.72383661420574374 -0.13220887133738693 0.18092026454679114 -0.31696651608385368 2.1739685888536786 -0.8604696712751515 -1.1082276517198422 -0.55205654942136484 0.62508594574849086 -1.091755747500309 3.5307884694658762 -0.35286740166304637 0.7802262034153894 0.97629021213805423 1.0272892549965029
decision_type=2 2 2 2 2 2 2 2 2 2 2 2 2 2 2 2 2 2 2 2 2 2 2 2 2 2 2 2 2 2
left_child=3 5 4 7 17 21 19 20 9 10 -9 16 13 14 -13 -15 26 18 -3 -4 24 23 -11 -2 -1 -7 -5 -23 29 -6
right_child=1 2 6 11 28 25 -8 8 -10 22 -12 12 -14 15 -16 -17 -18 -19 -20 -21 -22 27 -24 -25 -26 -27 -28 -29 -30 -31
leaf_value=-610873.51328021253 185184.15828311013 392881.88154560816 876037.09545454558 -234402.15225910835 2172871.5340909092 -506400.83864720399 1974714.3278333333 -394981.09038043482 -427142.92182875267 -36842.792310012061 1056694.4700325734 -247340.87229729729 -129878.64835664071 8220.4528083232926 2043141.416969697 380716.13967281883 2002.9882869998755 268627.75801747333 2379335.9538461543 1193291.2482817869 -326392.88647959189 59268.376952102422 -294941.52337990486 375042.85197645082 -424587.30146581458 -193151.13335681355 -113063.9606833974 -433036.36250000005 539340.95033088233 665678.81216758664
leaf_weight=753 1680 37 1375 2086 22 380 225 460 2365 829 307 37 2609 1141 165 745 4263 3821 26 873 5684 764 1682 1189 4929 488 3382 76 1360 1993
leaf_count=753 1680 37 1375 2086 22 380 225 460 2365 829 307 37 2609 1141 165 745 4263 3821 26 873 5684 764 1682 1189 4929 488 3382 76 1360 1993
internal_value=0 446163 606395 -203034 442324 105465 1.08799e+06 -341120 -247052 -117120 186068 -40246.7 60065.2 297404 1.6236e+06 155362 -88665.8 283941 1.21269e+06 999241 -387823 207443 -209731 263867 -449275 -330288 -159354 14726.5 624594 682135
internal_weight=0 14309 9732 31437 7259 4577 2473 17009 5643 3278 767 14428 4697 2088 202 1886 9731 3884 63 2248 11366 3709 2511 2869 5682 868 5468 840 3375 2015
internal_count=45746 14309 9732 31437 7259 4577 2473 17009 5643 3278 767 14428 4697 2088 202 1886 9731 3884 63 2248 11366 3709 2511 2869 5682 868 5468 840 3375 2015
is_linear=0
shrinkage=0.05


Tree=13
num_leaves=31
num_cat=4
split_feature=5 5 6 6 6 5 6 8 5 5 5 5 8 8 8 5 5 5 5 5 5 5 5 5 5 6 6 5 5 5
split_gain=2.40728e+18 6.32506e+17 2.01419e+17 1.84137e+17 2.16103e+17 2.44608e+17 1.44953e+17 6.54943e+16 5.9937e+16 5.1885e+16 4.97339e+16 4.33517e+16 3.17186e+16 3.05847e+16 2.04988e+16 1.56685e+16 1.46404e+16 1.15429e+16 1.12001e+16 4.25153e+15 3.8132e+15 3.59416e+15 3.23167e+15 2.88082e+15 1.78582e+15 1.6886e+15 1.55034e+15 1.21701e+15 1.20278e+15 9.6079e+14
threshold=-1.8767958030689205 -0.2210559574442347 0.44452041416306776 -0.66515981441848626 0.44452041416306776 0.34580233081465389 -0.66515981441848626 0 -0.80347591497189275 -4.371233446276876 -0.99152182054136084 -0.85048739136425977 1 2 3 -0.064133390412305882 -1.1325562497184618 0.13697125859948642 -3.890671687599347 0.72700881646850046 -1.0803212759491652 -3.2426315442740097 -0.29919077237414099 -0.60498301464856541 -1.3361638245566996 -1.2195080491753176 -1.2195080491753176 -0.10341844360129777 1.0000000180025095e-35 -0.49256899818255812
decision_type=2 2 2 2 2 2 2 1 2 2 2 2 1 1 1 2 2 2 2 2 2 2 2 2 2 2 2 2 2 2
left_child=9 2 6 13 5 12 11 -7 16 -1 20 -2 -5 19 -12 -6 24 27 -11 26 -8 -20 29 -13 -4 -19 -3 -15 -17 -10
right_child=1 3 8 4 15 7 10 -9 22 18 14 23 -14 17 -16 28 -18 25 21 -21 -22 -23 -24 -25 -26 -27 -28 -29 -30 -31
leaf_value=3057339.4551020414 893595.40127388539 -462407.06983590731 557134.89869791677 535848.05674224347 -231813.9426653944 10370.171329761499 900238.17802795023 -298817.21671841072 -22822.449803118394 2510459.922651934 396499.00034061819 115049.69348052403 201023.57128603623 -178884.92036516857 637370.31665281288 -366418.74882734532 130198.76523532037 -332252.10160668381 2134265.852416357 -643431.78326388891 1164490.4506856541 1873968.2451704547 -161173.50749819103 -5200.4287381394388 332220.09254456125 -396477.61178093648 -579474.71683804633 -262381.60797215247 -421982.60292735818 -67557.921005230237
leaf_weight=196 157 1036 96 828 1965 2735 322 4595 2365 181 2139 742 5024 534 1764 1503 2066 1556 538 720 237 176 691 1515 1094 2990 389 2388 2767 2437
leaf_count=196 157 1036 96 828 1965 2735 322 4595 2365 181 2139 742 5024 534 1764 1503 2066 1556 538 720 237 176 691 1515 1094 2990 389 2388 2767 2437
internal_value=0 -56665.4 199831 -194721 -106116 8603.11 402329 -183845 40683.5 2.32052e+06 571186 90216.5 249657 -373690 508012 -348656 210665 -324224 2.15916e+06 -541875 1.01227e+06 2.0701e+06 -60073.7 34332.4 350364 -374495 -494364 -247122 -402425 -45525.6
internal_weight=0 44655 15625 29030 19417 13182 6876 7330 8749 1091 4462 2414 5852 9613 3903 6235 3256 7468 895 2145 559 714 5493 2257 1190 4546 1425 2922 4270 4802
internal_count=45746 44655 15625 29030 19417 13182 6876 7330 8749 1091 4462 2414 5852 9613 3903 6235 3256 7468 895 2145 559 714 5493 2257 1190 4546 1425 2922 4270 4802
cat_boundaries=0 1 2 3 4
cat_threshold=3872 1 28 2688
is_linear=0
shrinkage=0.05


Tree=14
num_leaves=31
num_cat=3
split_feature=5 5 5 5 5 5 5 0 9 5 5 5 0 5 5 0 9 5 9 0 5 5 0 5 0 0 0 0 0 0
split_gain=2.17254e+18 5.70914e+17 9.61347e+16 7.48933e+16 4.68263e+16 3.2653e+16 3.65832e+16 3.12475e+16 2.61061e+16 1.9331e+16 1.54503e+16 1.34973e+16 2.53861e+16 1.48764e+16 1.32729e+16 1.14741e+16 1.69275e+16 1.01081e+16 9.59056e+15 8.87781e+15 8.62779e+15 7.54817e+15 6.07217e+15 5.94428e+15 4.0639e+15 4.15389e+15 4.84554e+15 3.76921e+15 3.5262e+15 3.28224e+15
threshold=-1.8767958030689205 -0.2210559574442347 -0.85048739136425977 0.34580233081465389 -4.371233446276876 0.74267930859928943 2.2132026430670115 1.2111187006099697 0 0.074289290076330353 -1.3361638245566996 -0.40115779408628893 -0.66960156609012045 -0.54219222326338989 -0.29919077237414099 -0.66960156609012045 1 -3.890671687599347 2 -0.36734295179903464 1.0977683073684876 0.52340124163026269 -0.45130367799100296 2.6543705256935297 -0.26659008036867266 -0.31696651608385368 -0.53526440418297117 0.60660147202779779 -0.46809582322939663 0.18679784106795613
decision_type=2 2 2 2 2 2 2 2 1 2 2 2 2 2 2 2 1 2 1 2 2 2 2 2 2 2 2 2 2 2
left_child=4 2 10 7 24 21 20 8 9 -3 28 12 18 -14 19 16 -12 -6 -4 -13 -7 -5 -10 -8 25 26 -1 -17 -2 -26
right_child=1 3 11 5 17 6 23 -9 22 -11 15 14 13 -15 -16 27 -18 -19 -20 -21 -22 -23 -24 -25 29 -27 -28 -29 -30 -31
leaf_value=2653595.152777778 664162.22105263162 -89978.753326252234 726333.22948821308 -310202.88101885084 2384936.9248618786 -213458.6927418292 -381236.02722663141 -288318.80444407457 -167750.38330297716 119335.51437758382 309522.54186555318 463257.60103018535 115132.91853590036 -26598.069872572669 67228.049700194475 320688.55397623789 897567.20575284085 1966597.7090336133 245873.84800356603 217023.52432905749 -76259.982711064382 -420543.73805912747 -88762.49694794316 -673201.82475728169 3653810.0230769236 2141598.1000000001 3419079.579310345 543193.58700248762 1108972.6402985076 2948156.2933333335
leaf_weight=72 133 2236 162 3657 181 1897 1134 2253 5559 2177 327 499 4226 3295 1157 3586 232 714 366 1374 2894 2690 4327 206 26 24 29 201 67 45
leaf_count=72 133 2236 162 3657 181 1897 1134 2253 5559 2177 327 499 4226 3295 1157 3586 232 714 366 1374 2894 2690 4327 206 26 24 29 201 67 45
internal_value=0 -53815.5 189872 -184977 2.20449e+06 -277473 -195177 -115248 -87978.1 13249.1 383486 110428 76567.1 53039.6 200376 363712 575171 2.0512e+06 411701 282625 -130584 -356968 -133044 -426120 2.90447e+06 2.73288e+06 2.87339e+06 332498 813174 3.20656e+06
internal_weight=0 44655 15625 29030 1091 12478 6131 16552 14299 4413 4546 11079 8049 7521 3030 4346 559 895 528 1873 4791 6347 9886 1340 196 125 101 3787 200 71
internal_count=45746 44655 15625 29030 1091 12478 6131 16552 14299 4413 4546 11079 8049 7521 3030 4346 559 895 528 1873 4791 6347 9886 1340 196 125 101 3787 200 71
cat_boundaries=0 1 2 3
cat_threshold=34 81 32
is_linear=0
shrinkage=0.05


Tree=15
num_leaves=31
num_cat=5
split_feature=3 3 3 6 3 6 8 3 8 6 8 3 6 3 3 3 8 3 3 4 6 3 3 6 6 3 6 3 3 8
split_gain=1.32459e+18 2.422e+17 2.069e+17 1.10363e+17 1.00586e+17 2.91359e+17 6.92714e+16 2.02584e+17 6.83979e+16 5.13508e+16 6.71136e+16 2.28224e+17 5.10867e+16 9.51493e+16 4.59788e+16 3.00913e+16 3.00869e+16 2.74205e+16 1.63146e+16 1.56911e+16 1.20128e+16 1.08681e+16 1.18086e+17 1.07582e+16 1.08376e+16 9.44125e+15 1.14757e+16 9.18914e+15 8.81231e+15 8.06786e+15
threshold=0.10729437955233076 1.1274292235752779 -0.53715123880691873 -1.2195080491753176 2.7499377516749255 -1.2195080491753176 0 -0.2794606413263076 1 -1.2195080491753176 2 -0.76580781913941676 -1.2195080491753176 0.25454614954125149 1.9370948338566198 -0.69755048825913579 3 -0.11643189598143117 -0.67125552933254296 2.0985101944229663 1.0000000180025095e-35 -1.020759358398508 -1.1600130783805898 -0.66515981441848626 0.44452041416306776 0.7802262034153894 0.44452041416306776 -1.0654607885737157 0.33584139755596815 4
decision_type=2 2 2 2 2 2 1 2 1 2 1 2 2 2 2 2 1 2 2 2 2 2 2 2 2 2 2 2 2 1
left_child=2 12 9 6 14 -6 -4 -8 -9 10 21 19 13 -2 23 -13 -14 -5 27 -12 -16 22 -1 -3 -25 28 -27 -11 -18 -7
right_child=1 4 3 17 5 29 7 8 -10 18 11 15 16 -15 20 -17 25 -19 -20 -21 -22 -23 -24 24 -26 26 -28 -29 -30 -31
leaf_value=-494840.10324825993 1951722.0347916668 -414789.59166666667 -269556.13614982576 -149240.33855560477 1715028.1265560165 -464025.36297021946 1916044.1434782611 -73282.477476635526 1163717.7320422537 -507909.1330863121 1781317.8572192513 299974.03357605182 331939.72204494913 275946.12220255536 -35247.035714285717 -261671.79507177035 78063.958552862794 -4026.2808884280794 -230011.05009386735 583137.08437499998 1011982.5332530121 -435578.70795254828 1544291.4405882354 655366.43236348592 -268840.51494140626 498856.87258064514 -628577.95722891565 -358375.10763296793 205722.21631274605 -131937.30676632116
leaf_weight=431 120 24 277 7623 241 309 230 525 132 1147 187 309 2716 288 28 1045 2890 5668 2397 32 1245 1138 85 3626 32 31 83 9852 2540 495
leaf_count=431 120 24 277 7623 241 309 230 525 132 1147 187 309 2716 288 28 1045 2890 5668 2397 32 1245 1138 85 3626 32 31 83 9852 2540 495
internal_value=0 391695 -184774 -46427.6 635900 190114 420420 631808 191844 -305078 -126027 108030 222656 768821 729916 -133497 195678 -87313.2 -348210 1.60624e+06 988948 -347175 -158937 640359 647282 128094 -321995 -373969 137779 -266981
internal_weight=0 14668 31078 14455 6000 1045 1164 887 657 16623 3227 1573 8668 408 4955 1354 8260 13291 13396 219 1273 1654 516 3682 3658 5544 114 10999 5430 804
internal_count=45746 14668 31078 14455 6000 1045 1164 887 657 16623 3227 1573 8668 408 4955 1354 8260 13291 13396 219 1273 1654 516 3682 3658 5544 114 10999 5430 804
cat_boundaries=0 1 2 3 4 5
cat_threshold=2049 1536 20 3121 15
is_linear=0
shrinkage=0.05


Tree=16
num_leaves=31
num_cat=1
split_feature=5 3 3 3 3 5 5 3 3 3 3 5 3 8 5 3 6 3 3 3 5 6 3 6 3 5 3 6 5 5
split_gain=1.832e+18 1.2394e+18 2.40276e+17 1.44369e+17 2.47563e+17 1.26643e+17 4.1795e+16 3.86886e+16 3.69903e+16 2.57292e+16 2.26774e+16 1.792e+16 1.66048e+16 1.56981e+16 1.49486e+16 1.23903e+16 8.21183e+15 8.08694e+15 4.56372e+15 4.42236e+15 4.0251e+15 3.87836e+15 3.53699e+15 3.38183e+15 3.05764e+15 2.71316e+15 2.60089e+15 2.30395e+15 2.36406e+15 2.13537e+15
threshold=-1.8767958030689205 0.27032312489720728 -0.41356493185193177 2.7499377516749255 1.2114635298115146 -0.80347591497189275 -3.890671687599347 1.8424329817208851 -0.92609750626277321 -0.30827553381669909 -0.019030985624176353 -0.23400587802453951 -0.67125552933254296 0 -0.27579385703997683 -0.52926275112894083 0.44452041416306776 0.7802262034153894 3.7834391998188903 0.67241687181635823 -3.7024081363058401 -0.66515981441848626 -0.1795397974052543 -1.2195080491753176 -1.0523133091104195 -0.71467645956408843 -0.8604696712751515 -0.66515981441848626 -3.2426315442740097 0.074289290076330353
decision_type=2 2 2 2 2 2 2 2 2 2 2 2 2 1 2 2 2 2 2 2 2 2 2 2 2 2 2 2 2 2
left_child=6 2 5 4 13 21 9 16 24 -1 22 -9 -10 19 25 26 -6 -15 -11 -3 -17 -2 -4 -12 -7 -5 -8 28 -22 -16
right_child=1 3 10 14 7 8 15 11 12 18 23 -13 -14 17 29 20 -18 -19 -20 -21 27 -23 -24 -25 -26 -27 -28 -29 -30 -31
leaf_value=3518965.6938775512 902222.86624999996 190365.740080819 -137557.41821831366 662445.22003906255 608342.14150439703 -528086.22609202098 1902622.2583850932 928756.24264801561 -346771.38664568349 2402682.6298755188 -162694.17018546749 -266711.93437500001 -237105.27476728722 173446.32360999857 -284192.27152255637 1790548.1368983958 -320014.6244791667 -179844.83882352943 1980210.2172413794 344199.0764076811 1544058.7914728683 1446523.7933333335 -69272.462688720712 26563.180845832103 -438518.6621905652 48237.868541520365 2195096.1083333334 1927845.1840000001 1179739.0231617647 -473445.62385923677
leaf_weight=49 120 580 4655 20 3184 1717 161 1537 8896 241 246 32 5640 3433 266 187 24 170 87 2402 129 45 3200 5830 2141 178 144 25 68 339
leaf_count=49 120 580 4655 20 3184 1717 161 1537 8896 241 246 32 5640 3433 266 187 24 170 87 2402 129 45 3200 5830 2141 178 144 25 68 339
internal_value=0 -49390.1 -210574 381096 426887 -328379 2.02439e+06 700909 -340749 2.45028e+06 -53633 904374 -304221 228101 -266822 1.79951e+06 601397 156343 2.29062e+06 313228 1.61964e+06 1.05067e+06 -109739 18900.7 -478381 110279 2.04071e+06 1.47568e+06 1.4183e+06 -390237
internal_weight=0 44655 32490 12165 11362 18559 1091 4777 18394 377 13931 1569 14536 6585 803 714 3208 3603 328 2982 409 165 7855 6076 3858 198 305 222 197 605
internal_count=45746 44655 32490 12165 11362 18559 1091 4777 18394 377 13931 1569 14536 6585 803 714 3208 3603 328 2982 409 165 7855 6076 3858 198 305 222 197 605
cat_boundaries=0 1
cat_threshold=3617
is_linear=0
shrinkage=0.05


Tree=17
num_leaves=31
num_cat=2
split_feature=5 5 7 7 6 6 5 7 5 8 5 8 7 6 6 6 5 5 7 5 7 5 5 5 5 5 0 0 0 0
split_gain=1.65338e+18 4.25946e+17 1.68904e+17 2.41496e+17 1.34071e+17 1.5741e+17 1.7032e+17 2.14517e+17 5.88775e+16 4.42746e+16 3.772e+16 2.2057e+16 1.97937e+16 1.88257e+16 5.16729e+16 1.39105e+16 1.32253e+16 1.19818e+16 8.57043e+15 8.11918e+15 7.38328e+15 7.32501e+15 6.95622e+15 5.4911e+15 4.43432e+15 4.12476e+15 3.74233e+15 3.33653e+15 3.30612e+15 4.32635e+15
threshold=-1.8767958030689205 -0.20516781958940697 1.0000000180025095e-35 0.41556963833528954 -0.66515981441848626 0.44452041416306776 0.34057883343772416 1.2824965212660946 -1.1325562497184618 0 -3.890671687599347 1 -1.1082276517198422 1.0000000180025095e-35 -0.66515981441848626 0.44452041416306776 -0.80347591497189275 -0.74590862096364707 -1.1082276517198422 -4.371233446276876 -1.1082276517198422 0.13697125859948642 0.10563027433790838 -0.014510165331474036 -0.85048739136425977 0.72700881646850046 -0.21621364465349172 0.20358998630634981 -0.31696651608385368 -0.53526440418297117
decision_type=2 2 2 2 2 2 2 2 2 1 2 1 2 2 2 2 2 2 2 2 2 2 2 2 2 2 2 2 2 2
left_child=10 2 8 17 11 6 7 -6 15 -8 19 25 21 14 -5 -2 18 -4 -10 26 -18 -7 -13 -14 -15 -3 28 -28 29 -1
right_child=1 4 3 13 5 12 9 -9 16 -11 -12 22 23 24 -16 -17 20 -19 -20 -21 -22 -23 -24 -25 -26 -27 27 -29 -30 -31
leaf_value=2311453.6499999999 800376.09966216225 -410857.92673684214 1085468.5588235294 26496.719354545356 419701.54824608495 -131695.69364198452 16003.111548127279 -258890.05705303029 192388.39197642793 -236770.13900436737 1709534.9819502803 -208731.52629083741 -322196.25774442084 161759.41193965884 443925.15415876027 286373.62162191438 -3911.6824253208101 796950.25399811857 -11642.107666471018 2086303.0121546963 -111599.60663604965 -298031.75089204026 -309804.0686347743 -452070.38371687592 -34021.143915459041 -557686.10763888888 3180039.4111111113 2484000.1818181816 1886894.5384615385 3034766.4758620691
leaf_weight=72 148 1425 544 1396 3959 1678 2735 1650 1103 4734 714 2663 1882 413 1581 1190 3911 1063 965 181 2684 1093 4719 1434 965 720 36 33 26 29
leaf_count=72 148 1425 544 1396 3959 1678 2735 1650 1103 4734 714 2663 1882 413 1581 1190 3911 1063 965 181 2684 1093 4719 1434 965 720 36 33 26 29
internal_value=0 -46920.5 160110 370759 -162104 -85899.1 11861.2 220080 34534.4 -144505 1.92317e+06 -315401 -295938 177454 248181 343229 -13143.5 894619 97180.7 2.32776e+06 -47738 -197306 -272973 -378360 24656.2 -458008 2.55074e+06 2.84715e+06 2.3897e+06 2.51914e+06
internal_weight=0 44655 15963 5962 28692 19165 13078 5609 10001 7469 1091 9527 6087 4355 2977 1338 8663 1607 2068 377 6595 2771 7382 3316 1378 2145 196 69 127 101
internal_count=45746 44655 15963 5962 28692 19165 13078 5609 10001 7469 1091 9527 6087 4355 2977 1338 8663 1607 2068 377 6595 2771 7382 3316 1378 2145 196 69 127 101
cat_boundaries=0 1 2
cat_threshold=3872 28
is_linear=0
shrinkage=0.05


Tree=18
num_leaves=31
num_cat=7
split_feature=0 9 0 9 4 0 0 0 9 9 0 0 0 0 0 9 0 0 0 9 0 0 0 0 9 0 0 0 0 0
split_gain=3.25388e+16 2.49687e+16 1.46341e+16 4.94863e+16 1.23971e+16 1.44292e+16 7.12433e+15 5.82053e+15 7.05473e+15 5.18997e+15 4.88543e+15 7.8043e+15 4.43253e+15 6.31518e+15 3.75112e+15 3.59445e+15 3.49763e+15 3.66794e+15 7.58436e+15 3.42504e+15 3.05744e+15 6.05665e+15 4.70194e+15 9.83e+15 4.26584e+15 6.5978e+15 3.95493e+15 3.36235e+15 2.72931e+15 2.63909e+15
threshold=0.7241464886965534 0 -0.61922513037493954 1 2.0985101944229663 -0.65280942085172688 0.60660147202779779 -0.56884869465975851 2 3 -0.40092724227582194 -0.35055080656064097 4.5779438209078984 1.6645066220465985 -0.58564083989815219 4 0.035668533922413176 -0.38413509703742832 -0.51847225894457749 5 1.832428074430535 1.043197248226033 2.1850631244368022 2.394964939916723 6 1.7820516387153542 0.97602866727245829 0.90886008631888371 -0.41771938751421561 -0.36734295179903464
decision_type=2 1 2 1 2 2 2 2 1 1 2 2 2 2 2 1 2 2 2 1 2 2 2 2 1 2 2 2 2 2
left_child=1 6 3 4 5 -3 16 8 -4 20 28 -12 13 19 -10 -5 17 18 -1 -11 21 26 -22 -24 -23 -26 27 -2 -9 -19
right_child=9 2 7 15 -6 -7 -8 10 14 12 11 -13 -14 -15 -16 -17 -18 29 -20 -21 22 24 23 -25 25 -27 -28 -29 -30 -31
leaf_value=-74541.491637887128 -137075.13928886928 405334.13057774951 63583.040797993963 34231.988809167953 -24161.386993193704 151501.40921245806 290627.85739795922 65665.78633772803 -54441.762095403741 -32078.855335554297 -99710.865062124183 25630.136519455791 153795.20450450451 -250842.0876489277 -200598.56538554569 -57812.328831542625 27581.207771656653 -277099.89979591838 81402.177424381691 -186687.18298775674 -219504.62031739048 161984.46865030169 549421.30953125004 -87712.808630952379 -135264.27382927728 479997.00599999999 -375079.8516393443 83709.901814516139 242260.4417834052 -104409.65355424225
leaf_weight=4694 566 1498 957 4548 313 894 147 3844 1370 859 1372 13097 111 1259 646 1373 1009 245 935 623 639 528 65 882 339 50 122 248 232 2281
leaf_count=4694 566 1498 957 4548 313 894 147 3844 1370 859 1372 13097 111 1259 646 1373 1009 245 935 623 639 528 65 882 339 50 122 248 232 2281
internal_value=0 16897.1 38998.4 94034.9 270744 310465 -54638.2 16953.8 -47994.3 -105547 27365.8 13744.9 -155412 -168500 -100776 12826.7 -60236.3 -71101.7 -48638.6 -98548.9 -63556.1 -20124.8 -114700 -43981.3 71202.7 -54773.8 -109599 -69808.9 75717.3 -121159
internal_weight=0 39455 30144 8626 2705 2392 9311 21518 2973 6291 18545 14469 2852 2741 2016 5921 9164 8155 5629 1482 3439 1853 1586 947 917 389 936 814 4076 2526
internal_count=45746 39455 30144 8626 2705 2392 9311 21518 2973 6291 18545 14469 2852 2741 2016 5921 9164 8155 5629 1482 3439 1853 1586 947 917 389 936 814 4076 2526
cat_boundaries=0 1 2 3 4 5 6 7
cat_threshold=9 34 66 100 20 10 96
is_linear=0
shrinkage=0.05


Tree=19
num_leaves=31
num_cat=0
split_feature=5 3 3 3 3 5 5 3 3 5 3 3 5 3 3 3 3 3 6 5 5 3 6 6 3 3 5 3 3 6
split_gain=1.48942e+18 1.00183e+18 1.90874e+17 1.16867e+17 2.08865e+17 1.05841e+17 3.36558e+16 3.1728e+16 3.10854e+16 3.09337e+16 2.23246e+16 1.81124e+16 1.25834e+16 1.22885e+16 1.1309e+16 1.08204e+16 4.11388e+15 4.08333e+15 3.74336e+15 3.63028e+15 3.40521e+15 2.37272e+16 2.72028e+15 2.63322e+15 2.30771e+15 2.27641e+15 2.22768e+15 2.17476e+15 2.10245e+15 2.07359e+15
threshold=-1.8767958030689205 0.25454614954125149 -0.41356493185193177 1.1274292235752779 2.7499377516749255 -0.80347591497189275 -3.890671687599347 -0.91032053090681742 1.5217440451453117 0.095183279584049041 -0.30827553381669909 -0.019030985624176353 -0.27579385703997683 -0.65810804986924643 -0.52926275112894083 0.54642019362643357 3.7834391998188903 -1.020759358398508 -0.66515981441848626 -3.7024081363058401 -0.12703300465950065 0.81966864180527887 -1.2195080491753176 -1.2195080491753176 -0.8604696712751515 -0.29260812078960408 -0.71467645956408843 0.71448880609890708 1.3666037874784129 -0.66515981441848626
decision_type=2 2 2 2 2 2 2 2 2 2 2 2 2 2 2 2 2 2 2 2 2 2 2 2 2 2 2 2 2 2
left_child=6 2 5 15 8 18 10 17 28 -10 -1 23 26 -9 24 -3 -12 -7 -2 -16 27 -22 -13 -4 -8 -25 -6 -17 -5 -21
right_child=1 3 11 4 12 7 14 13 9 -11 16 22 -14 -15 19 20 -18 -19 -20 29 21 -23 -24 25 -26 -27 -28 -29 -30 -31
leaf_value=3202967.6897959188 819425.65833333333 124096.15032390592 -231766.98944986073 484752.98732837534 602201.73781249998 -468526.25726195704 1723884.6118012422 -307321.49352451158 792551.1917043787 -1183442.5574999999 2165172.6614107885 -147432.86265432098 -357345.93812241737 -211030.1646379185 1613989.0614973262 209395.36318385007 1764061.6471264367 -373845.17778998241 1354169.4788888888 1260529.4260152285 266003.64029338327 -502022.13282608701 23406.928428009185 -134111.5488169165 1999381.0819444444 -74613.97876577334 45651.458068161868 308967.54795501026 572312.28614804975 1743927.2520000001
leaf_weight=49 120 2953 359 1748 20 2279 161 8343 2044 20 241 243 605 5496 187 762 87 2276 45 197 801 115 5668 2335 144 5161 178 1956 1128 25
leaf_count=49 120 2953 359 1748 20 2279 161 8343 2044 20 241 243 605 5496 187 762 87 2276 45 197 801 115 5668 2335 144 5161 178 1956 1128 25
internal_value=0 -44538.9 -190805 338921 503778 -295446 1.82532e+06 -306755 625349 773404 2.20749e+06 -49730.7 -244115 -269080 1.62352e+06 195186 2.05878e+06 -421217 965265 1.45168e+06 252954 169581 16383.7 -99482.8 1.85396e+06 -93147.4 101869 281052 519095 1.31497e+06
internal_weight=0 44655 32325 12330 5743 18559 1091 18394 4940 2064 377 13766 803 13839 714 6587 328 4555 165 409 3634 916 5911 7855 305 7496 198 2718 2876 222
internal_count=45746 44655 32325 12330 5743 18559 1091 18394 4940 2064 377 13766 803 13839 714 6587 328 4555 165 409 3634 916 5911 7855 305 7496 198 2718 2876 222
is_linear=0
shrinkage=0.05


Tree=20
num_leaves=31
num_cat=0
split_feature=5 3 3 3 3 5 5 5 3 3 3 3 3 5 3 3 5 3 3 5 3 6 6 3 3 5 3 5 6 5
split_gain=1.3442e+18 9.04233e+17 1.75518e+17 1.06809e+17 1.86272e+17 9.55213e+16 3.07865e+16 2.93149e+16 3.15151e+16 2.86346e+16 2.19992e+16 1.70551e+16 1.15476e+16 1.1396e+16 1.10904e+16 9.95438e+15 5.94783e+15 4.12606e+15 4.07825e+15 3.8835e+15 3.68521e+15 3.37838e+15 2.49515e+15 2.44786e+15 2.08271e+15 2.00626e+15 1.96986e+15 1.83357e+15 1.37231e+15 1.18531e+15
threshold=-1.8767958030689205 0.27032312489720728 -0.41356493185193177 2.7499377516749255 1.2114635298115146 -0.80347591497189275 -4.371233446276876 0.42415479146859897 1.9899038763675274 -0.91032053090681742 0.15725480151285742 -0.019030985624176353 1.5138555574673338 -0.41160478884014828 -0.65810804986924643 0.56997609433150653 -3.890671687599347 -0.52926275112894083 -0.93661548983341036 -0.12703300465950065 -1.020759358398508 -0.66515981441848626 -1.2195080491753176 -0.1795397974052543 -0.8604696712751515 0.074289290076330353 3.5307884694658762 -0.71467645956408843 -1.2195080491753176 -3.7024081363058401
decision_type=2 2 2 2 2 2 2 2 2 2 2 2 2 2 2 2 2 2 2 2 2 2 2 2 2 2 2 2 2 2
left_child=6 2 5 4 15 21 10 8 -6 20 18 23 16 27 -11 -3 -8 24 -1 -17 -7 -2 -13 28 -18 -15 -14 -5 -4 -19
right_child=1 3 11 13 7 9 12 -9 -10 14 -12 22 26 25 -16 19 17 29 -20 -21 -22 -23 -24 -25 -26 -27 -28 -29 -30 -31
leaf_value=2782961.478787879 778454.38208333345 125038.26288081048 -223560.65892857141 572091.63890625001 547259.11504444375 -445099.94922114967 2014233.0885496186 -1140603.425 870233.56220806809 -291955.41869830998 1966599.2421428573 -138931.9443597561 1135897.2947115384 -234899.96062062937 -200478.65577692867 278127.53685236973 1637690.3782608695 1576247.0734265735 3650282.3304347829 157234.05175426137 -355152.91989235504 1286460.9911111111 23632.375874495599 -60843.982492198949 1899412.0368055557 -414712.76049963129 1436814.7201754386 63949.987192815475 -110692.08486936241 1350504.5887755102
leaf_weight=33 120 2995 287 20 3811 2279 131 24 942 8343 140 246 104 286 5496 2710 161 143 23 880 2276 45 5830 3200 144 339 114 158 4368 98
leaf_count=33 120 2995 287 20 3811 2279 131 24 942 8343 140 246 104 286 5496 2710 161 143 23 880 2276 45 5830 3200 144 339 114 158 4368 98
internal_value=0 -42311.9 -179987 325388 364775 -280674 1.73405e+06 602468 611270 -291417 2.30162e+06 -45852.1 1.60976e+06 -231909 -255626 192343 1.71167e+06 1.63908e+06 3.13918e+06 248493 -400156 917002 17050.6 -94508.7 1.76126e+06 -332430 1.29326e+06 121045 -117651 1.48445e+06
internal_weight=0 44655 32490 12165 11362 18559 1091 4777 4753 18394 196 13931 895 803 13839 6585 677 546 56 3590 4555 165 6076 7855 305 625 218 178 4655 241
internal_count=45746 44655 32490 12165 11362 18559 1091 4777 4753 18394 196 13931 895 803 13839 6585 677 546 56 3590 4555 165 6076 7855 305 625 218 178 4655 241
is_linear=0
shrinkage=0.05


Tree=21
num_leaves=31
num_cat=3
split_feature=3 3 3 3 3 3 3 3 3 3 3 3 0 3 9 3 3 9 0 0 3 0 9 3 3 3 0 0 3 3
split_gain=7.87715e+17 1.46467e+17 1.22343e+17 6.26798e+16 2.65438e+16 1.15812e+16 1.08595e+16 8.85687e+15 6.29117e+15 5.64251e+15 4.92346e+15 4.20032e+15 2.9779e+15 2.35604e+15 2.03787e+15 2.21553e+15 1.67057e+15 2.79885e+15 1.57458e+15 1.47564e+15 1.25453e+15 1.18126e+15 1.14308e+15 1.08534e+15 1.01375e+15 7.88641e+14 7.73197e+14 2.46541e+15 7.52483e+14 8.77514e+14
threshold=0.10729437955233076 1.1274292235752779 -0.55818720594819304 2.7499377516749255 1.9370948338566198 0.64360197932596674 -0.079399828826479377 -0.72910443897104737 3.7834391998188903 1.4481181601508513 -1.2021945749919993 2.32132992117146 -0.65280942085172688 -0.69755048825913579 0 4.3514103126332992 3.3256877898384509 1 0.38830358392868008 5.7114136244994711 -0.31605445916581615 -0.58564083989815219 2 1.2219815133821517 0.45153921683297721 -0.30027748380986036 -0.66960156609012045 -0.65280942085172688 1.0000000180025095e-35 0.017781956873053818
decision_type=2 2 2 2 2 2 2 2 2 2 2 2 2 2 1 2 2 1 2 2 2 2 1 2 2 2 2 2 2 2
left_child=2 5 7 4 9 24 19 10 16 23 -1 -6 13 -9 15 -10 17 -5 -16 20 22 -12 -4 -3 26 -22 -2 -28 -8 -30
right_child=1 3 6 8 11 -7 28 12 14 -11 21 -13 -14 -15 18 -17 -18 -19 -20 -21 25 -23 -24 -25 -26 -27 27 -29 29 -31
leaf_value=-405957.90433996386 57657.08580531882 363939.50565749238 -68962.886256970261 93814.893077531655 682118.15950704226 252071.15883227086 -4686.2772028176341 -9194.0053782505911 241131.95801454742 574666.52814378007 -279578.24218902638 864987.95373001776 -193586.08493155238 -222716.40645161291 438712.15055410238 -229948.64294642859 111486.65629807692 -221835.99941406251 98488.562812500008 138279.70451807228 16470.026750700283 -243203.96280599755 -119706.43204136692 462562.67652711953 162534.86745997446 -60895.376752082841 275774.94372304686 113018.86028060323 90634.715496108111 20803.068787654
leaf_weight=553 495 327 2680 148 710 2902 2313 423 87 1456 3071 563 3762 186 227 35 390 118 40 83 357 8170 2075 1899 1663 4261 250 3358 544 2600
leaf_count=553 495 327 2680 148 710 2902 2313 423 87 1456 3071 563 3762 186 227 35 390 118 40 83 357 8170 2075 1899 1663 4261 250 3358 544 2600
internal_value=0 302058 -142490 491964 566180 170605 -39204.9 -237776 140062 498134 -260307 762995 -176981 -74407.7 299377 97956.7 45590.8 -51023.5 373744 -71617.6 -73476.3 -253141 -91503.3 448075 129604 -54914.6 116257 124296 16960.6 32885.9
internal_weight=0 14668 31078 6000 4955 8668 14913 16165 1045 3682 11794 1273 4371 609 389 122 656 266 267 9456 9373 11241 4755 2226 5766 4618 4103 3608 5457 3144
internal_count=45746 14668 31078 6000 4955 8668 14913 16165 1045 3682 11794 1273 4371 609 389 122 656 266 267 9456 9373 11241 4755 2226 5766 4618 4103 3608 5457 3144
cat_boundaries=0 1 2 3
cat_threshold=25 92 90
is_linear=0
shrinkage=0.05


Tree=22
num_leaves=31
num_cat=5
split_feature=7 7 7 7 7 2 9 2 7 9 2 9 2 2 2 9 7 2 2 2 2 2 2 2 2 2 2 2 2 9
split_gain=1.46982e+17 1.25729e+17 6.39353e+16 1.08947e+17 6.28124e+16 1.75951e+16 1.57268e+16 1.30798e+16 1.22629e+16 5.15455e+15 6.733e+15 8.72235e+15 8.58715e+15 4.87692e+15 1.62037e+16 3.8822e+15 3.49738e+15 5.07161e+15 2.98804e+15 2.73558e+15 2.42693e+15 2.11525e+15 1.79502e+15 1.61636e+15 1.53261e+15 1.3047e+15 1.24356e+15 2.31542e+15 1.86696e+15 1.20902e+15
threshold=-0.30211235967686567 1.2824965212660946 0.41556963833528954 0.72383661420574374 -1.1082276517198422 -0.65280942085172688 0 4.5779438209078984 -1.873217296861029 1 -0.63601727561333321 2 0.35471929345189279 -0.51847225894457749 -0.46809582322939663 3 -0.67776752242157501 -0.66960156609012045 4.7878456363878197 -0.48488796846779025 0.13642140535277517 -0.65280942085172688 -0.60243298513654586 0.27075856725992448 0.42188787440546743 0.80810721488852166 -0.098668627984736121 0.018876388684019509 -0.36734295179903464 4
decision_type=2 2 2 2 2 2 1 2 2 1 2 1 2 2 2 1 2 2 2 2 2 2 2 2 2 2 2 2 2 1
left_child=4 2 9 18 8 6 -5 -7 -1 10 11 -2 -12 15 -15 -11 20 -18 21 22 -6 -4 -3 -22 26 -26 28 -28 -10 -24
right_child=1 19 3 5 16 7 -8 -9 24 13 12 -13 -14 14 -16 -17 17 -19 -20 -21 23 -23 29 -25 25 -27 27 -29 -30 -31
leaf_value=-366219.88478723407 170716.89960497184 -165024.41078783871 -83899.494316202094 193122.90927178611 -192547.11495711032 113467.43802289327 534558.59630530549 1307571.7391304348 17679.734143285368 135935.56840965347 182266.15342478943 410502.36545335711 352564.21954179648 680754.99500000011 166936.62907936508 -102116.30306204804 -277457.96568277641 -128743.53703822923 19290.636816860464 -196659.88328013886 -368338.67833904113 -188091.79563267474 2884.4994075829386 -241068.77708014083 -97934.509961510266 48.015215334194977 136386.96861173617 11607.579310309193 -43447.407231236997 -142562.63211255657
leaf_weight=235 611 707 574 1220 4126 7838 483 23 3568 596 3200 1269 963 170 1575 232 693 3319 215 2997 292 3218 412 1713 682 677 493 1512 1922 211
leaf_count=235 611 707 574 1220 4126 7838 483 23 3568 596 3200 1269 963 170 1575 232 693 3319 215 2997 292 3218 412 1713 682 677 493 1512 1922 211
internal_value=0 76375 124458 56828.6 -105189 148527 294233 116961 -9732.17 230982 256702 335664 221660 168919 216993 69643.5 -190726 -154431 -162039 -170176 -214476 -172320 -110497 -259604 -270.388 -49123.5 8587.7 42289 -3720.33 -48618.1
internal_weight=0 26514 22187 13571 19232 9564 1703 7861 9089 8616 6043 1880 4163 2573 1745 828 10143 4012 4007 4327 6131 3792 1330 2005 8854 1359 7495 2005 5490 623
internal_count=45746 26514 22187 13571 19232 9564 1703 7861 9089 8616 6043 1880 4163 2573 1745 828 10143 4012 4007 4327 6131 3792 1330 2005 8854 1359 7495 2005 5490 623
cat_boundaries=0 1 2 3 4 5
cat_threshold=116 54 16 9 35
is_linear=0
shrinkage=0.05


Tree=23
num_leaves=31
num_cat=2
split_feature=5 5 5 5 5 5 5 5 0 9 0 5 0 5 5 0 5 0 0 5 5 5 9 0 5 0 0 0 0 0
split_gain=1.19863e+18 2.84233e+17 5.15759e+16 4.35283e+16 2.71601e+16 1.30958e+16 1.93108e+16 1.20329e+16 1.07143e+16 1.08522e+16 8.00996e+15 5.61482e+15 5.39862e+15 5.27728e+15 5.19884e+15 1.0821e+16 7.23825e+15 6.24622e+15 6.50845e+15 4.34191e+15 4.11603e+15 3.92039e+15 3.84309e+15 3.49755e+15 3.31976e+15 2.80448e+15 2.72394e+15 2.70886e+15 2.56466e+15 3.86835e+15
threshold=-1.8767958030689205 -0.2210559574442347 -0.85048739136425977 0.34580233081465389 -4.371233446276876 0.74267930859928943 2.2419318786401243 -1.3361638245566996 1.2111187006099697 0 -0.65280942085172688 -3.890671687599347 -0.63601727561333321 0.40326080196088027 -0.40115779408628893 -0.66960156609012045 -0.54219222326338989 0.35471929345189279 0.70735434345815973 -1.0646507838183761 1.0977683073684876 2.6543705256935297 1 -0.21621364465349172 -0.37242855851317574 0.20358998630634981 -0.45130367799100296 -0.46809582322939663 -0.31696651608385368 -0.53526440418297117
decision_type=2 2 2 2 2 2 2 2 2 1 2 2 2 2 2 2 2 2 2 2 2 2 1 2 2 2 2 2 2 2
left_child=4 2 7 8 23 13 20 27 9 10 -3 -6 19 -5 15 22 -17 24 -19 -9 -7 -8 -4 28 -16 -25 -11 -2 29 -1
right_child=1 3 14 5 11 6 21 12 -10 26 -12 -13 -14 -15 17 16 -18 18 -20 -21 -22 -23 -24 25 -26 -27 -28 -29 -30 -31
leaf_value=1932498.6805555557 522404.51889097749 208010.06858861505 471434.52843216294 -174528.08147784416 1769457.8707182324 -164416.98821000266 -288641.36394515814 511024.37212075363 -180680.92387649801 -115672.64896500889 -20089.320428159099 1457668.7161327032 229462.91174517956 -279725.07977107045 215016.52321623094 80740.691257119717 -18121.922387406343 396305.85944767442 52681.642362733641 276844.41906248004 -70415.766153366931 -527936.717354369 165729.21746280754 2762311.5888888892 65703.592337404829 2124176.4606060605 -62768.765050121328 912270.21044776123 1572030.1807692309 2616454.7655172418
leaf_weight=72 133 426 162 1591 181 1897 1012 333 2253 5559 3987 714 3525 4756 459 4226 3295 387 214 488 3016 206 366 36 1970 33 4327 67 26 29
leaf_count=72 133 426 162 1591 181 1897 1012 333 2253 5559 3987 714 3525 4756 459 4226 3295 387 214 488 3016 206 366 36 1970 33 4327 67 26 29
internal_value=0 -39949.8 131994 -132496 1.63747e+06 -203012 -150894 273808 -79336.8 -63368.7 1925.43 1.52072e+06 256357 -253355 73803.8 52789.1 37428.3 129628 273950 371828 -106711 -329113 271593 2.17057e+06 93918.8 2.45712e+06 -92423.7 653010 2.01488e+06 2.12888e+06
internal_weight=0 44655 15625 29030 1091 12478 6131 4546 16552 14299 4413 895 4346 6347 11079 8049 7521 3030 601 821 4913 1218 528 196 2429 69 9886 200 127 101
internal_count=45746 44655 15625 29030 1091 12478 6131 4546 16552 14299 4413 895 4346 6347 11079 8049 7521 3030 601 821 4913 1218 528 196 2429 69 9886 200 127 101
cat_boundaries=0 1 2
cat_threshold=34 32
is_linear=0
shrinkage=0.05


Tree=24
num_leaves=31
num_cat=3
split_feature=7 7 6 7 7 0 9 6 0 9 0 0 6 0 0 0 0 0 9 0 0 0 0 0 0 0 0 0 0 0
split_gain=1.33987e+17 1.12741e+17 5.82751e+16 9.32171e+16 5.44667e+16 1.41422e+16 1.24269e+16 1.07436e+16 1.03761e+16 4.35746e+15 3.73626e+15 5.86956e+15 3.53819e+15 4.33603e+15 3.46806e+15 3.15727e+15 2.76882e+15 1.42693e+16 4.72624e+15 3.58886e+15 3.35201e+15 2.45598e+15 2.1432e+15 1.73979e+15 1.61091e+15 1.59825e+15 1.50052e+15 1.27902e+15 1.25899e+15 1.19036e+15
threshold=-0.30211235967686567 0.41556963833528954 1.0000000180025095e-35 0.72383661420574374 -1.1082276517198422 -0.65280942085172688 0 0.44452041416306776 4.5779438209078984 1 -0.63601727561333321 -0.56884869465975851 0.44452041416306776 -0.66960156609012045 -0.61922513037493954 0.35471929345189279 -0.51847225894457749 -0.46809582322939663 2 0.43868001964386111 -0.61922513037493954 4.7878456363878197 -0.48488796846779025 0.13642140535277517 -0.60243298513654586 -0.65280942085172688 0.27075856725992448 -0.65280942085172688 0.42188787440546743 0.80810721488852166
decision_type=2 2 2 2 2 2 1 2 2 1 2 2 2 2 2 2 2 2 1 2 2 2 2 2 2 2 2 2 2 2
left_child=4 9 3 21 7 6 -5 -1 -7 10 -2 14 13 -6 -12 -13 18 -18 27 -19 -20 25 24 -14 -4 -3 -25 -11 -9 -30
right_child=1 2 22 5 12 8 -8 28 -10 16 11 15 23 -15 -16 -17 17 19 20 -21 -22 -23 -24 26 -26 -27 -28 -29 29 -31
leaf_value=-345199.29335106385 315920.4464002052 -82567.38754627615 -157209.85415418915 177757.85631288111 -257315.87240654312 105755.86760184758 481571.58880142309 5359.9941539932879 1169309.7130434783 129044.80943509616 194721.19863639621 227760.36634086911 -185387.66568734287 -119808.40616274446 -19940.111688066467 357308.92191985645 628868.56978609634 127032.6461721153 216741.3403955937 254905.82337699318 -5979.7125998858455 14289.071188226744 -181819.69420566401 -346929.46446917811 -46934.542556179775 -173136.07956224706 -224304.82678050204 -152479.17480034722 -93569.616193181835 20.987314207902514
leaf_weight=235 1622 574 707 1220 693 7838 483 7495 23 52 436 1882 4126 3319 331 627 187 1463 739 878 219 215 2997 292 623 3218 1713 180 682 677
leaf_count=235 1622 574 707 1220 693 7838 483 7495 23 52 436 1882 4126 3319 331 627 187 1463 739 878 219 215 2997 292 623 3218 1713 180 682 677
internal_value=0 72937.7 1401.88 52346.3 -100414 137167 267796 -11524.8 108868 221539 253341 223131 -180066 -143560 102084 260135 178482 208566 116073 174992 164114 -150106 -158378 -203955 -105555 -159427 -242163 -85685.6 -2668.52 -46946.5
internal_weight=0 26514 17898 13571 19232 9564 1703 9089 7861 8616 4898 3276 10143 4012 767 2509 3718 2528 1190 2341 958 4007 4327 6131 1330 3792 2005 232 8854 1359
internal_count=45746 26514 17898 13571 19232 9564 1703 9089 7861 8616 4898 3276 10143 4012 767 2509 3718 2528 1190 2341 958 4007 4327 6131 1330 3792 2005 232 8854 1359
cat_boundaries=0 1 2 3
cat_threshold=116 50 64
is_linear=0
shrinkage=0.05


Tree=25
num_leaves=31
num_cat=5
split_feature=3 7 3 3 3 8 8 7 7 3 8 8 3 7 7 3 7 8 3 3 7 3 3 7 3 3 7 3 3 7
split_gain=6.29823e+17 1.30051e+17 1.34529e+17 9.56415e+16 4.2611e+16 4.17082e+16 1.69289e+16 1.5237e+16 1.37072e+16 1.79297e+17 4.125e+16 1.22851e+16 1.19643e+16 1.16449e+16 3.22688e+16 5.78158e+16 2.42765e+16 1.29951e+16 9.90357e+15 8.59625e+15 7.55756e+16 8.22037e+15 7.65293e+15 7.35654e+15 4.98649e+15 4.5249e+15 4.31476e+15 4.26965e+15 3.90331e+15 3.64558e+15
threshold=0.10729437955233076 -0.30211235967686567 1.2219815133821517 -0.52926275112894083 2.32132992117146 0 1 0.97629021213805423 0.72383661420574374 -0.91032053090681742 2 3 3.157400052708256 0.41556963833528954 0.97629021213805423 -0.43701127022814384 0.72383661420574374 4 0.81966864180527887 0.25454614954125149 0.72383661420574374 -0.10591391241079397 1.5217440451453117 -1.1082276517198422 0.69082334306497339 1.1274292235752779 -0.67776752242157501 1.3508268121224571 -0.89980254733618026 -0.67776752242157501
decision_type=2 2 2 2 2 1 1 2 2 2 1 1 2 2 2 2 2 1 2 2 2 2 2 2 2 2 2 2 2 2
left_child=3 5 11 6 22 26 -1 12 28 -10 -11 19 -6 21 15 16 -15 -17 -13 20 -3 -5 -4 -7 -21 -20 -2 -28 29 -8
right_child=1 2 4 13 7 23 8 -9 9 10 -12 18 -14 14 -16 17 -18 -19 25 24 -22 -23 -24 -25 -26 -27 27 -29 -30 -31
leaf_value=-312580.43250713835 -530549.72572610294 43034.634478021981 440674.88714003947 -100648.5436146783 808606.52888513519 156951.81318714123 -320197.72134065209 -354249.77812500001 1697040.7723684211 102899.36179658672 -253249.29122404451 81136.186349160867 1245585.8307511739 -173497.12567567569 -84198.700855001211 -31769.507645760274 1243586.7310606062 230944.16241102433 1301084.3032608696 129386.19506319327 1621484.3857142858 -4916.0102058181456 583190.33428952645 7024.9373354359068 275619.04253682843 368930.26500000001 339327.08583333337 -275869.27908704884 -197166.08306354916 -202553.16800341298
leaf_weight=3142 170 273 2535 5704 592 2918 1503 24 133 1074 3313 2038 213 37 2590 988 165 890 23 879 105 3695 1499 1137 1731 30 30 471 6672 1172
leaf_count=3142 170 273 2535 5704 592 2918 1503 24 133 1074 3313 2038 213 37 2590 988 165 890 23 879 105 3695 1499 1137 1731 30 30 471 6672 1172
internal_value=0 270113 372762 -127393 560727 54173.7 -207166 887217 -182924 -111570 -166402 192790 924230 -30949.1 33584.9 180248 984022 93793.3 98214.4 257782 481493 -63013.5 493632 114630 226371 773450 -308294 -239031 -217625 -268654
internal_weight=0 14668 9942 31078 4863 4726 17009 829 13867 4520 4387 5079 805 14069 4670 2080 202 1878 2091 2988 378 9399 4034 4055 2610 53 671 501 9347 2675
internal_count=45746 14668 9942 31078 4863 4726 17009 829 13867 4520 4387 5079 805 14069 4670 2080 202 1878 2091 2988 378 9399 4034 4055 2610 53 671 501 9347 2675
cat_boundaries=0 1 2 3 4 5
cat_threshold=3087 120 3073 3681 3136
is_linear=0
shrinkage=0.05


Tree=26
num_leaves=31
num_cat=0
split_feature=5 3 3 7 3 5 5 5 3 5 5 3 3 3 3 3 3 3 6 3 7 6 5 5 3 5 3 3 3 3
split_gain=1.01081e+18 5.98072e+17 1.22167e+17 8.60464e+16 8.13522e+16 8.08363e+16 5.70541e+16 2.30394e+16 2.09684e+16 2.09296e+16 1.86407e+16 1.78362e+16 1.28729e+16 1.09349e+16 6.99495e+15 6.38915e+15 5.02039e+15 4.731e+15 3.081e+15 2.90551e+15 2.89478e+15 2.87752e+15 2.51207e+15 2.42662e+15 2.34165e+15 2.33003e+15 2.10583e+15 2.03511e+15 1.71175e+15 1.60302e+15
threshold=-1.8767958030689205 0.32006442220001236 -0.4004174523886353 1.0000000180025095e-35 1.2114635298115146 -0.80347591497189275 -0.4690632599863746 -3.890671687599347 -0.94713347340404763 0.40326080196088027 -0.9392868467720642 -0.30827553381669909 -0.0085130020535391614 -0.52926275112894083 -0.67125552933254296 0.67241687181635823 3.157400052708256 0.15725480151285742 -1.2195080491753176 1.5138555574673338 1.0000000180025095e-35 -1.2195080491753176 -1.1038270141453488 0.74267930859928943 -0.8604696712751515 -4.371233446276876 -0.96816944054532195 -0.29260812078960408 4.3514103126332992 -0.29260812078960408
decision_type=2 2 2 2 2 2 2 2 2 2 2 2 2 2 2 2 2 2 2 2 2 2 2 2 2 2 2 2 2 2
left_child=7 2 5 6 15 20 22 11 23 10 -6 26 18 24 -10 -5 -8 27 -4 -15 -2 -14 -3 -7 -9 -19 -1 -13 -18 -20
right_child=1 3 12 4 9 8 16 13 14 -11 -12 17 21 19 -16 -17 28 25 29 -21 -22 -23 -24 -25 -26 -27 -28 -29 -30 -31
leaf_value=2437513.2482758621 762196.01317829464 219835.7872918545 -216255.51112204726 114966.43540675507 790404.95734406449 -324071.39312423376 -529678.56530817971 1432326.0155279504 -240328.69073245849 -895376.21111111122 466774.95437117474 1487905.580952381 -156301.98588291486 1279053.8769709545 -170434.06804060456 249337.52300405377 -215917.80430890658 1657866.2228571428 -106886.71930180959 1008171.9863095239 1269272.4194444446 24202.8287003552 119065.25998427624 -417454.89218107 1709841.3833333333 1299328.4402985077 3104420.75 2029341.095 -520378.42058823531 -56038.328175113784
leaf_weight=29 129 1248 381 1918 497 2447 217 161 9335 27 4248 21 229 241 5806 1642 487 140 2169 168 36 6159 1226 972 144 67 20 100 51 5431
leaf_count=29 129 1248 381 1918 497 2447 217 161 9335 27 4248 21 229 241 5806 1642 487 140 2169 168 36 6159 1226 972 144 67 20 100 51 5431
internal_value=0 -36679.7 -144832 272912 357829 -228986 53793 1.50372e+06 -238781 492774 500673 1.81993e+06 -35166.2 1.33676e+06 -213527 176943 -326664 1.687e+06 -77505.9 1.16779e+06 872831 17732 169899 -350620 1.56335e+06 1.54182e+06 2.70972e+06 1.93537e+06 -244779 -70550.2
internal_weight=0 44655 33094 11561 8332 18725 3229 1091 18560 4772 4745 377 14369 714 15141 3560 755 328 7981 409 165 6388 2474 3419 305 207 49 121 538 7600
internal_count=45746 44655 33094 11561 8332 18725 3229 1091 18560 4772 4745 377 14369 714 15141 3560 755 328 7981 409 165 6388 2474 3419 305 207 49 121 538 7600
is_linear=0
shrinkage=0.05


Tree=27
num_leaves=31
num_cat=2
split_feature=5 5 7 7 7 7 5 5 5 5 5 7 7 5 7 7 5 8 5 7 7 5 5 7 7 8 7 5 7 5
split_gain=9.12255e+17 2.14068e+17 7.8468e+16 1.14279e+17 4.68686e+16 1.12441e+17 1.95507e+17 3.72227e+16 3.08481e+16 2.0793e+16 2.0699e+16 1.42934e+16 1.09434e+16 9.77389e+15 9.1334e+15 2.2453e+16 6.85401e+15 6.81309e+15 6.61394e+15 6.28818e+15 5.61162e+15 5.58528e+15 4.15301e+15 3.45808e+15 2.76293e+15 3.51386e+15 1.89881e+15 1.8544e+15 1.76381e+15 1.68116e+15
threshold=-1.8767958030689205 -0.2210559574442347 1.0000000180025095e-35 0.41556963833528954 1.0000000180025095e-35 0.41556963833528954 1.0325834130188862 0.26755869302272822 -1.1325562497184618 -3.890671687599347 1.959863020285922 0.97629021213805423 -0.67776752242157501 0.014219070241639147 0.97629021213805423 1.2824965212660946 -0.74590862096364707 0 -0.68855897267944 -1.1082276517198422 -1.1082276517198422 0.20487672449957214 -4.371233446276876 -1.1082276517198422 -1.1082276517198422 1 -1.1082276517198422 -0.3645933124477812 -0.67776752242157501 -3.2426315442740097
decision_type=2 2 2 2 2 2 2 2 2 2 2 2 2 2 2 2 2 1 2 2 2 2 2 2 2 1 2 2 2 2
left_child=9 2 8 16 13 6 21 11 12 22 -8 -7 26 20 27 -16 -4 -9 19 -10 -3 -6 -1 -20 -15 -26 -2 -5 -22 -11
right_child=1 4 3 14 5 7 10 17 18 29 -12 -13 -14 24 15 -17 -18 -19 23 -21 28 -23 -24 -25 25 -27 -28 -29 -30 -31
leaf_value=1888406.0923469388 221966.34683115059 -70124.445423579542 769844.49972426472 27604.258435269854 509219.6659492274 -151955.08063010502 -18863.484786035995 -114293.8333546887 115169.63182793674 1313804.2338289963 -241555.33956828035 34904.029651820863 656616.49003378383 -205535.76123538014 303825.88774801587 24933.38828095674 549738.14653808111 -241740.37959008676 -17557.192706852336 -15745.096072337081 -216064.42655608756 359136.02821375127 1556240.1983425415 -109607.36958950112 -241986.40164789069 -364019.97368922783 12987.321908897211 -376562.01681034482 -136210.8287128713 1135781.3606534093
leaf_weight=196 1069 1375 544 1329 906 1714 2098 1307 1660 538 2076 2540 148 1710 1575 1332 1011 7023 3275 2050 2193 1963 181 1482 2076 1039 121 29 1010 176
leaf_count=196 1069 1375 544 1329 906 1714 2098 1307 1660 538 2076 2540 148 1710 1575 1332 1011 7023 3275 2050 2193 1963 181 1482 2076 1039 121 29 1010 176
internal_value=0 -34845.7 114373 259808 -115161 -71187 88782.1 -160718 28046.8 1.42853e+06 -129623 -40384.3 251146 -206948 126026 176036 626740 -222171 -7208.43 42831.3 -154614 406531 1.72893e+06 -46234.6 -256602 -284636 200717 18973.3 -190884 1.26992e+06
internal_weight=0 44655 15625 5820 29030 19627 7043 12584 9805 1091 4174 4254 1338 9403 4265 2907 1555 8330 8467 3710 4578 2869 377 4757 4825 3115 1190 1358 3203 714
internal_count=45746 44655 15625 5820 29030 19627 7043 12584 9805 1091 4174 4254 1338 9403 4265 2907 1555 8330 8467 3710 4578 2869 377 4757 4825 3115 1190 1358 3203 714
cat_boundaries=0 1 2
cat_threshold=224 3075
is_linear=0
shrinkage=0.05


Tree=28
num_leaves=31
num_cat=0
split_feature=3 3 3 6 3 3 6 6 3 3 6 0 3 6 3 3 3 0 3 3 3 0 3 6 0 6 3 3 3 3
split_gain=4.65536e+17 9.05903e+16 6.6494e+16 5.80243e+16 5.67503e+16 3.90234e+16 1.03125e+17 1.57851e+16 2.62611e+16 1.54575e+16 1.53754e+16 1.17816e+16 1.11163e+16 9.99623e+15 9.67079e+15 8.2774e+15 7.58129e+15 5.74017e+15 9.5034e+15 5.5093e+15 1.1397e+16 3.52782e+16 5.47958e+15 4.89763e+15 3.83438e+15 3.63578e+15 7.18794e+15 3.55657e+15 3.3438e+15 3.22293e+15
threshold=0.072891808290038287 1.1274292235752779 -0.52926275112894083 -1.2195080491753176 -0.30027748380986036 2.7499377516749255 -1.2195080491753176 -1.2195080491753176 0.25454614954125149 1.5217440451453117 -1.2195080491753176 -0.66960156609012045 0.51212718469300189 1.0000000180025095e-35 -0.10591391241079397 0.15725480151285742 -0.94713347340404763 -0.65280942085172688 -0.011252060275059263 -1.2021945749919993 -0.86572866306047014 0.33792714821349912 2.1739685888536786 -0.66515981441848626 -0.58564083989815219 1.0000000180025095e-35 -1.091755747500309 0.81966864180527887 -0.65021956219126853 -0.34760840987772773
decision_type=2 2 2 2 2 2 2 2 2 2 2 2 2 2 2 2 2 2 2 2 2 2 2 2 2 2 2 2 2 2
left_child=2 7 10 4 11 9 -7 8 15 23 19 -4 -9 -11 29 -2 25 18 -6 -1 21 -21 -15 -3 -22 26 -12 -10 -18 -5
right_child=1 5 3 14 17 6 -8 12 27 13 16 -13 -14 22 -16 -17 28 -19 -20 20 24 -23 -24 -25 -26 -27 -28 -29 -30 -31
leaf_value=-304008.76349809888 93245.110119047633 -417459.96875 -122323.38374999999 -132493.86795820994 161214.23950617283 1008242.7703319504 -170921.37814850311 65184.711013497668 99869.016914438107 -322038.70151515154 -277155.35784543323 1147699.98125 180403.7357498958 489019.47170054616 -4167.5985773383509 1174232.1862831858 -196782.88177718114 57912.917353479861 1178941.0953125001 14263.517660910518 -10069.552099383669 1393526.7725 656525.96548946714 367706.42394193774 -150941.66553070408 -301344.73611230636 95964.232837837844 692953.24107142864 -128617.84796562228 -66064.513963093035
leaf_weight=263 21 20 20 3039 81 241 804 5006 260 33 427 210 3598 1236 5209 113 8287 546 32 637 649 50 807 2859 1889 2324 185 28 2298 4574
leaf_count=263 21 20 20 3039 81 241 804 5006 260 33 427 210 3598 1236 5209 113 8287 546 32 637 649 50 807 2859 1889 2324 185 28 2298 4574
internal_value=0 228107 -111512 -29579.3 361052 378684 101020 128010 426576 437243 -177558 1.03726e+06 113367 541241 -56663.3 1.00482e+06 -201703 125045 449420 -83961 -66016 114647 555186 362252 -114919 -272792 -164366 157530 -181984 -92582.2
internal_weight=0 15026 30720 13711 889 6000 1045 9026 422 4955 17009 230 8604 2076 12822 134 13521 659 113 3488 3225 687 2043 2879 2538 2936 612 288 10585 7613
internal_count=45746 15026 30720 13711 889 6000 1045 9026 422 4955 17009 230 8604 2076 12822 134 13521 659 113 3488 3225 687 2043 2879 2538 2936 612 288 10585 7613
is_linear=0
shrinkage=0.05


Tree=29
num_leaves=31
num_cat=0
split_feature=3 7 3 3 3 3 7 3 7 7 3 7 3 3 7 3 3 7 3 3 7 7 3 7 3 7 7 3 7 3
split_gain=4.20169e+17 8.77521e+16 8.81119e+16 6.27485e+16 2.73315e+16 2.43687e+16 1.07868e+16 7.62005e+15 7.45822e+15 2.18551e+16 3.69556e+16 1.59584e+16 6.6844e+15 6.22327e+15 6.04277e+15 5.8249e+15 5.58464e+15 5.42031e+15 3.97991e+15 3.91778e+15 3.76905e+15 1.29199e+16 3.66411e+15 4.00365e+15 2.59909e+15 2.53038e+15 1.16658e+16 2.42906e+15 2.31219e+15 3.25993e+15
threshold=0.10729437955233076 -0.30211235967686567 1.2219815133821517 -0.52926275112894083 2.32132992117146 0.93273696518962879 0.97629021213805423 3.5307884694658762 0.41556963833528954 0.97629021213805423 -0.43701127022814384 0.72383661420574374 0.69082334306497339 -0.77632580271005402 0.72383661420574374 -0.079399828826479377 1.4928195903260593 -1.1082276517198422 3.3256877898384509 -1.2021945749919993 0.72383661420574374 1.2824965212660946 0.51212718469300189 -0.67776752242157501 0.64360197932596674 0.97629021213805423 0.72383661420574374 -0.4004174523886353 -0.67776752242157501 4.0779427397967325
decision_type=2 2 2 2 2 2 2 2 2 2 2 2 2 2 2 2 2 2 2 2 2 2 2 2 2 2 2 2 2 2
left_child=3 5 12 13 16 17 7 -6 15 10 11 -10 25 19 -12 27 -4 24 -7 -1 -21 -22 -19 -24 -2 26 -3 -5 -20 -30
right_child=1 2 4 8 6 18 -8 -9 9 -11 14 -13 -14 -15 -16 -17 -18 22 28 20 21 -23 23 -25 -26 -27 -28 -29 29 -31
leaf_value=-322806.11790235084 92958.514992559532 63366.20890703125 350426.34572501126 -133936.4003463476 675151.29697085894 -350878.60091817728 -326028.0653645834 1067233.6647058825 -149476.02331081082 -71232.003279138517 5116.4713235848412 999464.09795454564 237231.79325252242 -131644.80514144013 188751.35508976967 1445.4425569373689 468754.44718524686 23854.213186627952 -413459.29010149848 -205606.35585875378 -22020.732245958432 -239675.35071428574 -545343.09491525427 220616.13437500002 189774.29955669877 85415.083734979446 403416.6011328125 -61954.408869889739 -165785.87958443273 111602.8353396046
leaf_weight=553 1764 750 2231 1588 652 281 24 153 37 2590 1140 165 1784 6805 738 3337 1803 869 61 6917 1299 1435 59 24 1142 2165 380 4474 379 147
leaf_count=553 1764 750 2231 1588 652 281 24 153 37 2590 1140 165 1784 6805 738 3337 1803 869 61 6917 1299 1435 59 24 1142 2165 380 4474 379 147
internal_value=0 220609 304928 -104064 457048 43230 718529 749671 -25945.7 25700.5 146400 789015 159277 -168680 77279.7 -51606.7 403313 97084 -196135 -193378 -185962 -136262 -6461.29 -323861 131005 117070 177719 -80810.8 -122058 -88264.7
internal_weight=0 14668 9942 31078 4863 4726 829 805 14069 4670 2080 202 5079 17009 1878 9399 4034 3858 868 10204 9651 2734 952 83 2906 3295 1130 6062 587 526
internal_count=45746 14668 9942 31078 4863 4726 829 805 14069 4670 2080 202 5079 17009 1878 9399 4034 3858 868 10204 9651 2734 952 83 2906 3295 1130 6062 587 526
is_linear=0
shrinkage=0.05


Tree=30
num_leaves=31
num_cat=5
split_feature=3 3 3 6 3 8 3 3 6 6 3 6 8 3 8 3 3 3 8 3 6 3 2 6 3 6 3 3 6 8
split_gain=3.79403e+17 7.38326e+16 5.41065e+16 4.73294e+16 4.78476e+16 3.19191e+16 3.73776e+16 3.16335e+16 8.43125e+16 1.30241e+16 2.3652e+16 1.29677e+16 3.25198e+16 2.13547e+16 1.77569e+16 1.32442e+17 1.67007e+16 1.26464e+16 9.81049e+15 8.19361e+15 7.85576e+15 7.36661e+15 6.5362e+15 6.46607e+15 6.44007e+15 5.72108e+15 4.52593e+15 4.33327e+15 5.40656e+15 3.8192e+15
threshold=0.072891808290038287 1.1274292235752779 -0.52926275112894083 -1.2195080491753176 -0.29260812078960408 0 0.038817924014328202 2.7499377516749255 -1.2195080491753176 -1.2195080491753176 0.25454614954125149 -1.2195080491753176 1 -0.70806847182977306 2 -0.75802889379029981 -1.091755747500309 1.9899038763675274 3 -0.29260812078960408 -0.66515981441848626 0.15725480151285742 -0.66960156609012045 1.0000000180025095e-35 -0.94713347340404763 0.44452041416306776 -1.020759358398508 0.7802262034153894 0.44452041416306776 4
decision_type=2 2 2 2 2 1 2 2 2 2 2 2 1 2 1 2 2 2 1 2 2 2 2 2 2 2 2 2 2 1
left_child=2 9 11 4 22 6 -6 17 -9 10 21 12 14 16 15 -1 -14 20 -11 -5 -3 -2 -4 -19 -13 -22 -16 -20 -29 -7
right_child=1 7 3 19 5 29 -8 8 -10 18 -12 24 13 -15 26 -17 -18 23 27 -21 25 -23 -24 -25 -26 -27 -28 28 -30 -31
leaf_value=1406613.7420454547 75567.532142857148 -511047.43076923082 150276.80729166669 -108056.45186004891 1684972.1184615386 -189428.86068339102 -133400.12849999999 912178.53112033196 -154018.6772577542 180230.78639609064 131430.09906005859 -247940.44955296323 1256219.1489130436 1401281.4147540983 -100249.9277131783 -131025.58073624596 -366727.1980392157 -221140.09711538462 71515.928917923884 -23112.869863854965 366338.80862178677 1095349.7327433629 1020456.146290888 578170.91411889601 -164246.10210380258 -304928.12167968752 -278773.50091168721 323632.56774193549 -450228.41897590365 73991.770809925089
leaf_weight=154 21 26 24 4243 65 279 50 241 804 2743 288 2936 23 61 516 1545 51 26 5747 8579 3929 113 214 942 10585 32 1138 31 83 257
leaf_count=154 21 26 24 4243 65 279 50 241 804 2743 288 2936 23 61 516 1545 51 26 5747 8579 3929 113 214 942 10585 32 1138 31 83 257
internal_value=0 205926 -100669 -26761 326039 104246 822825 341865 91869.9 115561 386761 -160246 -74289.3 659780 -105498 8299.59 137702 394589 102260 -51222 355230 935533 932707 556702 -182420 360916 -221739 65349.3 -239793 -64082.7
internal_weight=0 15026 30720 13711 889 651 115 6000 1045 9026 422 17009 3488 135 3353 1699 74 4955 8604 12822 3987 134 238 968 13521 3961 1654 5861 114 536
internal_count=45746 15026 30720 13711 889 651 115 6000 1045 9026 422 17009 3488 135 3353 1699 74 4955 8604 12822 3987 134 238 968 13521 3961 1654 5861 114 536
cat_boundaries=0 1 2 3 4 5
cat_threshold=384 23 3 3121 1024
is_linear=0
shrinkage=0.05


Tree=31
num_leaves=31
num_cat=3
split_feature=3 3 3 3 3 3 3 3 3 3 3 0 3 3 0 3 9 3 3 0 0 0 3 0 0 0 3 9 0 9
split_gain=3.4243e+17 6.66278e+16 4.88279e+16 2.85493e+16 1.18815e+16 5.92513e+15 5.307e+15 4.44343e+15 3.67138e+15 3.5657e+15 3.22247e+15 1.45523e+15 1.33334e+15 1.02828e+15 9.82065e+14 2.2197e+15 2.10329e+15 2.23496e+15 9.25174e+14 1.00755e+15 9.38126e+14 8.55091e+14 7.6096e+14 6.92812e+14 6.30116e+14 8.86414e+14 7.77176e+14 5.3603e+14 5.32741e+14 1.46593e+15
threshold=0.072891808290038287 1.1274292235752779 -0.52926275112894083 2.7499377516749255 1.5217440451453117 0.56997609433150653 -0.77632580271005402 -0.063622853470523599 3.7834391998188903 -1.2021945749919993 2.32132992117146 -0.60243298513654586 1.3666037874784129 3.3256877898384509 -0.61922513037493954 -0.53189224702160021 0 -0.69755048825913579 4.3514103126332992 0.018876388684019509 -0.65280942085172688 -0.66960156609012045 -0.76580781913941676 -0.19942149941509807 1.0599893934644269 0.85848365060370269 -0.4004174523886353 1 -0.65280942085172688 2
decision_type=2 2 2 2 2 2 2 2 2 2 2 2 2 2 2 2 1 2 2 2 2 2 2 2 2 2 2 1 2 1
left_child=2 5 6 4 12 21 9 24 13 -1 -6 -11 -3 23 16 22 17 -8 20 -20 -10 -2 -16 -5 25 27 -26 -4 29 -23
right_child=1 3 7 8 10 -7 14 -9 18 11 -12 -13 -14 -15 15 -17 -18 -19 19 -21 -22 28 -24 -25 26 -27 -28 -29 -30 -31
leaf_value=-298516.65944846295 24359.949166125789 281742.09218392445 -26294.935148004195 -5393.852762430939 428037.21669489425 161391.69817744274 44377.267673378083 13661.934926256274 76977.277980324085 -199855.51036877395 568158.69031971588 -156145.19366656017 351414.14041777188 66806.518141025648 -19946.999496644297 396531.29062500002 -153950.00408478893 -102390.68507281554 169681.07287090039 -179344.88413461539 310873.1943171575 248958.84782243209 -134648.84673963019 -178443.13095588237 93809.474784482765 -141908.90224103586 -37629.490153301886 -54758.469752431934 80286.598331919289 48881.526144988631
leaf_weight=553 656 1748 2406 181 1513 3442 447 4751 54 2610 563 7041 1131 390 149 20 677 618 101 26 208 166 4894 85 174 251 318 5811 4535 227
leaf_count=553 656 1748 2406 181 1513 3442 447 4751 54 2610 563 7041 1131 390 149 20 677 618 101 26 208 166 4894 85 174 251 318 5811 4535 227
internal_value=0 195636 -95637.1 324772 374859 109793 -152233 -25427.2 87276.4 -175041 466037 -167966 309112 15107.6 -118033 -129175 -85651.2 -40410.1 208980 98226.9 262666 77987.4 -131260 -60691.6 -46154 -49350.1 8855.02 -46522.8 85126.1 140971
internal_weight=0 15026 30720 6000 4955 9026 17009 13711 1045 10204 2076 9651 2879 656 6805 5063 1742 1065 389 127 262 5584 5043 266 8960 8468 492 8217 4928 393
internal_count=45746 15026 30720 6000 4955 9026 17009 13711 1045 10204 2076 9651 2879 656 6805 5063 1742 1065 389 127 262 5584 5043 266 8960 8468 492 8217 4928 393
cat_boundaries=0 1 2 3
cat_threshold=17 80 2
is_linear=0
shrinkage=0.05


Tree=32
num_leaves=31
num_cat=0
split_feature=5 3 3 5 6 3 3 6 5 3 5 3 5 3 3 3 3 6 6 3 6 3 5 3 3 2 3 5 3 3
split_gain=7.10811e+17 3.32816e+17 6.76578e+16 6.7529e+16 4.59894e+16 5.51379e+16 1.97591e+16 1.8816e+16 1.52057e+16 1.46634e+16 1.44069e+16 1.41413e+16 1.23023e+16 7.57885e+15 6.35821e+15 5.92086e+15 4.25427e+15 3.209e+15 3.1199e+15 2.88495e+15 2.87005e+15 2.75175e+15 2.60916e+15 2.60192e+15 2.29577e+15 2.20336e+15 1.75647e+15 1.64759e+15 1.62944e+15 1.34222e+15
threshold=-1.8767958030689205 0.32006442220001236 -0.4004174523886353 -0.80347591497189275 -0.66515981441848626 1.2114635298115146 2.2265585067068643 0.44452041416306776 -3.890671687599347 -0.52926275112894083 0.45538695286815756 -0.93661548983341036 -0.35675806638238677 -0.0085130020535391614 -0.52926275112894083 2.7499377516749255 -0.67125552933254296 -1.2195080491753176 -0.66515981441848626 0.15725480151285742 -1.2195080491753176 4.0779427397967325 0.74267930859928943 0.51212718469300189 -0.8604696712751515 -0.66960156609012045 -0.41356493185193177 -1.2107998875103876 -1.0365363337544637 0.18092026454679114
decision_type=2 2 2 2 2 2 2 2 2 2 2 2 2 2 2 2 2 2 2 2 2 2 2 2 2 2 2 2 2 2
left_child=6 2 3 18 12 23 8 10 9 28 -7 22 27 17 24 -14 -13 -4 -2 -11 -15 -8 -5 -6 -10 -26 -16 -3 -1 -21
right_child=1 4 13 11 5 7 21 -9 14 19 -12 16 15 20 26 -17 -18 -19 -20 29 -22 -23 -24 -25 25 -27 -28 -29 -30 -31
leaf_value=2193123.8000000003 699832.0050520834 418945.73106060608 -203928.8380577428 -245749.85953996982 79194.657688469073 374912.33060490695 795263.92415048555 -356583.22289234208 1245128.9180124223 1687613.6706349207 -969887.21750000014 -182797.06545782177 -812184.53586956533 -163058.5754639738 939621.00727272732 -221340.95973247234 -128045.11471430417 -55227.646181025455 1188018.4477777777 1067753.4000000001 17211.851623491555 1215639.2197916666 -341225.77711734694 150426.53057411595 1234438.5804347827 1653909.7132653063 1228829.4805194805 52096.746081716527 2802297.7739130436 1445896.2886363638
leaf_weight=21 120 33 381 2652 1955 4728 206 91 161 126 20 9122 46 229 165 542 5806 7600 45 32 6159 48 980 3724 46 98 77 422 23 88
leaf_count=21 120 33 381 2652 1955 4728 206 91 161 126 20 9122 46 229 165 542 5806 7600 45 32 6159 48 980 3724 46 98 77 422 23 88
internal_value=0 -30771.9 -111451 -174077 200176 231579 1.26097e+06 355598 1.37819e+06 1.67088e+06 369248 -183030 -116507 -29839.2 1.22302e+06 -267563 -161502 -62326.4 832974 1.52051e+06 10749.4 874705 -271512 125905 1.37486e+06 1.51991e+06 1.03164e+06 78703.4 2.51156e+06 1.34506e+06
internal_weight=0 44655 33094 18725 11561 10518 1091 4839 837 290 4748 18560 1043 14369 547 588 14928 7981 165 246 6388 254 3632 5679 305 144 242 455 44 120
internal_count=45746 44655 33094 18725 11561 10518 1091 4839 837 290 4748 18560 1043 14369 547 588 14928 7981 165 246 6388 254 3632 5679 305 144 242 455 44 120
is_linear=0
shrinkage=0.05


Tree=33
num_leaves=31
num_cat=0
split_feature=5 3 3 5 7 3 5 3 5 5 3 3 3 3 3 3 3 3 3 7 5 3 3 3 3 3 3 3 5 7
split_gain=6.41507e+17 3.00419e+17 6.25411e+16 6.0708e+16 4.60257e+16 3.67059e+16 3.50489e+16 1.78326e+16 1.56671e+16 1.37232e+16 1.33294e+16 1.32337e+16 1.03602e+16 6.50981e+15 5.73828e+15 4.41524e+15 4.18441e+15 3.13101e+15 2.60367e+15 2.58723e+15 2.56797e+15 2.48346e+15 2.07193e+15 1.58522e+15 1.47057e+15 1.28374e+15 1.24638e+15 1.22169e+15 1.22055e+15 1.18269e+15
threshold=-1.8767958030689205 0.33584139755596815 -0.37916236058963931 -0.80347591497189275 1.0000000180025095e-35 1.2219815133821517 -0.42988702965940212 2.2265585067068643 0.40326080196088027 -3.890671687599347 -0.92609750626277321 -0.52926275112894083 1.6296629390732036 -0.0085130020535391614 -0.52926275112894083 3.157400052708256 -0.65810804986924643 0.67241687181635823 0.15725480151285742 1.0000000180025095e-35 0.74267930859928943 4.0779427397967325 -0.8604696712751515 -0.41356493185193177 -1.0365363337544637 4.3514103126332992 -0.30027748380986036 0.19143824811742829 -1.1038270141453488 -1.1082276517198422
decision_type=2 2 2 2 2 2 2 2 2 2 2 2 2 2 2 2 2 2 2 2 2 2 2 2 2 2 2 2 2 2
left_child=7 2 3 19 6 17 28 9 12 11 20 24 -7 29 22 -8 -12 -6 26 -2 -5 -9 -11 -16 -1 -17 -13 -20 -3 -4
right_child=1 4 13 10 5 8 15 21 -10 14 16 18 -14 -15 23 25 -18 -19 27 -21 -22 -23 -24 -25 -26 -27 -28 -29 -30 -31
leaf_value=2083467.6000000001 686732.20523255819 158283.98287650605 -32293.35616459194 -230803.66065186998 86933.453115118784 292813.43444020121 -458364.98158998846 755500.72390776698 -874817.63052884629 1182872.449068323 -172451.11109098454 1261319.7727272727 445444.30012513179 11248.902941545126 892639.97393939411 -164777.84742954071 -118981.48714616886 181026.64336413346 1052186.4925000002 1166116.1848958335 -323987.23314944841 1154857.2666666666 1443916.3770833334 1167388.005844156 2662182.843478261 -428650.52965686278 1675560.7942307694 1390614.7075 87751.884440588823 -72908.317213369213
leaf_weight=21 129 1245 2966 2861 1732 2684 216 206 26 161 9040 22 1898 6603 165 479 6147 1806 40 36 997 48 144 77 23 51 104 80 1209 4530
leaf_count=21 129 1245 2966 2861 1732 2684 216 206 26 161 9040 22 1898 6603 165 479 6147 1806 40 36 997 48 144 77 23 51 104 80 1209 4530
internal_value=0 -29233.3 -104923 -163619 192974 256092 32299.7 1.19792e+06 349093 1.30928e+06 -171892 1.58733e+06 356038 -24950.7 1.16187e+06 -267824 -150809 134964 1.44449e+06 791325 -254885 830970 1.30612e+06 980060 2.38598e+06 -190169 1.60323e+06 1.27781e+06 123535 -56837.9
internal_weight=0 44655 33309 19210 11346 8146 3200 1091 4608 837 19045 290 4582 14099 547 746 15187 3538 246 165 3858 254 305 242 44 530 126 120 2454 7496
internal_count=45746 44655 33309 19210 11346 8146 3200 1091 4608 837 19045 290 4582 14099 547 746 15187 3538 246 165 3858 254 305 242 44 530 126 120 2454 7496
is_linear=0
shrinkage=0.05


Tree=34
num_leaves=31
num_cat=0
split_feature=3 3 3 6 3 3 6 3 6 3 6 4 6 4 3 3 6 3 2 2 3 3 3 3 2 2 3 6 3 3
split_gain=2.52314e+17 4.89861e+16 3.5698e+16 3.37571e+16 3.53626e+16 2.04095e+16 6.16753e+16 1.04231e+16 9.4432e+15 1.64645e+16 8.52733e+15 7.57816e+15 7.47506e+15 7.04347e+15 6.21487e+15 6.10942e+15 5.08834e+15 4.69573e+15 3.94698e+15 3.74171e+15 6.19324e+15 3.63469e+15 3.45868e+15 2.5325e+16 1.42641e+16 4.97733e+15 3.48001e+15 2.62505e+15 6.31365e+15 2.36491e+15
threshold=0.072891808290038287 1.0272892549965029 -0.52926275112894083 -1.2195080491753176 -0.26894265775567044 2.7499377516749255 -1.2195080491753176 1.5217440451453117 -1.2195080491753176 0.25454614954125149 -1.2195080491753176 2.0985101944229663 1.0000000180025095e-35 2.0985101944229663 0.42020439077878724 -0.32405250917265488 0.44452041416306776 -0.96816944054532195 0.18679784106795613 -0.65280942085172688 -0.011252060275059263 2.32132992117146 -1.1600130783805898 -1.0365363337544637 -0.53526440418297117 -0.65280942085172688 -0.91032053090681742 1.0000000180025095e-35 -1.091755747500309 -0.62655409915733484
decision_type=2 2 2 2 2 2 2 2 2 2 2 2 2 2 2 2 2 2 2 2 2 2 2 2 2 2 2 2 2 2
left_child=2 8 10 4 13 7 -7 16 9 11 22 -2 -9 -4 -10 -5 -3 27 -11 20 -6 -14 25 24 -24 -1 -25 28 -12 -19
right_child=1 5 3 15 19 6 -8 12 14 18 17 -13 21 -15 -16 -17 -18 29 -20 -21 -22 -23 23 26 -26 -27 -28 -29 -30 -31
