tree
version=v3
num_class=1
num_tree_per_iteration=1
label_index=0
max_feature_idx=20
objective=regression
feature_names=starting_cases ending_cases pending_cases LES time_since_last_event observations mean_IBCR std_IBCR min_delay max_delay batch_day batch_month batch_hour duration is_weekend expense points weekday month current_batch_observations avg_waiting_time_lag_1
feature_infos=[-0.30627065236540901:9.2617464132762901] [-0.43948004798407231:11.15455661441392] [-0.29159775958010759:9.3431501871744853] [-0.39901485701157191:12.900401049192128] [-0.7293595800498448:8.5347865471933613] [-0.30627065236540901:9.2617464132762901] [-0.10915868660097949:19.18426606193557] [-0.15371267908391403:17.381522820126563] [-0.13813357671808577:21.479744348925514] [-0.26794810575616618:8.6720671926869333] -1:5:4:2:3:1:0:6 -1:8:7:6:9:10:3:5:4:12:2:11:1 -1:1:2 [-0.33467729274673735:4.9200291688931879] -1:0:1 [-0.4103436330520403:4.8453926961029907] [-0.23018390668292424:6.9809850746547655] -1:5:4:2:3:1:0:6 -1:7:6:5:8:9:2:4:3:11:1:10:0 [-0.29972616952328029:9.2618059671675201] [-0.29413809467355945:15.979890780048116]
tree_sizes=1710 1865 2232 2160 1826 1750 1403 2127 1330 1893 1577 1595 1805 1683 1664 1907 1846 1822 2003 1808 1832 1976 1402 2062 1588 1913 1502 1847 1812 2159 1834 1590 1814 1668 1993 1526 1509 2171 2115 1754 1503 2206 2103 1655 1939 1845 2079 1732 1972 1758 1988

Tree=0
num_leaves=19
num_cat=3
split_feature=3 9 3 16 18 12 3 8 8 3 20 3 5 5 3 5 12 6
split_gain=2.03157e+14 4.25636e+13 2.54354e+13 1.22789e+13 4.64398e+12 4.28659e+12 3.53453e+12 3.42076e+12 8.85888e+12 2.72038e+12 1.29651e+12 5.22303e+11 4.21523e+11 7.40984e+11 3.9819e+11 1.57232e+11 7.73643e+10 6.47119e+09
threshold=0.70634393309313059 1.0000000180025095e-35 1.7993049907102379 -0.22757116429838156 0 1 1.2434226127851229 0.088693472341421609 0.99600166857945116 0.48700704312840809 1.9545047967773939 1.0000000180025095e-35 -0.28980813160552993 -0.29639313990948152 0.92701914984407829 -0.29639313990948152 2 -0.074744227564040241
decision_type=2 2 2 2 1 9 2 2 2 2 2 2 2 2 2 2 9 2
left_child=4 2 6 7 5 12 14 10 -9 11 -3 15 13 -1 -2 16 -6 -17
right_child=1 3 -4 -5 9 -7 -8 8 -10 -11 -12 -13 -14 -15 -16 17 -18 -19
leaf_value=216321.99766890687 261308.40886181552 218262.64337529798 325059.31080674561 277491.11229513492 214477.24931290091 236390.53076413195 288173.78650604631 270132.68592511682 226832.61242974643 231861.50089907515 235669.2081451689 219067.00283372463 213407.436503395 225992.23769106733 269829.80716254498 212239.9044603385 213180.13541115462 213161.61300845013
leaf_weight=52 26 23 33 23 165 44 26 21 27 20 20 37 34 32 29 398 379 20
leaf_count=52 26 23 33 23 165 44 26 21 27 20 20 37 34 32 29 398 379 20
internal_value=223244 266454 288058 244851 214902 223081 272983 236601 245776 213697 226359 213237 218105 220006 265802 213013 213574 212284
internal_weight=0 228 114 114 1181 162 81 91 48 1019 43 999 118 84 55 962 544 418
internal_count=1409 228 114 114 1181 162 81 91 48 1019 43 999 118 84 55 962 544 418
cat_boundaries=0 1 2 3
cat_threshold=2560 2 4
is_linear=0
shrinkage=1


Tree=1
num_leaves=21
num_cat=6
split_feature=13 18 13 13 1 1 12 1 1 13 13 14 8 12 1 1 12 0 0 14
split_gain=2.84193e+14 8.27979e+12 8.10227e+12 9.20211e+12 7.24123e+12 2.33549e+12 1.99797e+12 8.37252e+11 7.41165e+11 6.76173e+11 5.12557e+11 2.70932e+11 1.01896e+11 4.6581e+10 7.19719e+10 3.02784e+11 1.94819e+10 1.02129e+10 2.42905e+10 2.68436e+09
threshold=-0.094340574603758234 0 1.7520433182472586 1.043267112896769 0.19833370483733309 0.78417744816958701 1 -0.34971366795735598 -0.42530640903248546 3.0917863419156268 3.5282140710705758 2 0.23991150504775985 3 -0.29301911215100879 -0.38751003849492072 4 2.5911330013733029 -0.27005310669367505 5
decision_type=2 1 2 2 2 2 9 2 2 2 2 1 2 9 2 2 9 2 2 1
left_child=1 4 3 -2 7 -6 9 -1 11 -4 -8 12 16 17 15 -15 -3 18 -10 -16
right_child=2 8 6 -5 5 -7 10 -9 13 -11 -12 -13 -14 14 19 -17 -18 -19 -20 -21
leaf_value=-10332.532281650641 50676.483717484909 -7295.1601894531259 51871.632421875001 91721.941059027784 32865.888398437499 10322.935069444444 65303.516346153854 676.11242439516127 -10495.744771128448 41232.152232142864 55170.617708333339 -4338.1801147460938 -11415.611309523811 -10077.290812500001 -10940.580883290817 -3153.3658593750001 -8512.132206632652 -11531.868973214287 -9372.8879507211532 -10253.19348388672
leaf_weight=39 22 100 32 36 20 27 26 31 653 28 24 64 21 75 49 20 49 21 52 20
leaf_count=39 22 100 32 36 20 27 26 31 653 28 24 64 21 75 49 20 49 21 52 20
internal_value=0 -8262.09 61031.3 76153 4362.42 19915.7 53058 -5457.28 -9530.23 46906.5 60439.7 -7111.03 -8154.93 -10273.4 -9512.3 -8619.62 -7695.37 -10445.3 -10412.9 -10741.3
internal_weight=0 1241 168 58 117 47 110 70 1124 60 50 234 170 890 164 95 149 726 705 69
internal_count=1409 1241 168 58 117 47 110 70 1124 60 50 234 170 890 164 95 149 726 705 69
cat_boundaries=0 1 2 3 4 5 6
cat_threshold=2049 2 1 2 2 1
is_linear=0
shrinkage=0.05


Tree=2
num_leaves=25
num_cat=4
split_feature=19 11 1 20 1 1 19 19 19 14 11 1 1 19 0 19 19 1 1 1 8 12 1 1
split_gain=2.26169e+14 7.73815e+12 8.08823e+12 5.92642e+12 2.56686e+12 2.02492e+12 1.82522e+12 1.71616e+12 9.41273e+11 8.33168e+11 1.03027e+12 1.67906e+12 6.67198e+11 7.0625e+11 6.03971e+11 7.94139e+11 3.83845e+11 1.29515e+11 1.26745e+11 1.04417e+11 5.91073e+10 5.83699e+10 1.23985e+10 1.15594e+10
threshold=-0.15485447048251058 0 0.19833370483733309 1.5026184798973181 0.94481202295423727 -0.40640822376370311 2.7458720489474469 -0.29643363090871727 -0.28326347645046551 1 2 -0.36861185322613832 0.50070466913785128 2.061024017118354 -0.29639313990948152 -0.27667839922133958 2.4627137280950335 -0.42530640903248546 -0.39695913112931192 2.3054813623065691 0.23991150504775985 3 -0.26467183424783525 -0.36861185322613832
decision_type=2 9 2 2 2 2 2 2 2 1 9 2 2 2 2 2 2 2 2 2 2 9 2 2
left_child=1 2 7 5 -4 16 12 23 9 17 11 -11 13 -7 15 -10 -2 20 -16 -19 -3 -12 -20 -1
right_child=3 8 4 -5 -6 6 -8 -9 14 10 21 -13 -14 -15 18 -17 -18 19 22 -21 -22 -23 -24 -25
leaf_value=-9694.110249255953 50724.487109375004 -7980.066346153847 33712.868342391303 83374.440625000003 10090.548199728262 64862.574531250008 71469.256398809535 5070.3347935267857 -4986.780360991379 2438.5735117455056 -10131.226748511906 -9454.930453125 46909.288828125005 52140.589257812506 -10176.523934659092 7964.1873046875007 41431.197125000006 -10062.446025022444 -6331.9437109375003 -6470.8937500000002 -10882.092812500001 -8154.941716897898 -4571.3710546875 -11271.326081730769
leaf_weight=21 20 143 23 20 23 20 21 28 29 73 105 50 20 24 22 20 25 557 20 21 20 58 20 26
leaf_count=21 20 143 23 20 23 20 21 28 29 73 105 50 20 24 22 20 25 557 20 21 20 58 20 26
internal_value=0 -6914.55 4983.34 58036.2 21901.7 54138 58678.4 -4728.82 -8151.78 -8696.16 -6403.83 -2216.02 54481.4 57923.3 -3849.39 299.329 45561.5 -9580.92 -7128.22 -9931.96 -8336.14 -8883.04 -5451.66 -10566.6
internal_weight=0 1259 121 150 46 130 85 75 1138 1027 286 123 64 44 111 49 45 741 62 578 163 163 40 47
internal_count=1409 1259 121 150 46 130 85 75 1138 1027 286 123 64 44 111 49 45 741 62 578 163 163 40 47
cat_boundaries=0 1 2 3 4
cat_threshold=4098 1 1824 2
is_linear=0
shrinkage=0.05


Tree=3
num_leaves=24
num_cat=4
split_feature=19 16 18 19 19 19 0 19 16 14 0 16 19 14 0 14 0 19 0 19 0 19 0
split_gain=2.04118e+14 6.9794e+12 6.70091e+12 4.22269e+12 1.89942e+12 1.52103e+12 9.74415e+11 1.05247e+12 9.58116e+11 6.45257e+11 2.02844e+12 5.58309e+11 3.78404e+11 2.51932e+11 3.8215e+11 2.11427e+11 3.24276e+11 9.58058e+10 5.4847e+10 2.9069e+10 1.29725e+10 1.10274e+10 7.18499e+09
threshold=-0.15485447048251058 -0.22187271946707474 0 -0.29643363090871727 3.0026900608833569 -0.28326347645046551 -0.29639313990948152 -0.27667839922133958 -0.065588776054353454 1 -0.29639313990948152 -0.14208278480934491 2.1499225597115532 2 -0.29639313990948152 3 -0.29639313990948152 -0.29643363090871727 -0.25688309008577187 -0.29643363090871727 -0.29639313990948152 -0.29643363090871727 -0.28322312330157834
decision_type=2 2 1 2 2 2 2 2 2 1 2 2 2 1 2 1 2 2 2 2 2 2 2
left_child=2 4 3 9 12 13 7 -7 11 10 -1 -3 -2 18 17 16 -5 -15 20 -16 -4 -20 -8
right_child=1 8 5 15 -6 6 22 -9 -10 -11 -12 -13 -14 14 19 -17 -18 -19 21 -21 -22 -23 -24
leaf_value=21861.462604166667 64226.014062500006 43387.185156250001 -8858.6736683238632 -78.948531250000002 78380.039914772729 -3849.4688437500004 -7200.1122135416663 11334.099665178572 37141.431194196426 3532.2462306976322 4469.3106496710525 54172.09778645834 55458.842968750003 -4570.2355284926471 -10000.10029535061 -10390.197539062501 -7450.3913429054055 -7219.7313870614034 -10813.163377192985 -8311.794847972973 -9318.5107763671876 -9472.8480887276801 -6086.4396065848223
leaf_weight=30 32 24 374 25 22 25 30 21 28 32 38 24 20 85 82 20 37 57 57 37 260 21 28
leaf_count=30 32 24 374 25 22 25 30 21 28 32 38 24 20 85 82 20 37 57 57 37 260 21 28
internal_value=0 55134.4 -6568.83 2360.77 66064.5 -8025.23 -2352.35 3082.16 44491.9 9387.1 12142.3 48779.6 60854 -8714.06 -7385.21 -5920.03 -4478.04 -5633.77 -9201.18 -9475.16 -9047.25 -10452.3 -6662.48
internal_weight=0 150 1259 182 74 1077 104 46 76 100 68 48 52 973 261 82 62 142 712 119 634 78 58
internal_count=1409 150 1259 182 74 1077 104 46 76 100 68 48 52 973 261 82 62 142 712 119 634 78 58
cat_boundaries=0 1 2 3 4
cat_threshold=2560 1 1 1
is_linear=0
shrinkage=0.05


Tree=4
num_leaves=20
num_cat=2
split_feature=3 9 3 1 18 12 1 1 3 3 3 9 3 3 5 1 5 1 1
split_gain=1.396e+14 2.8935e+13 2.17332e+13 6.34742e+12 3.44973e+12 3.20374e+12 8.63206e+12 3.10249e+12 2.8233e+12 2.69347e+12 1.72524e+12 5.34503e+11 3.80013e+11 3.78575e+11 9.86593e+10 1.59303e+11 1.61346e+10 9.99899e+09 9.42681e+08
threshold=0.70634393309313059 1.0000000180025095e-35 1.7501832091039335 0.63299196601932806 0 1 -0.15128272263514098 -0.40640822376370311 1.2434226127851229 1.7993049907102379 0.48700704312840809 0.7771231270479465 1.0000000180025095e-35 0.92701914984407829 -0.29639313990948152 0.42038738174552609 -0.28980813160552993 0.22195643642331106 -0.21742637107587931
decision_type=2 2 2 2 1 9 2 2 2 2 2 2 2 2 2 2 2 2 2
left_child=4 2 8 9 5 7 -7 -1 13 11 12 -3 14 -2 15 -6 18 -16 -9
right_child=1 3 -4 -5 10 6 -8 16 -10 -11 -12 -13 -14 -15 17 -17 -18 -19 -20
leaf_value=7810.9805924699122 28685.134735576925 -141.01691576086958 87118.835294117656 43584.93390625 -8396.3975423519732 -11553.195386904763 32785.212771739134 -10364.544140625001 53330.983750000007 23069.989738175675 6508.5876171875007 9728.1224034926472 -3350.4164273648648 36994.001831896552 -8991.6781015406777 -5825.3518908514498 -8666.2662037037044 -9689.1377734375001 -9946.4409555288476
leaf_weight=37 26 23 34 20 475 21 23 28 25 37 20 34 37 29 358 69 27 60 26
leaf_count=37 26 23 34 20 475 21 23 28 25 37 20 34 37 29 358 69 27 60 26
internal_value=0 35819.1 53631.2 18007 -6915.12 102.588 11623.7 -4184.73 39398.9 12564.9 -7953.74 5745.84 -8322.9 33066.2 -8514.14 -8070.29 -9664.25 -9091.79 -10163.2
internal_weight=0 228 114 114 1181 162 44 118 80 94 1019 57 999 55 962 544 81 418 54
internal_count=1409 228 114 114 1181 162 44 118 80 94 1019 57 999 55 962 544 81 418 54
cat_boundaries=0 1 2
cat_threshold=2560 2
is_linear=0
shrinkage=0.05


Tree=5
num_leaves=19
num_cat=2
split_feature=15 15 15 18 5 15 5 12 19 4 5 19 15 4 9 4 19 5
split_gain=1.9199e+14 1.97959e+13 4.22817e+12 3.54365e+12 3.63274e+12 3.3522e+12 3.2547e+12 2.30548e+12 2.1912e+12 2.15611e+12 2.14773e+12 1.97151e+12 8.04311e+11 2.97984e+11 1.35012e+11 6.62338e+10 2.90074e+10 2.77835e+10
threshold=1.3935512687365159 1.9413749637732611 2.2069791943202364 0 -0.27663811499762669 2.6517061599648746 -0.29639313990948152 1 2.2882091815231971 -0.18544190970033839 -0.29639313990948152 2.2355285636901896 -0.10222086499318032 -0.64046120812175333 0.094205291750209433 -0.13280471579554745 -0.29643363090871727 -0.29639313990948152
decision_type=2 2 2 1 2 2 2 9 2 2 2 2 2 2 2 2 2 2
left_child=3 11 -3 4 9 6 -4 8 -7 10 -1 -2 13 -5 15 -15 -16 -11
right_child=1 2 5 12 -6 7 -8 -9 -10 17 -12 -13 -14 14 16 -17 -18 -19
leaf_value=9143.1502430555556 66007.575406250005 17272.918889825996 38405.741178385419 -4329.540985576924 17933.30887858073 16063.992613636365 64445.361523437503 44938.037005615239 37910.055859375003 -11202.540739889708 -9638.9405910326077 87069.127500000002 640.76323242187505 -8253.9469497571681 -11024.273405827704 -9139.4614737451611 -9158.631027747846 -9006.8068125000009
leaf_weight=45 25 22 24 39 24 22 24 32 24 34 23 20 24 560 74 339 29 25
leaf_count=45 25 22 24 39 24 22 24 32 24 34 23 20 24 560 74 339 29 25
internal_value=0 46327.8 37498 -7353.02 87.5092 41029.3 51425.6 34631.6 27461.9 -3278.03 2790.38 75368.3 -8330.57 -8617.42 -8784.32 -8587.86 -10499 -10272.1
internal_weight=0 193 148 1216 151 126 48 78 46 127 68 45 1065 1041 1002 899 103 59
internal_count=1409 193 148 1216 151 126 48 78 46 127 68 45 1065 1041 1002 899 103 59
cat_boundaries=0 1 2
cat_threshold=2052 2
is_linear=0
shrinkage=0.05


Tree=6
num_leaves=15
num_cat=2
split_feature=19 3 3 1 3 3 1 1 3 12 14 1 3 3
split_gain=1.52888e+14 2.73103e+13 5.69361e+12 4.80048e+12 3.14119e+12 1.2555e+12 7.17864e+11 5.74118e+12 5.84915e+11 5.50505e+11 5.33485e+11 7.04845e+11 2.47397e+11 5.4063e+10
threshold=-0.15485447048251058 1.6998214363070303 2.2879614108958495 3.5433124974118151 1.1927790548379706 2.229516780070369 0.19833370483733309 0.26447735327807148 0.85606703363019243 0 1 -0.36861185322613832 1.0000000180025095e-35 1.003095739556163
decision_type=2 2 2 2 2 2 2 2 2 9 1 2 2 2
left_child=3 4 -3 5 8 6 10 -8 -2 -9 12 -12 -1 -10
right_child=1 2 -4 -5 -6 -7 7 9 13 -11 11 -13 -14 -15
leaf_value=-7857.0341471354177 21442.346484375001 64263.14040178572 99192.486250000016 18615.7133984375 45768.792329545453 4389.9886439732145 21846.134492187499 -8592.8996846330283 28956.846953125001 -2528.9718989857461 -3222.9274331390543 -8430.8506155303021 -4808.9399004961988 32589.193601190476
leaf_weight=663 28 28 20 20 33 28 20 109 20 57 189 99 74 21
leaf_count=663 28 28 20 20 33 28 20 109 20 57 189 99 74 21
internal_value=0 47716.6 78817 -5685.05 33081 -6077.32 -6319.34 -3461.58 27013 -6510.71 -6837.91 -5013.15 -7550.98 30817.3
internal_weight=0 150 48 1259 102 1239 1211 186 69 166 1025 288 737 41
internal_count=1409 150 48 1259 102 1239 1211 186 69 166 1025 288 737 41
cat_boundaries=0 1 2
cat_threshold=2 1
is_linear=0
shrinkage=0.05


Tree=7
num_leaves=24
num_cat=5
split_feature=19 18 12 1 19 1 19 12 19 0 19 19 19 0 14 0 1 1 0 19 12 19 19
split_gain=1.37982e+14 5.275e+12 6.12407e+12 9.64496e+12 2.95926e+12 2.42262e+12 4.26944e+12 1.239e+12 1.19307e+12 7.79155e+11 8.00517e+11 4.43129e+11 3.8555e+11 2.47372e+11 1.99714e+11 2.43089e+11 1.24727e+11 6.10262e+10 5.84193e+10 2.67309e+10 1.1034e+10 7.21104e+09 1.10406e+08
threshold=-0.15485447048251058 0 1 0.19833370483733309 3.0026900608833569 -0.40640822376370311 -0.29643363090871727 2 -0.28326347645046551 -0.29639313990948152 -0.27667839922133958 2.5022241914697889 1.8371313913280731 -0.25688309008577187 3 -0.29639313990948152 0.42038738174552609 -0.37806094586052952 -0.29639313990948152 -0.29643363090871727 4 -0.29643363090871727 -0.28984855367959139
decision_type=2 1 9 2 2 2 2 9 2 2 2 2 2 2 1 2 2 2 2 2 9 2 2
left_child=1 2 5 -4 7 6 -1 12 13 10 -10 -9 -2 14 16 -16 -3 -11 -14 20 -15 -7 -23
right_child=4 8 3 -5 -6 21 -8 11 9 17 -12 -13 18 19 15 -17 -18 -19 -20 -21 -22 22 -24
leaf_value=22629.816704101566 43259.527139945654 -7782.3546328802186 -664.34611545138887 40255.973242187501 61034.390937500008 -9309.1943309294875 -9649.385119047618 51995.139947916672 -2852.5899062500002 -7384.4555 10389.442187500001 42770.524184782611 33720.777062500005 -9727.1804347826092 -4484.932148162412 -7693.7928783454518 -5734.2375545058139 -4109.4270951704548 37174.365104166667 -8265.7121164957698 -11015.835096153847 -8287.7209872159092 -8450.0379296875017
leaf_weight=20 23 548 36 24 25 39 21 30 25 25 21 23 25 46 142 101 86 33 24 24 26 22 20
leaf_count=20 23 548 36 24 25 39 21 30 25 25 21 23 25 46 142 101 86 33 24 24 26 22 20
internal_value=0 -5400.8 2488.53 15703.8 45330.7 -3806.8 6096.57 42190 -6694.95 -1666.91 3192.69 47992 37919.1 -7301.18 -7037.41 -5818.66 -7504.53 -5521.08 35412.3 -9710.82 -10192.5 -8819.62 -8365.01
internal_weight=0 1259 182 60 150 122 41 125 1077 104 46 53 72 973 877 243 634 58 49 96 72 81 42
internal_count=1409 1259 182 60 150 122 41 125 1077 104 46 53 72 973 877 243 634 58 49 96 72 81 42
cat_boundaries=0 1 2 3 4 5
cat_threshold=2560 2 2 1 2
is_linear=0
shrinkage=0.05


Tree=8
num_leaves=14
num_cat=1
split_feature=15 3 3 1 3 5 3 3 15 3 10 1 1
split_gain=1.46607e+14 2.60325e+13 5.04472e+12 4.72607e+12 1.89629e+12 2.25733e+12 2.95931e+12 1.33557e+12 1.10779e+12 4.40348e+11 3.61e+11 2.74508e+12 7.37533e+10
threshold=1.3935512687365159 1.6998214363070303 2.2879614108958495 3.5433124974118151 1.1927790548379706 -0.28980813160552993 -0.28451356530117444 2.229516780070369 -0.10222086499318032 0.92701914984407829 0 0.19833370483733309 0.18888461220294189
decision_type=2 2 2 2 2 2 2 2 2 2 1 2 2
left_child=3 4 -3 7 5 6 -2 8 10 -8 11 -1 -12
right_child=1 2 -4 -5 -6 -7 9 -9 -10 -11 12 -13 -14
leaf_value=-7069.1706250739826 44458.711300223222 58700.46428571429 91579.199687500004 17679.361367187503 40249.696668198536 16023.37880859375 19803.434241174771 3962.908063616072 2396.6873982747397 29332.993323863637 -7893.7559215752153 7142.1423076923083 -9177.887758458648
leaf_weight=264 28 28 20 20 34 34 27 28 30 22 702 39 133
leaf_count=264 28 28 20 20 34 34 27 28 30 22 702 39 133
internal_value=0 40483.6 72399.9 -6425.45 29918.3 26753.7 31491.7 -6828.54 -7087.24 24082 -7337.25 -5072.58 -8002.46
internal_weight=0 193 48 1216 145 111 77 1196 1168 49 1138 303 835
internal_count=1409 193 48 1216 145 111 77 1196 1168 49 1138 303 835
cat_boundaries=0 1
cat_threshold=80
is_linear=0
shrinkage=0.05


Tree=9
num_leaves=21
num_cat=3
split_feature=13 3 11 1 3 19 3 3 5 19 3 1 19 14 3 5 3 14 1 1
split_gain=1.37241e+14 1.87791e+13 4.66079e+12 4.93058e+12 4.00515e+12 3.63055e+12 3.09253e+12 1.71974e+12 1.35547e+12 1.18951e+12 4.45542e+11 3.38701e+11 2.50028e+11 3.95184e+11 7.01245e+10 3.68745e+11 5.74958e+10 3.36308e+10 2.82541e+10 2.27365e+10
threshold=-0.094340574603758234 1.7993049907102379 0 0.19833370483733309 2.2879614108958495 -0.11534400710775521 1.1927790548379706 2.229516780070369 -0.29639313990948152 -0.29643363090871727 0.80868348390958278 -0.42530640903248546 -0.29643363090871727 1 -0.37720508716197237 -0.11530541155081211 0.99518122758392991 2 2.3054813623065691 -0.36861185322613832
decision_type=2 2 9 2 2 2 2 2 2 2 2 2 2 1 2 2 2 1 2 2
left_child=2 5 3 9 -3 -2 10 11 -5 19 -7 12 13 -4 18 -16 -12 -14 -13 -1
right_child=1 4 7 8 -6 6 -8 -9 -10 -11 16 14 17 -15 15 -17 -18 -19 -20 -21
leaf_value=-7511.8292317708328 51401.61403459822 56704.247786458342 -5459.3344993735263 25980.863600852274 87000.238750000004 16408.819602272728 40410.27734375 6771.5679347826081 8429.1829900568173 4433.1155092592589 23263.704971590909 -7574.3750422672401 -6716.69371800916 880.54770507812509 -205.4402734375 -8096.3268777412277 26839.057812500003 -8802.0739224137924 -9316.3269531250007 -9723.824849759616
leaf_weight=21 21 24 106 22 20 22 36 23 22 27 22 774 58 32 20 57 23 29 24 26
leaf_count=21 21 24 106 22 20 22 36 23 22 27 22 774 58 32 20 57 23 29 24 26
internal_value=0 42411.9 -5741.5 3641.78 70475.2 32454 28590.9 -6700.22 17205 -3930.73 22240.2 -7042.82 -5312.62 -3989.22 -7487.72 -6046.75 25091.1 -7411.82 -7626.76 -8735.49
internal_weight=0 168 1241 118 44 124 103 1123 44 74 67 1100 225 138 875 77 45 87 798 47
internal_count=1409 168 1241 118 44 124 103 1123 44 74 67 1100 225 138 875 77 45 87 798 47
cat_boundaries=0 1 2 3
cat_threshold=4098 1 1
is_linear=0
shrinkage=0.05


Tree=10
num_leaves=17
num_cat=2
split_feature=13 3 1 3 19 3 10 1 3 0 1 3 1 1 14 0
split_gain=1.2386e+14 1.69522e+13 4.01821e+12 3.73266e+12 3.33578e+12 2.64854e+12 1.30993e+12 3.40162e+12 1.21622e+12 4.94167e+11 4.43308e+11 4.41832e+11 1.20743e+11 6.25535e+11 2.5298e+10 1.2723e+10
threshold=-0.094340574603758234 1.7501832091039335 3.5433124974118151 2.2879614108958495 -0.11534400710775521 1.2434226127851229 0 0.19833370483733309 2.229516780070369 -0.29639313990948152 -0.34026457532296478 0.92701914984407829 0.78417744816958701 0.42038738174552609 1 -0.27663811499762669
decision_type=2 2 2 2 2 2 1 2 2 2 2 2 2 2 1 2
left_child=2 4 6 -3 -2 11 7 9 12 10 -1 -6 13 -8 -14 -11
right_child=1 3 -4 -5 5 -7 8 -9 -10 15 -12 -13 14 -15 -16 -17
leaf_value=-3708.8547286184216 48831.531780133926 53670.076625000002 16775.754843750001 82650.226250000007 17545.646592881945 38598.691098484851 -6946.3910436212609 15040.162199519233 3895.4386574074074 -6589.9219089673925 4943.1315625000007 25555.31922348485 -8181.7607581967213 64.607442589962133 -10193.84099702381 -7995.4882440476185
leaf_weight=57 21 25 20 20 36 33 886 26 27 69 20 33 61 33 21 21
leaf_count=57 21 25 20 20 36 33 886 26 27 69 20 33 61 33 21 21
internal_value=0 40291.3 -5454.43 66550.1 30684.5 26948.3 -5818.56 -1695.11 -6512.86 -4402.11 -1461.59 21376.4 -6858.67 -6694.64 -8697.05 -6917.89
internal_weight=0 168 1241 45 123 102 1221 193 1028 167 77 69 1001 919 82 90
internal_count=1409 168 1241 45 123 102 1221 193 1028 167 77 69 1001 919 82 90
cat_boundaries=0 1 2
cat_threshold=16 1
is_linear=0
shrinkage=0.05


Tree=11
num_leaves=17
num_cat=1
split_feature=15 15 15 11 15 15 5 4 5 15 5 15 20 4 4 5
split_gain=1.10443e+14 1.14794e+13 2.43053e+12 2.3125e+12 2.19062e+12 1.7513e+12 1.68258e+12 2.00643e+12 1.7025e+12 5.84383e+11 1.04624e+12 5.09883e+11 2.58681e+11 2.49417e+11 6.76358e+10 4.96849e+10
threshold=1.3935512687365159 1.9413749637732611 2.2069791943202364 0 2.4303914259505457 1.6592561082782395 -0.27663811499762669 -0.18544190970033839 -0.29639313990948152 2.6517061599648746 -0.29639313990948152 -0.10222086499318032 2.1482658961577648 -0.64046120812175333 -0.13280471579554745 -0.29639313990948152
decision_type=2 2 2 9 2 2 2 2 2 2 2 2 2 2 2 2
left_child=3 5 -3 6 -4 -2 7 8 -1 -6 -11 12 13 -5 -15 -9
right_child=1 2 4 11 9 -7 -8 15 -10 10 -12 -13 -14 14 -16 -17
leaf_value=9150.6684507978716 67796.781026785713 13079.271333451705 45832.844159226195 -2434.6569045608107 34482.591782407413 48025.214160156254 12279.8539140625 -10071.354535590279 -7702.3712180397724 31889.193564967107 20303.810234375003 632.98897656250006 -11423.03793402778 -6292.0436539525845 -7149.6939685388515 -6963.1458789062499
leaf_weight=47 21 22 21 37 27 24 25 36 22 38 40 25 27 607 370 20
leaf_count=47 21 22 21 37 27 24 25 36 22 38 40 25 27 607 370 20
internal_value=0 35137.5 28413.6 -5576.93 31091 57251.9 411.212 -1929.62 3777.24 28142.6 25948 -6363.7 -6592.85 -6464.24 -6616.84 -8961.28
internal_weight=0 193 148 1216 126 45 150 125 69 105 78 1066 1041 1014 977 56
internal_count=1409 193 148 1216 126 45 150 125 69 105 78 1066 1041 1014 977 56
cat_boundaries=0 1
cat_threshold=4104
is_linear=0
shrinkage=0.05


Tree=12
num_leaves=20
num_cat=3
split_feature=15 3 3 3 8 12 12 3 15 19 18 19 4 15 19 4 4 19 4
split_gain=9.96746e+13 1.78648e+13 3.46866e+12 2.9443e+12 3.8669e+12 3.32996e+12 1.24233e+12 1.26666e+12 1.91708e+12 1.13432e+12 7.18897e+11 1.59416e+12 4.98393e+12 5.79115e+11 2.35172e+10 2.4982e+10 6.10263e+09 1.84728e+09 6.9835e+08
threshold=1.3935512687365159 1.6998214363070303 2.2879614108958495 0.9083321424956714 0.99600166857945116 0 1 1.0189513031999915 2.6517061599648746 1.6527492289125478 2 -0.29643363090871727 1.0000000180025095e-35 -0.10222086499318032 -0.28326347645046551 0.11722195525220953 -0.50377160617216921 -0.27667839922133958 -0.55490488025110907
decision_type=2 2 2 2 2 9 9 2 2 2 1 2 2 2 2 2 2 2 2
left_child=3 6 -3 10 5 -5 7 8 -2 -8 11 12 -1 14 15 -12 18 -16 -13
right_child=1 2 -4 4 -6 -7 9 -9 -10 -11 13 16 -14 -15 17 -17 -18 -19 -20
leaf_value=16265.618055555557 24801.467778716218 48460.477455357148 75723.736250000002 473.65735887096776 -13116.021025815216 25281.240592447917 39685.212141927084 30574.8505625 7460.7443638392861 24905.349908088236 -6468.7942075977153 -7391.8876616379312 -9378.1342675781252 727.70690827546298 -7256.2839462652446 -7090.2345484082953 -8229.4461309523813 -7725.367441860466 -7031.280484375
leaf_weight=36 37 28 20 31 23 24 21 25 28 34 662 29 40 27 41 214 21 43 25
leaf_count=36 37 28 20 31 23 24 21 25 28 34 662 29 40 27 41 214 21 43 25
internal_value=0 33380.7 59820.2 -5298.08 4099.55 11298.8 24628.3 21010.3 17331.6 30548.6 -5942.21 -2189.62 2768.91 -6428.99 -6697.24 -6620.61 -7506.2 -7496.41 -7224.94
internal_weight=0 193 48 1216 78 55 145 90 65 55 1138 151 76 987 960 876 75 84 54
internal_count=1409 193 48 1216 78 55 145 90 65 55 1138 151 76 987 960 876 75 84 54
cat_boundaries=0 1 2 3
cat_threshold=2 2 2304
is_linear=0
shrinkage=0.05


Tree=13
num_leaves=18
num_cat=1
split_feature=13 3 18 1 3 13 3 1 1 3 5 2 3 6 1 1 5
split_gain=9.23599e+13 1.31056e+13 3.8607e+12 7.4298e+12 3.44845e+12 1.63535e+12 1.00237e+12 9.57453e+11 3.59178e+11 2.58356e+11 2.35502e+11 1.91808e+11 1.41778e+11 2.39747e+11 9.65722e+10 8.33389e+10 1.02406e+10
threshold=-0.094340574603758234 1.5762828619355782 0 0.19833370483733309 2.2879614108958495 1.7520433182472586 1.1927790548379706 -0.34971366795735598 -0.42530640903248546 1.0174842576993963 -0.29639313990948152 -0.28827772238274207 -0.053693501059579714 -0.074744227564040241 2.1826431580594838 -0.42530640903248546 -0.29639313990948152
decision_type=2 2 1 2 2 2 2 2 2 2 2 2 2 2 2 2 2
left_child=2 5 3 7 -3 -2 10 15 11 12 -7 -4 14 -14 -10 -1 -17
right_child=1 4 8 -5 -6 6 -8 -9 9 -11 -12 -13 13 -15 -16 16 -18
leaf_value=-3435.4855698529414 35494.127503255208 45471.212695312504 -3311.5136013454862 25171.092107747398 71937.548593750005 21589.337523674243 30870.062296195654 4211.4599345439192 -6091.5879331733922 -10263.151007401317 15468.368385416668 -7629.8480078124994 96.013997395833343 -7219.3713727678569 -8938.5024697580648 -7493.3298950195312 -6067.4781594669121
leaf_weight=34 30 32 180 30 20 33 23 37 762 38 30 30 24 21 31 20 34
leaf_count=34 30 32 180 30 20 33 23 37 762 38 30 30 24 21 31 20 34
internal_value=0 34792.6 -4710.04 2654.48 55650.6 25442.5 21936.2 -2537.15 -5732.8 -6230.81 18674.6 -3928.42 -6047.95 -3317.83 -6202.88 -5374.63 -6595.57
internal_weight=0 168 1241 155 52 116 86 125 1086 876 63 210 838 45 793 88 54
internal_count=1409 168 1241 155 52 116 86 125 1086 876 63 210 838 45 793 88 54
cat_boundaries=0 1
cat_threshold=2052
is_linear=0
shrinkage=0.05


Tree=14
num_leaves=18
num_cat=1
split_feature=19 3 1 3 10 5 19 1 3 3 1 3 9 3 1 3 1
split_gain=6.67163e+13 1.45081e+13 3.30219e+12 3.11223e+12 1.70944e+12 1.4166e+12 2.04822e+12 2.05201e+12 1.35215e+12 1.34922e+12 5.66028e+11 3.46788e+11 2.58475e+12 3.40895e+11 2.6066e+11 4.29286e+10 5.16695e+08
threshold=-0.15485447048251058 1.5762828619355782 3.5433124974118151 2.2879614108958495 0 -0.28980813160552993 -0.29643363090871727 0.20778279747172429 1.1927790548379706 2.229516780070369 -0.15128272263514098 1.0000000180025095e-35 0.28045561046777406 0.92701914984407829 0.42038738174552609 0.20984121795641436 -0.39695913112931192
decision_type=2 2 2 2 1 2 2 2 2 2 2 2 2 2 2 2 2
left_child=2 8 4 -3 5 6 7 -1 13 11 -8 14 -13 -2 -6 16 -7
right_child=1 3 -4 -5 9 15 10 -9 -10 -11 -12 12 -14 -15 -16 -17 -18
leaf_value=8199.968000237297 13117.858356207769 43197.651269531256 16399.352656250001 68340.671249999999 -6198.9630207412483 -6173.59765625 -5541.0496633976072 -8566.8706676136371 29253.039385775861 6464.4236979166672 2794.396281550481 13166.884592285156 -7546.0465115906763 20165.261962890625 -3447.3832629145409 -8561.8499822443173 -5859.6231496710534
leaf_weight=107 37 32 20 20 707 20 94 22 29 24 26 20 61 32 98 22 38
leaf_count=107 37 32 20 20 707 20 94 22 29 24 26 20 61 32 98 22 38
internal_value=0 31520.8 -3755.46 52868 -4080.8 -866.6 966.751 5340.51 20193.7 -5176.45 -3735.04 -5550.2 -2431.74 16386.2 -5863.99 -6681.23 -5967.89
internal_weight=0 150 1259 52 1239 329 249 129 98 910 120 886 81 69 805 80 58
internal_count=1409 150 1259 52 1239 329 249 129 98 910 120 886 81 69 805 80 58
cat_boundaries=0 1
cat_threshold=80
is_linear=0
shrinkage=0.05


Tree=15
num_leaves=21
num_cat=2
split_feature=3 9 3 1 16 3 11 0 1 1 3 3 0 3 1 1 3 12 1 1
split_gain=4.84692e+13 1.14821e+13 1.04489e+13 4.36732e+12 4.57903e+12 2.63645e+12 2.52383e+12 1.94346e+12 2.72925e+12 1.80738e+12 1.03514e+12 8.37759e+11 4.38037e+11 1.9639e+11 1.83129e+11 8.22132e+11 1.59266e+11 5.94646e+10 1.25709e+10 1.0277e+09
threshold=0.74865892670504619 1.0000000180025095e-35 2.2084507034119585 0.63299196601932806 -0.22757116429838156 1.3711980480339012 0 -0.28980813160552993 -0.15128272263514098 -0.40640822376370311 0.48700704312840809 1.5676941211819269 2.2882226193915285 1.0110949124335089 0.46290829860028648 0.34007009435320096 -0.053693501059579714 1 -0.27412092688222645 0.99678203244338881
decision_type=2 2 2 2 2 2 9 2 2 2 2 2 2 2 2 2 2 9 2 2
left_child=6 2 5 4 11 13 7 8 9 -1 14 -3 -13 -2 15 16 -8 19 -9 -16
right_child=1 3 -4 -5 -6 -7 10 18 -10 -11 -12 12 -14 -15 17 -17 -18 -19 -20 -21
leaf_value=7516.3286680640249 16768.793261718751 -6628.2589087701608 65678.148906250004 31472.003945312499 25648.273970170456 37453.963256048388 -5327.068707422819 -6478.6845796130956 16764.273763020836 -7519.0840444711539 4730.5865415219914 9554.9243554687509 -909.74041015625016 22619.152824519231 -6518.8354370117195 5075.30078125 -2096.7397802734376 -8752.0685356987851 -8230.2261718749996 -6151.4744763962772
leaf_weight=41 32 31 20 20 22 31 828 21 36 39 27 20 20 26 32 20 40 36 20 47
leaf_count=41 32 31 20 20 22 31 828 21 36 39 27 20 20 26 32 20 40 36 20 47
internal_value=0 21443.5 33021.4 10275.5 5717.09 25682.8 -4010.5 1902.89 5331.37 186.565 -4882.93 -458.765 4322.59 19391.4 -5190.4 -4947.27 -5178.21 -7067.8 -7333.1 -6300.28
internal_weight=0 222 109 113 93 89 1187 157 116 80 1030 71 40 58 1003 888 868 115 41 79
internal_count=1409 222 109 113 93 89 1187 157 116 80 1030 71 40 58 1003 888 868 115 41 79
cat_boundaries=0 1 2
cat_threshold=5120 2
is_linear=0
shrinkage=0.05


Tree=16
num_leaves=20
num_cat=1
split_feature=13 3 11 4 0 4 3 1 3 3 3 1 1 4 4 1 3 3 4
split_gain=7.05629e+13 9.69585e+12 3.50761e+12 5.18187e+12 9.73633e+12 2.66893e+12 3.18774e+12 2.41437e+12 1.05344e+12 4.80057e+11 3.34511e+11 2.78591e+11 2.48903e+11 1.73384e+11 2.81041e+11 8.64945e+10 7.04747e+10 5.44197e+10 1.36874e+09
threshold=-0.094340574603758234 2.0459285555742652 0 -0.13280471579554745 -0.29639313990948152 -0.69496994669871459 1.2884442864320091 0.94481202295423727 2.229516780070369 1.5762828619355782 0.80868348390958278 0.037699130052682821 -0.42530640903248546 -0.3591446495861485 -0.18544190970033839 2.3054813623065691 0.66530216981377344 1.0189513031999915 -0.55490488025110907
decision_type=2 2 9 2 2 2 2 2 2 2 2 2 2 2 2 2 2 2 2
left_child=2 5 3 4 -1 6 10 11 12 -8 -2 -5 13 18 -15 16 -14 -12 -4
right_child=1 -3 8 7 -6 -7 9 -9 -10 -11 17 -13 15 14 -16 -17 -18 -19 -20
leaf_value=41384.327894176138 10099.830708451706 56173.690833333334 -6215.0937904094826 -6545.4509650735299 -5656.1043013139206 41223.500055803575 27227.85065104167 11036.582578125001 5591.7249660326088 37453.203409090915 16078.335016741072 -13982.426406250001 -5424.8725438317597 -1008.7716297743057 -5199.8404730902785 -8500.3043906250005 -7781.701941287879 19445.447470238094 -5747.5065027573537
leaf_weight=22 22 30 29 34 22 21 24 20 23 22 28 20 817 90 72 25 33 21 34
leaf_count=22 22 30 29 34 22 21 24 20 23 22 28 20 817 90 72 25 33 21 34
internal_value=0 30411.2 -4116.91 3941.86 17864.1 24810.7 21864.8 -3803.54 -4954.67 32118.2 15221.7 -9299.89 -5220.23 -3737.03 -2871.47 -5601.63 -5516.37 17521.4 -5962.75
internal_weight=0 168 1241 118 44 138 117 74 1123 46 71 54 1100 225 162 875 850 49 63
internal_count=1409 168 1241 118 44 138 117 74 1123 46 71 54 1100 225 162 875 850 49 63
cat_boundaries=0 1
cat_threshold=4098
is_linear=0
shrinkage=0.05


Tree=17
num_leaves=20
num_cat=3
split_feature=15 3 3 19 3 20 3 3 3 17 12 19 15 12 20 19 19 19 0
split_gain=6.43691e+13 1.02412e+13 2.31284e+12 2.12849e+12 2.08292e+12 1.50862e+13 1.62231e+12 5.31726e+11 3.84473e+11 3.62251e+11 1.57354e+12 1.56285e+12 4.6553e+11 2.57403e+11 2.38569e+11 1.96716e+10 1.92337e+10 2.57355e+09 9.72073e+08
threshold=1.3935512687365159 1.6998214363070303 2.2879614108958495 -0.28984855367959139 0.9083321424956714 1.299253664050027 0.92701914984407829 1.2884442864320091 0.77865721926921994 0 1 -0.29643363090871727 -0.10222086499318032 2 1.9545047967773939 -0.28326347645046551 -0.28984855367959139 -0.28984855367959139 -0.29639313990948152
decision_type=2 2 2 2 2 2 2 2 2 1 9 2 2 9 2 2 2 2 2
left_child=4 3 -3 -2 9 -6 8 -8 -5 10 17 -12 13 16 -7 -15 -11 18 -1
right_child=1 2 -4 6 5 14 7 -9 -10 12 11 -13 -14 15 -16 -17 -18 -19 -20
leaf_value=-5304.1828776041666 31144.024784581801 37567.572321428575 59829.853437500009 4712.613436612216 38729.602219460234 -5922.7179873511914 17969.911097756409 27001.002008928575 14060.347585227275 -6691.9754272460941 11794.795874023439 -6022.4124804687499 1763.628275730299 -4847.3264935661764 -12663.761986607144 -5732.1505970982143 -8274.5000372023824 -5660.9592945772056 -4994.9383748372402
leaf_weight=54 34 28 20 22 22 21 39 28 22 224 32 20 23 612 35 70 21 34 48
leaf_count=54 34 28 20 22 22 21 39 28 22 224 32 20 23 612 35 70 21 34 48
internal_value=0 26825.1 46843.5 20198.3 -4257.6 3646.7 16845.6 21744.1 9386.48 -4799.37 -2331.67 4942.02 -5208.35 -5437.52 -10135.9 -4938.14 -6827.62 -5284.23 -5158.66
internal_weight=0 193 48 145 1216 78 111 67 44 1138 188 52 950 927 56 682 245 136 102
internal_count=1409 193 48 145 1216 78 111 67 44 1138 188 52 950 927 56 682 245 136 102
cat_boundaries=0 1 2 3
cat_threshold=32 2 4
is_linear=0
shrinkage=0.05


Tree=18
num_leaves=22
num_cat=1
split_feature=15 3 3 3 20 0 4 3 3 18 0 4 4 15 20 3 0 3 4 4 4
split_gain=5.80931e+13 9.24266e+12 2.08734e+12 1.87984e+12 1.36153e+13 1.58832e+12 3.7592e+12 1.50257e+12 7.4871e+11 5.98106e+11 1.42775e+12 2.37211e+12 5.2307e+12 3.53581e+11 2.15308e+11 1.39081e+11 2.82062e+10 3.90266e+10 2.43312e+10 2.16876e+10 4.84192e+09
threshold=1.3935512687365159 1.6998214363070303 2.2879614108958495 0.9083321424956714 1.299253664050027 -0.28980813160552993 -0.3591446495861485 0.92701914984407829 1.1024161637808843 0 -0.29639313990948152 -0.18544190970033839 -0.3591446495861485 -0.10222086499318032 1.9545047967773939 0.91422440302421482 -0.29639313990948152 0.27345304668441295 -0.3591446495861485 -0.58948111106211321 1.0000000180025095e-35
decision_type=2 2 2 2 2 2 2 2 2 1 2 2 2 2 2 2 2 2 2 2 2
left_child=3 5 -3 9 -5 6 8 -7 15 10 11 12 -1 16 -6 -2 19 -18 -12 -11 -20
right_child=1 2 -4 4 14 7 -8 -9 -10 13 18 -13 -14 -15 -16 -17 17 -19 20 -21 -22
leaf_value=-6661.440022786458 10278.446261718751 35689.193749999999 56838.360312500008 36793.123366477274 -5626.5819568452389 2101.8395063920457 38296.117578124999 20018.410718261719 23556.630875000003 -6835.7062789351858 -5253.5354166666666 -8445.4763165509266 26017.833500000001 596.45353009259259 -12030.573794642858 15872.489374999999 -4797.6903745514355 -6831.4236406250002 -6504.7480078125009 -5380.107830835459 -7579.6703302556825
leaf_weight=24 25 28 20 22 21 22 28 25 25 27 33 27 25 27 35 20 418 25 20 490 22
leaf_count=24 25 28 20 22 21 22 28 25 25 27 33 27 25 27 35 20 418 25 20 490 22
internal_value=0 25483.9 44501.3 -4044.72 3464.36 19188.4 22812.4 11631.9 16619 -4559.41 -1289.88 3454.52 10011.7 -4995.92 -9629.08 12764.7 -5205.25 -4912.46 -6269.53 -5456.13 -7067.8
internal_weight=0 193 48 1216 78 145 98 47 70 1138 151 76 49 987 56 45 960 443 75 517 42
internal_count=1409 193 48 1216 78 145 98 47 70 1138 151 76 49 987 56 45 960 443 75 517 42
cat_boundaries=0 1
cat_threshold=2304
is_linear=0
shrinkage=0.05


Tree=19
num_leaves=20
num_cat=4
split_feature=3 20 3 0 11 0 12 3 3 2 3 3 0 10 11 0 3 0 0
split_gain=3.2488e+13 9.31981e+12 7.23525e+12 2.54246e+12 2.15285e+12 1.63196e+12 1.42635e+12 1.35488e+12 1.46634e+12 1.30065e+12 2.81301e+12 7.81354e+11 6.19052e+11 1.04611e+11 6.95022e+11 6.34844e+11 8.84944e+10 1.89737e+10 1.43694e+10
threshold=0.74865892670504619 1.299253664050027 2.229516780070369 1.9392171792820927 0 -0.28980813160552993 1 0.9083321424956714 1.0367272694869685 2.1386694688914165 1.8930607675957749 0.48700704312840809 -0.29639313990948152 2 3 -0.29639313990948152 1.0000000180025095e-35 -0.29639313990948152 -0.29639313990948152
decision_type=2 2 2 2 9 2 9 2 2 2 2 2 2 1 9 2 2 2 2
left_child=4 2 3 7 5 6 12 -2 -9 -3 -11 13 -1 14 15 -6 17 -15 -16
right_child=1 9 -4 -5 11 -7 -8 8 -10 10 -12 -13 -14 16 18 -17 -18 -19 -20
leaf_value=-2217.0258560505322 12286.871523437501 -2700.388224712171 53179.719843750005 4428.6463281249999 3103.4368149909424 -6294.6161299542691 13101.164963942309 38567.616953125005 22966.724077868854 -1929.7590183423913 23709.804453125002 4262.083544695819 6976.2317057291675 -5143.8410476801055 -5934.5335294117649 -4813.5943310546882 -2181.3562846522177 -4628.3250382262995 -4913.7504175646554
leaf_weight=47 20 38 20 20 69 41 39 20 61 23 20 27 30 393 85 40 31 327 58
leaf_count=47 20 38 20 20 69 41 39 20 61 23 20 27 30 393 85 40 31 327 58
internal_value=0 17556 25320.8 20716 -3283.42 2143.43 5310.62 23941.2 26818.8 4039.47 9995.62 -4091.71 1364.76 -4357.38 -2930.69 181.457 -4734.05 -4909.71 -5159.69
internal_weight=0 222 141 121 1187 157 116 101 81 81 43 1030 77 1003 252 109 751 720 143
internal_count=1409 222 141 121 1187 157 116 101 81 81 43 1030 77 1003 252 109 751 720 143
cat_boundaries=0 1 2 3 4
cat_threshold=5120 2 66 2822
is_linear=0
shrinkage=0.05


Tree=20
num_leaves=20
num_cat=1
split_feature=15 3 1 3 0 4 3 2 11 1 3 3 4 1 1 1 1 3 6
split_gain=4.89361e+13 7.7105e+12 3.0918e+12 1.55923e+12 1.26334e+12 3.68294e+12 1.40033e+12 8.62459e+11 8.21591e+11 3.27699e+12 7.60775e+11 5.15057e+11 2.53399e+11 2.25674e+11 1.04303e+11 1.01627e+11 7.39385e+10 7.23505e+10 2.2259e+10
threshold=1.3935512687365159 1.7501832091039335 3.5433124974118151 2.2879614108958495 -0.28980813160552993 -0.3591446495861485 0.92701914984407829 -0.28827772238274207 0 1.0000000180025095e-35 1.1024161637808843 1.0174842576993963 -0.64046120812175333 -0.34971366795735598 0.34007009435320096 -0.028444518388055517 -0.19852818580709694 0.8875332030861407 -0.087949999762778744
decision_type=2 2 2 2 2 2 2 2 9 2 2 2 2 2 2 2 2 2 2
left_child=2 4 7 -3 5 10 -6 8 9 13 17 16 -10 -1 -14 -13 18 -2 -9
right_child=1 3 -4 -5 6 -7 -8 11 12 -11 -12 15 14 -15 -16 -17 -18 -19 -20
leaf_value=-4709.9790625000005 9064.2032304243603 33188.819812499998 15784.3563671875 51919.205390625 1926.7290482954545 36466.129631696429 19066.618857046276 -5433.0447591145839 15.585610219594594 19013.04263671875 21730.495601851853 -9755.6015830592114 -3996.5506673805503 908.51594034830725 -5591.9833934719281 -14158.93984375 -7245.972738155243 13074.918750000001 -3477.8916068412163
leaf_weight=70 22 25 20 20 22 28 26 24 37 20 27 38 777 24 118 20 31 23 37
leaf_count=70 22 25 20 20 22 28 26 24 37 20 27 38 777 24 118 20 31 23 37
internal_value=0 23389.3 -3712.28 41513.4 17878.6 21079.1 11210.8 -4038.31 -3529.86 583.602 15095.3 -7583.95 -3996.39 -3275.47 -4206.9 -11274 -5257.61 11114.1 -4247.13
internal_weight=0 193 1216 45 148 100 48 1196 1046 114 72 150 932 94 895 58 92 45 61
internal_count=1409 193 1216 45 148 100 48 1196 1046 114 72 150 932 94 895 58 92 45 61
cat_boundaries=0 1
cat_threshold=4104
is_linear=0
shrinkage=0.05


Tree=21
num_leaves=22
num_cat=3
split_feature=15 3 19 3 3 6 3 3 10 19 0 14 7 15 3 0 3 0 0 14 0
split_gain=4.41965e+13 7.22728e+12 2.00215e+12 1.53707e+12 1.37132e+12 9.06033e+12 1.36316e+12 6.77497e+11 4.05637e+11 5.95609e+11 1.01736e+12 2.89208e+11 7.39537e+10 7.04658e+10 3.80528e+10 2.65004e+10 1.974e+10 8.56387e+09 6.36265e+09 4.67857e+09 6.19727e+08
threshold=1.1822320308477057 1.6998214363070303 -0.28984855367959139 2.2879614108958495 0.9083321424956714 -0.089620928566063698 1.1927790548379706 0.74865892670504619 0 -0.29643363090871727 -0.29639313990948152 1 1.0091218550672647 -0.3254825144250561 0.33706487541241154 -0.29639313990948152 0.92701914984407829 -0.29639313990948152 -0.28322312330157834 2 -0.28980813160552993
decision_type=2 2 2 2 2 2 2 2 1 2 2 1 2 2 2 2 2 2 2 1 2
left_child=4 2 -2 -3 8 -6 7 -4 9 10 11 -1 -7 14 15 -10 -9 19 -19 -11 -12
right_child=1 3 6 -5 5 12 -8 16 13 17 20 -13 -14 -15 -16 -17 -18 18 -20 -21 -22
leaf_value=5984.1469296875002 26945.262332589286 31174.60926339286 2800.7116597493491 49323.244843749999 24931.285304418107 -12348.26934375 21897.200994318184 11698.08609375 -4957.9073900799422 -5293.6256359863291 -4712.8217968750005 106.70542534722222 -8419.6806555706535 -1814.266118512835 -6901.8051953125005 -4375.558057458974 13548.889246323532 -3792.7074041193187 -4818.9175271739132 -4528.8892675781253 -4417.3514051649308
leaf_weight=50 35 28 24 20 29 25 33 25 430 40 35 36 23 21 20 358 34 44 23 40 36
leaf_count=50 35 28 24 20 29 25 33 25 430 40 35 36 23 21 20 358 34 44 23 40 36
internal_value=0 21836.1 16463.7 38736.5 -3591.22 2865.56 13301.2 9883.51 -4030.03 -2202.36 -133.278 3523.82 -10465.8 -4617.98 -4748 -4693.34 12764.7 -4562.01 -4144.99 -4911.26 -4563.01
internal_weight=0 199 151 48 1210 77 116 83 1133 304 157 86 48 829 808 788 59 147 67 80 71
internal_count=1409 199 151 48 1210 77 116 83 1133 304 157 86 48 829 808 788 59 147 67 80 71
cat_boundaries=0 1 2 3
cat_threshold=80 1 1
is_linear=0
shrinkage=0.05


Tree=22
num_leaves=15
num_cat=2
split_feature=13 3 11 14 3 3 3 3 3 3 20 3 3 9
split_gain=4.14656e+13 5.07398e+12 2.73463e+12 3.49463e+12 1.58991e+12 2.03437e+12 7.51692e+11 2.25557e+11 1.9132e+11 1.38584e+11 2.69194e+11 6.8431e+10 2.11031e+10 1.61071e+10
threshold=-0.094340574603758234 2.229516780070369 0 1 1.3943352868676155 0.66530216981377344 2.229516780070369 1.0174842576993963 1.1024161637808843 1.0000000180025095e-35 1.0314683105701865 1.7993049907102379 0.92701914984407829 0.2593299956132355
decision_type=2 2 9 1 2 2 2 2 2 2 2 2 2 2
left_child=2 4 3 -1 5 -2 7 9 12 13 -11 -6 -7 -4
right_child=1 -3 6 -5 11 8 -8 -9 -10 10 -12 -13 -14 -15
leaf_value=9164.1075623244378 30737.482309570318 45697.417116477271 -4163.4808096182123 -10821.51889143319 25849.412975543481 10578.11181640625 5011.71144701087 -8551.5824637276801 16910.020099431818 3064.3102929687502 -4287.0604754823626 29749.977343750001 12476.182407407408 -2730.410888671875
leaf_weight=89 20 22 999 29 23 32 23 28 22 20 33 22 27 20
leaf_count=89 20 22 999 29 23 32 23 28 22 20 33 22 27 20
internal_value=0 23312.5 -3155.93 3920.17 19939.5 16456.7 -3899.64 -4121.42 12930.6 -4005.7 -1512.96 27756.4 11446.7 -4135.35
internal_weight=0 168 1241 118 146 101 1123 1100 81 1072 53 45 59 1019
internal_count=1409 168 1241 118 146 101 1123 1100 81 1072 53 45 59 1019
cat_boundaries=0 1 2
cat_threshold=4098 1
is_linear=0
shrinkage=0.05


Tree=23
num_leaves=23
num_cat=4
split_feature=13 13 10 13 6 4 4 6 4 19 14 13 4 11 4 20 14 4 4 8 4 4
split_gain=3.74227e+13 2.72187e+12 2.63948e+12 2.21466e+12 2.01686e+12 1.17213e+12 2.9446e+12 6.17471e+11 4.38297e+11 2.6376e+11 2.61872e+11 4.78338e+11 2.20617e+11 4.97955e+11 1.67156e+11 7.09132e+10 4.68977e+10 7.7649e+10 3.14537e+10 3.1177e+10 5.2404e+09 4.58073e+09
threshold=-0.094340574603758234 1.7520433182472586 0 1.043267112896769 -0.096272852103488529 -0.18544190970033839 -0.3591446495861485 -0.097714628991557653 -0.61656559311100689 -0.29643363090871727 1 2.6224950234456941 -0.13280471579554745 2 -0.72796225546588744 2.2257001631032156 3 -0.64046120812175333 2.4288720542376123 1.0000000180025095e-35 0.77957331188749568 -0.55490488025110907
decision_type=2 2 1 2 2 2 2 2 2 2 1 2 2 9 2 2 1 2 2 2 2 2
left_child=2 3 4 -2 5 6 21 8 16 15 11 -3 13 -10 -13 19 17 -4 -14 -9 -7 -1
right_child=1 10 7 -5 -6 20 -8 9 12 -11 -12 14 18 -15 -16 -17 -18 -19 -20 -21 -22 -23
leaf_value=-4706.90474609375 18413.229168146307 25695.656547851566 -605.8604817708333 38549.329427083336 17421.971582031252 -4955.3566460503471 11209.96784067623 -7041.7023088727692 109.02305039414415 -4000.9622228673989 13448.383364762931 19360.018749999999 -4985.7001635592414 -3952.470351892739 14124.558541666667 -11694.273300781249 -1608.5008398437501 3612.5006542968754 -3342.9804321289066 -9361.5609700520836 -5964.7958203125008 -3846.9066345214846
leaf_weight=30 22 20 24 36 20 36 61 28 101 37 29 31 326 404 30 20 20 20 32 30 20 32
leaf_count=30 22 20 24 36 20 36 61 28 101 37 29 31 326 404 30 20 20 20 32 30 20 32
internal_value=0 22146.9 -2998.13 30911.5 2250 680.509 3410.57 -3983.77 -3593.31 -7477.7 17525.6 18985.3 -3889.38 -3216.28 16785.2 -9126.92 399.052 1311.58 -4838.86 -8241.63 -5315.87 -4263.03
internal_weight=0 168 1241 58 199 179 123 1042 927 115 110 81 863 505 61 78 64 44 358 58 56 62
internal_count=1409 168 1241 58 199 179 123 1042 927 115 110 81 863 505 61 78 64 44 358 58 56 62
cat_boundaries=0 1 2 3 4
cat_threshold=16 1 518 1
is_linear=0
shrinkage=0.05


Tree=24
num_leaves=17
num_cat=1
split_feature=13 3 1 4 3 15 20 11 1 4 3 3 3 1 3 3
split_gain=3.37783e+13 4.41624e+12 2.61571e+12 2.56037e+12 2.23997e+12 2.00759e+12 7.5973e+11 8.04946e+11 1.6192e+12 4.7076e+11 4.31827e+11 2.76507e+11 1.69533e+11 9.12235e+10 6.99474e+10 6.22885e+10
threshold=-0.094340574603758234 2.229516780070369 3.5433124974118151 -0.69496994669871459 1.3503519912588644 1.1822320308477057 -0.038003568519385578 0 0.19833370483733309 -0.61656559311100689 1.0189513031999915 1.5762828619355782 0.80868348390958278 -0.19852818580709694 1.9917805825645714 1.0455207211951274
decision_type=2 2 2 2 2 2 2 9 2 2 2 2 2 2 2 2
left_child=2 3 5 4 12 6 7 8 -1 -9 13 -6 -2 -8 -12 -14
right_child=1 -3 -4 -5 11 -7 10 9 -10 -11 14 -13 15 -15 -16 -17
leaf_value=-2469.2152647148059 6024.0560312444513 41923.227698863637 15086.075000000001 34047.085877046127 18822.375117187501 8325.4018053209456 -3510.2265904017859 577.61280071924602 10114.89811006434 -3903.4999333475776 -8638.8711476293101 26412.207916666666 9910.9273319128788 -6890.9385600428432 -12175.33353587963 13447.152031250002
leaf_weight=103 22 22 20 21 20 37 56 63 34 841 29 30 33 31 27 20
leaf_count=103 22 22 20 21 20 37 56 63 34 841 29 30 33 31 27 20
internal_value=0 21039.6 -2849.77 17892.7 15178.8 -3143.56 -3501.97 -3032.54 609.37 -3551.92 -6919.25 23376.3 9713.77 -4714.85 -10344 11245.4
internal_weight=0 168 1241 146 125 1221 1184 1041 137 904 143 50 75 87 56 53
internal_count=1409 168 1241 146 125 1221 1184 1041 137 904 143 50 75 87 56 53
cat_boundaries=0 1
cat_threshold=4608
is_linear=0
shrinkage=0.05


Tree=25
num_leaves=21
num_cat=3
split_feature=13 13 1 10 1 4 12 11 1 1 0 1 7 4 0 13 19 13 19 1
split_gain=3.06323e+13 3.53011e+12 2.79101e+12 2.35866e+12 7.85743e+12 6.20757e+11 4.64858e+11 4.48115e+11 3.56638e+11 3.29919e+11 2.9649e+11 2.60941e+11 2.25262e+11 2.03881e+11 1.57222e+11 1.19936e+11 9.50007e+10 9.48281e+10 2.37501e+10 1.35079e+10
threshold=0.58756985625088831 1.7520433182472586 -0.27412092688222645 0 0.19833370483733309 -0.61656559311100689 1 2 -0.15128272263514098 0.22195643642331106 -0.29639313990948152 -0.42530640903248546 0.017680998872572705 -0.13280471579554745 -0.28980813160552993 3.6403668524162227 -0.29643363090871727 3.0917863419156268 -0.29643363090871727 -0.33081548268857358
decision_type=2 2 2 1 2 2 9 9 2 2 2 2 2 2 2 2 2 2 2 2
left_child=3 2 -2 4 8 10 17 9 11 14 -5 -1 13 -9 -7 -8 -14 -3 -13 -12
right_child=1 6 -4 5 -6 7 15 12 -10 -11 19 18 16 -15 -16 -17 -18 -19 -20 -21
leaf_value=450.40256835937498 46322.895078125002 14698.527331542969 21867.355332728795 5034.0341869212971 25131.380993652347 -7112.9280672315144 21537.597572544644 -2453.1245619481238 2973.1222782258064 -11461.137551700369 -2368.3431953125 -5149.3972656250007 -7342.1439046223959 -4109.408077256945 -2936.000651041667 16604.276207386367 -3433.9324282438861 10714.151974051339 -3598.5472834660454 -624.98933593750007
leaf_weight=40 20 32 28 27 32 71 28 453 31 34 25 47 48 315 33 22 23 28 52 20
leaf_count=40 20 32 28 27 32 71 28 453 31 34 25 47 48 315 33 22 23 28 52 20
internal_value=0 20743.3 32057.2 -2621.32 2288.87 -3554.77 15806.3 -3918.85 -1876.25 -6699.9 891.813 -2957.77 -3341.73 -3132.46 -5787.56 19366.9 -6076.1 12839.2 -4334.81 -1593.52
internal_weight=0 158 48 1251 202 1049 110 977 170 138 72 139 839 768 104 50 71 60 99 45
internal_count=1409 158 48 1251 202 1049 110 977 170 138 72 139 839 768 104 50 71 60 99 45
cat_boundaries=0 1 2 3
cat_threshold=16 2 5120
is_linear=0
shrinkage=0.05


Tree=26
num_leaves=16
num_cat=0
split_feature=15 15 1 19 19 15 1 1 19 2 2 7 0 0 1
split_gain=2.75601e+13 2.71883e+12 2.35451e+12 1.19043e+12 1.23735e+12 8.24642e+11 7.14359e+11 5.43617e+12 4.3758e+11 3.59672e+11 2.73191e+11 2.30488e+11 1.31084e+11 2.4522e+10 1.69493e+10
threshold=1.1822320308477057 1.6488910674757304 3.5433124974118151 -0.29643363090871727 0.10525608006796229 2.2419217723875717 0.20778279747172429 0.15108824166537713 -0.28984855367959139 -0.28827772238274207 -0.28163764798801111 -0.051076336927347692 -0.27663811499762669 -0.28980813160552993 1.9558649348340948
decision_type=2 2 2 2 2 2 2 2 2 2 2 2 2 2 2
left_child=2 -2 6 -3 -5 -6 7 8 10 13 -1 -7 -10 14 -8
right_child=1 3 -4 4 5 11 9 -9 12 -11 -12 -13 -14 -15 -16
leaf_value=-3362.6860636803062 33023.561018880209 24526.705559430804 14176.089609375 2893.0272867838544 23211.984750600965 11942.555046418427 -5263.3508524386689 21976.433806818182 -1592.9486205372732 -12174.942792038692 -6334.7242479346269 17967.034461975098 2144.4602141203704 -3950.9141255040327 -6816.9863095238097
leaf_weight=695 24 28 20 24 26 77 107 22 179 21 87 20 27 31 21
leaf_count=695 24 28 20 24 26 77 107 22 179 21 87 20 27 31 21
internal_value=0 17242.1 -2837.12 15077.8 13278 15304.3 -3123.05 -2605.88 -3153.26 -6024.93 -3693.33 13184.7 -1103.09 -5212.66 -5518.24
internal_weight=0 199 1210 175 147 123 1190 1010 988 180 782 97 206 159 128
internal_count=1409 199 1210 175 147 123 1190 1010 988 180 782 97 206 159 128
is_linear=0
shrinkage=0.05


Tree=27
num_leaves=20
num_cat=1
split_feature=13 3 19 18 1 3 19 1 1 15 0 2 3 3 1 1 13 3 1
split_gain=2.5447e+13 3.37765e+12 3.0432e+12 2.61702e+12 6.12597e+12 1.68169e+12 7.65023e+11 1.63544e+12 4.70557e+11 2.87087e+11 6.32714e+11 2.71461e+11 2.07326e+11 1.85971e+11 1.407e+11 1.39445e+11 1.10488e+11 6.35567e+10 2.06318e+10
threshold=0.58756985625088831 2.2879614108958495 0.10525608006796229 0 0.19833370483733309 1.3503519912588644 -0.29643363090871727 -0.39695913112931192 2.1826431580594838 -0.10222086499318032 -0.29639313990948152 -0.28827772238274207 1.6681315732075626 0.79089613727367858 -0.34026457532296478 -0.42530640903248546 2.4920109581427581 0.9904761717567917 -0.42530640903248546
decision_type=2 2 2 1 2 2 2 2 2 2 2 2 2 2 2 2 2 2 2
left_child=3 2 -2 4 6 16 14 -8 9 11 -11 15 -7 -13 18 -5 -4 -18 -1
right_child=1 -3 5 8 -6 12 7 -9 -10 10 -12 13 -14 -15 -16 -17 17 -19 -20
leaf_value=-1646.7885475852272 33649.069800967263 38109.483984375001 4846.0695361328126 -1692.2738576489826 23661.210055443549 16438.603013392858 -3820.0298289331899 14765.349179687501 -8978.2190122767861 6218.7865312499998 -5146.9135070800785 -3674.1998078377019 23062.684490740743 -7687.7557942708336 -7489.9760869565216 -3276.6770536256067 7341.4920346467397 10949.755303485577 -3623.536014441288
leaf_weight=22 21 20 20 172 31 21 29 20 35 25 24 62 27 54 23 721 23 26 33
leaf_count=22 21 20 20 172 31 21 29 20 35 25 24 62 27 54 23 721 23 26 33
internal_value=0 18906.3 16123.2 -2389.16 3511.6 12977.5 -1130.31 3765.84 -3244.6 -3085.59 651.913 -3267.09 20164.6 -5542.58 -4206.1 -2971.51 7977.82 9256.08 -2832.84
internal_weight=0 158 138 1251 158 117 127 49 1093 1058 49 1009 48 116 78 893 69 49 55
internal_count=1409 158 138 1251 158 117 127 49 1093 1058 49 1009 48 116 78 893 69 49 55
cat_boundaries=0 1
cat_threshold=2052
is_linear=0
shrinkage=0.05


Tree=28
num_leaves=20
num_cat=4
split_feature=13 13 1 18 1 1 1 1 12 1 18 15 12 15 16 1 1 5 1
split_gain=2.29659e+13 2.84484e+12 2.47561e+12 2.36186e+12 5.52868e+12 5.42036e+11 4.27129e+11 5.27043e+11 3.97386e+11 2.00024e+11 5.25271e+11 4.92197e+11 1.92351e+11 1.19182e+11 1.13194e+11 4.07227e+10 2.26625e+10 2.04137e+10 9.44091e+09
threshold=0.58756985625088831 1.7520433182472586 -0.27412092688222645 0 0.19833370483733309 -0.34971366795735598 0.46290829860028648 0.34007009435320096 1 -0.42530640903248546 2 0.78842648344703792 3 2.7374307911357589 -0.13138222957375542 -0.42530640903248546 2.1401222412047232 -0.29639313990948152 1.3133266356954938
decision_type=2 2 2 1 2 2 2 2 9 2 1 2 9 2 2 2 2 2 2
left_child=3 2 -2 4 5 15 7 9 13 10 -5 -11 16 -3 -10 -1 18 -17 -8
right_child=1 8 -4 6 -6 -7 12 -9 14 11 -12 -13 -14 -15 -16 17 -18 -19 -20
leaf_value=-1847.9081341911767 41553.026630859378 8966.1093404134117 18520.725906808038 -3857.4053239493537 22478.148515467492 3925.2309878700662 -4495.4198797487752 4904.1162819602278 18763.554557291667 -3094.3940908990453 982.11207570043098 -10861.976534598216 -8731.7476762820515 13514.880631510416 13907.422109375002 -5323.4143359375003 -6030.5772851562506 -3320.9580747767855 -3235.774125744048
leaf_weight=34 20 36 28 106 31 38 51 22 30 707 106 21 39 24 20 20 20 35 21
leaf_count=34 20 36 28 106 31 38 51 22 30 707 106 21 39 24 20 20 20 35 21
internal_value=0 17961 28117.5 -2269.7 3336.02 -1073.79 -3082.37 -2745.82 13529 -2924.86 -1573.27 -3318.46 -5789.06 10785.6 16821.1 -3208.21 -4541.62 -4049.12 -4128.02
internal_weight=0 158 48 1251 158 127 1093 962 110 940 212 728 131 60 50 89 92 55 72
internal_count=1409 158 48 1251 158 127 1093 962 110 940 212 728 131 60 50 89 92 55 72
cat_boundaries=0 1 2 3 4
cat_threshold=2052 2 58 2
is_linear=0
shrinkage=0.05


Tree=29
num_leaves=24
num_cat=3
split_feature=13 3 4 18 3 3 4 4 4 3 0 18 4 3 3 3 3 4 4 12 0 13 4
split_gain=2.07792e+13 3.07192e+12 2.46287e+12 2.25695e+12 4.05649e+12 1.6984e+12 1.59123e+12 3.05642e+12 3.80399e+11 3.0107e+11 1.71781e+11 4.4142e+11 5.83781e+11 2.1172e+11 1.6747e+11 1.67067e+11 1.09242e+11 7.94746e+10 5.64415e+10 2.54372e+10 2.89662e+10 2.06245e+10 1.26807e+10
threshold=-0.094340574603758234 2.229516780070369 -0.69496994669871459 0 0.9083321424956714 1.2434226127851229 -0.18544190970033839 -0.3591446495861485 -0.09332682036695425 1.5676941211819269 -0.29639313990948152 1 -0.3591446495861485 0.66530216981377344 0.9083321424956714 1.0000000180025095e-35 0.80868348390958278 -0.55490488025110907 0.94625775925266697 2 -0.28980813160552993 3.1298263625977758 0.11722195525220953
decision_type=2 2 2 1 2 2 2 2 2 2 2 1 2 2 2 2 2 2 2 9 2 2 2
left_child=3 2 5 4 6 16 7 -1 10 -7 11 12 -5 15 19 -12 -2 -13 -8 20 -10 -18 -21
right_child=1 -3 -4 8 -6 9 18 -9 14 -11 13 17 -14 -15 -16 -17 21 -19 -20 22 -22 -23 -24
leaf_value=-7775.1572916666673 3056.0837604869498 33918.32567471591 29720.102018229169 -3086.1759707322763 23399.344087357957 13292.548947010871 -4408.5927270507809 13688.785792151164 -4118.9102762858074 20744.613423295457 -3060.2993913810487 -1049.8606297348485 3063.6887341174452 -6897.3671875 -8588.9386008522724 1356.3438179347827 6159.6764351981037 -3747.6947636471518 -7517.0560461956529 -3874.2260602678575 -2843.8771029768322 8266.4309645432695 -5133.2267633928568
leaf_weight=27 22 22 21 67 22 23 40 43 192 33 310 33 91 34 22 23 21 158 23 28 58 26 70
leaf_count=27 22 22 21 67 22 23 40 43 192 33 310 33 91 34 22 23 21 158 23 28 58 26 70
internal_value=0 16500.8 13876.3 -2236.15 3298.41 11214.5 221.448 5409.84 -3028.56 17683.9 -2383.75 -1589.57 428.702 -3138.98 -4358.21 -2755.25 5963.97 -3118.31 -5543.43 -4090.75 -3823.1 7325.12 -4773.51
internal_weight=0 168 146 1241 155 125 133 70 1086 56 716 349 158 367 370 333 69 191 63 348 250 47 98
internal_count=1409 168 146 1241 155 125 133 70 1086 56 716 349 158 367 370 333 69 191 63 348 250 47 98
cat_boundaries=0 1 2 3
cat_threshold=2052 897 2
is_linear=0
shrinkage=0.05


Tree=30
num_leaves=20
num_cat=3
split_feature=15 15 13 19 3 3 20 18 3 11 19 8 3 14 19 19 20 19 19
split_gain=1.90809e+13 3.36288e+12 2.24015e+12 2.85558e+12 1.81222e+12 1.57076e+12 1.1008e+13 3.63265e+11 2.89538e+11 2.78894e+11 1.39114e+12 2.08683e+11 1.65129e+11 8.76486e+10 3.30338e+10 2.3227e+10 9.19525e+09 5.31614e+09 9.38649e+08
threshold=1.5319788666261231 1.6913733428289759 0.58756985625088831 0.28634570386892444 1.5676941211819269 0.9083321424956714 1.299253664050027 0 1.1024161637808843 1 -0.29643363090871727 1.1440693256044074 1.0000000180025095e-35 2 -0.28326347645046551 -0.28326347645046551 1.0000000180025095e-35 -0.29643363090871727 -0.28984855367959139
decision_type=2 2 2 2 2 2 2 1 2 9 2 2 2 1 2 2 2 2 2
left_child=5 -2 -3 -4 8 7 -7 15 -5 10 13 -8 14 -9 -11 16 17 -1 -12
right_child=1 2 3 4 -6 6 11 9 -10 12 18 -13 -14 -15 -16 -17 -18 -19 -20
leaf_value=-4491.216673060826 31080.151248734084 394.7427320075758 31864.984729003907 5700.7114928047613 22437.312809806037 32804.57268880208 -5304.5009933035717 6281.1486306423612 12062.040190972222 -2652.1055393265274 -5199.7488991477276 -11609.193154761906 708.48188883463547 2588.69308203125 -3849.3988922119142 -5771.1452510127319 -3230.6559128534227 -4039.0112424454601 -4832.9629539695952
leaf_weight=168 27 33 21 53 29 24 35 45 27 577 33 21 36 25 64 27 21 106 37
leaf_count=168 27 33 21 53 29 24 35 45 27 577 33 21 36 25 64 27 21 106 37
internal_value=0 14736.1 12028.7 14982 11729.3 -2299.12 4473.24 -2774.79 7847.66 -2121.12 -20.2822 -7668.76 -2548.94 4962.41 -2771.65 -4235.92 -4238.99 -4316.28 -5005.88
internal_weight=0 190 163 130 109 1219 80 1139 80 817 140 56 677 70 641 322 295 274 70
internal_count=1409 190 163 130 109 1219 80 1139 80 817 140 56 677 70 641 322 295 274 70
cat_boundaries=0 1 2 3
cat_threshold=1541 4608 1
is_linear=0
shrinkage=0.05


Tree=31
num_leaves=17
num_cat=2
split_feature=15 15 1 13 13 3 2 3 11 1 1 15 3 11 6 0
split_gain=1.72205e+13 3.035e+12 2.09242e+12 2.02173e+12 2.09336e+12 1.72972e+12 7.73077e+11 8.30468e+12 4.90366e+11 1.50315e+12 4.60878e+11 3.29185e+11 2.53792e+11 8.69764e+10 5.96212e+10 2.02427e+10
threshold=1.5319788666261231 1.6913733428289759 3.5433124974118151 0.58756985625088831 1.7520433182472586 1.5017065178877722 -0.28827772238274207 -0.28451356530117444 0 0.19833370483733309 0.19833370483733309 2.5293186290603811 0.54022226546623753 1 -0.090296879297343938 2.3738277273428996
decision_type=2 2 2 2 2 2 2 2 9 2 2 2 2 9 2 2
left_child=2 -2 6 -3 -5 11 7 8 9 -1 12 -6 15 -10 -14 -8
right_child=1 3 -4 4 5 -7 10 -9 13 -11 -12 -13 14 -15 -16 -17
leaf_value=-2772.1019416360296 29526.143704562717 375.00529119318185 13855.188671875001 27567.1012898763 2684.4502112347145 23019.932812500003 -3125.6822034333882 29939.092514648441 -3921.3755730706289 9236.6195256696428 -12494.338778409092 9736.3626241393013 -8648.5535445601854 -2511.044969236696 -5575.6176834909538 -1293.7341601562503
leaf_weight=102 27 33 20 24 23 24 38 20 286 35 22 59 27 606 38 25
leaf_count=102 27 33 20 24 23 24 38 20 286 35 22 59 27 606 38 25
internal_value=0 13999.3 -2184.16 11427.3 14232.9 11213.8 -2451.71 -1971.61 -2591.84 275.696 -5809.19 7758.39 -4660.19 -3001.7 -6852.07 -2398.72
internal_weight=0 190 1219 163 130 106 1199 1049 1029 137 150 82 128 892 65 63
internal_count=1409 190 1219 163 130 106 1199 1049 1029 137 150 82 128 892 65 63
cat_boundaries=0 1 2
cat_threshold=4608 3082
is_linear=0
shrinkage=0.05


Tree=32
num_leaves=20
num_cat=3
split_feature=3 19 3 3 18 4 1 1 1 3 3 1 1 17 18 0 1 19 0
split_gain=9.78338e+12 5.61146e+12 6.92012e+12 3.55258e+12 1.60223e+12 1.99031e+12 2.62366e+12 5.67616e+12 2.1551e+12 1.30402e+12 4.06685e+11 3.28444e+11 2.47483e+11 1.51123e+11 5.08469e+11 1.03225e+11 6.55842e+10 5.41896e+10 2.48225e+10
threshold=0.80868348390958278 -0.28984855367959139 2.4378868770410729 1.4393722347571578 0 -0.3591446495861485 0.20778279747172429 -0.21742637107587931 -0.40640822376370311 1.3503519912588644 0.48700704312840809 2.3054813623065691 -0.27412092688222645 1 2 2.4627253394462465 0.35896827962198335 2.2124807933882491 -0.29639313990948152
decision_type=2 2 2 2 1 2 2 2 2 2 2 2 2 1 1 2 2 2 2
left_child=4 3 9 -2 5 18 7 8 -7 17 11 13 -11 14 -6 -5 -15 -3 -1
right_child=1 2 -4 15 10 6 -8 -9 -10 12 -12 -13 -14 16 -16 -17 -18 -19 -20
leaf_value=-6195.7734108664772 15059.725237771738 3971.804927368164 43144.313164062507 -10539.249407552084 1273.9988711599578 13689.87603044181 -6358.2622349330359 34512.109946289063 -5129.061090087891 20164.861899594907 2596.9555837530843 -8011.9455854143416 13566.47443359375 -2790.1436282387263 -3061.9769120978181 -5901.8734033203127 -4382.8331183539503 7172.960601963141 -4014.0300415039064
leaf_weight=22 23 20 20 30 108 29 28 20 32 27 38 28 30 632 159 20 72 39 32
leaf_count=22 23 20 20 30 108 29 28 20 32 27 38 28 30 632 159 20 72 39 32
internal_value=0 9979.29 15981.7 -1203.31 -1742.83 2776.48 6835.66 11396.5 3817.65 11298.5 -2456.28 -2673.08 16692 -2519.13 -1325.42 -8684.3 -2911.67 6087.82 -4902.89
internal_weight=0 209 136 73 1200 163 109 81 61 116 1037 999 57 971 267 50 704 59 54
internal_count=1409 209 136 73 1200 163 109 81 61 116 1037 999 57 971 267 50 704 59 54
cat_boundaries=0 1 2 3
cat_threshold=2560 5 387
is_linear=0
shrinkage=0.05


Tree=33
num_leaves=18
num_cat=2
split_feature=15 15 1 19 3 3 20 3 18 1 1 3 3 18 20 20 15
split_gain=1.43559e+13 2.50481e+12 1.95018e+12 1.87462e+12 2.6026e+12 9.00166e+11 7.20747e+11 7.25903e+12 3.92013e+11 1.48742e+12 3.68875e+11 3.46803e+11 2.46124e+11 9.59462e+10 8.34291e+10 3.4017e+10 3.2235e+10
threshold=1.5319788666261231 1.675200266679215 3.5433124974118151 -0.29643363090871727 1.2884442864320091 0.73148216537788957 -0.038003568519385578 -0.22635417903557578 0 0.19833370483733309 0.19833370483733309 1.7993049907102379 0.54022226546623753 1 1.2142053046019103 1.171754838066333 2.5293186290603811
decision_type=2 2 2 2 2 2 2 2 1 2 2 2 2 1 2 2 2
left_child=2 -2 6 -3 5 -5 7 8 9 -1 12 -6 15 -10 -14 -8 -7
right_child=1 3 -4 4 11 16 10 -9 13 -11 -12 -13 14 -15 -16 -17 -18
leaf_value=-2699.5843952682785 29065.141507393972 22572.619782366073 13487.571328125001 -6216.8067336309532 12668.692497306036 4108.5134446716311 -3105.2585592830883 28033.429677734373 -4084.4227297794118 9456.2534120501896 -11532.794549005683 20401.328811961208 -9194.799404761905 -2404.5042193619879 -5364.3517467151987 -615.52925866168482 6547.392001488096
leaf_weight=106 21 28 20 21 29 20 34 20 160 33 22 29 21 736 44 23 42
leaf_count=106 21 28 20 21 29 20 34 20 160 33 22 29 21 736 44 23 42
internal_value=0 12779.2 -1997.02 10755.5 8408.78 2730.21 -2255.32 -1802.41 -2378.95 173.828 -5573.47 16535 -4498.84 -2746.26 -6601.88 -2100.63 5760.66
internal_weight=0 190 1219 169 141 83 1199 1055 1035 139 144 58 122 896 65 57 62
internal_count=1409 190 1219 169 141 83 1199 1055 1035 139 144 58 122 896 65 57 62
cat_boundaries=0 1 2
cat_threshold=2304 513
is_linear=0
shrinkage=0.05


Tree=34
num_leaves=22
num_cat=3
split_feature=13 11 1 4 4 20 4 7 4 0 1 1 0 12 1 1 12 1 13 1 1
split_gain=1.26114e+13 2.01022e+12 3.70402e+12 2.25894e+12 1.70469e+12 1.07476e+12 3.75326e+11 2.22889e+11 2.13975e+11 2.07297e+11 1.72352e+11 1.64417e+11 9.85075e+10 9.32832e+10 8.711e+10 7.47559e+10 6.51113e+10 3.81659e+10 2.52678e+10 2.02295e+10 1.13045e+10
threshold=0.58756985625088831 0 0.19833370483733309 0.35847576064916808 -0.71341802989582237 1.4599589127304571 -0.61656559311100689 -0.036877406569358347 -0.13280471579554745 -0.29639313990948152 0.075495500590247594 -0.16073181526953215 -0.28980813160552993 1 0.50070466913785128 -0.42530640903248546 2 -0.37806094586052952 2.6568671071273773 -0.41585731639809431 -0.38751003849492072
decision_type=2 9 2 2 2 2 2 2 2 2 2 2 2 9 2 2 9 2 2 2 2
left_child=1 2 8 -4 5 11 9 10 -1 -3 15 13 -12 18 -13 -8 19 -11 -2 -9 -10
right_child=4 6 3 -5 -6 -7 7 16 20 17 12 14 -14 -15 -16 -17 -18 -19 -20 -21 -22
leaf_value=668.52618303571433 5806.8489370492789 4144.6204826108869 28483.426679687502 5938.7547812500006 26946.341562500005 22044.789140625002 -1242.2162800114329 -5427.7976318359379 -3844.1724365234377 -2760.0609082031251 -4380.7552758615921 13855.025322265627 -1382.4584367639879 10857.434737723215 9427.8657421875014 -2353.7719732486189 -7004.2587094907403 79.110129310344831 8011.207406850961 -3529.1851879363367 -5525.2823242187505
leaf_weight=35 26 31 20 25 20 20 205 20 20 20 141 25 34 21 20 577 27 29 26 47 20
leaf_count=35 26 31 20 25 20 20 205 20 20 20 141 25 34 21 20 577 27 29 26 47 20
internal_value=0 -1687.68 4262.67 15958.6 13304 11326.8 -2336.05 -2608.01 -2186.54 944.703 -2379.8 9510.24 -3798.23 8044.87 11887.4 -2062.38 -4931.3 -1079.74 6909.03 -4095.94 -4684.73
internal_weight=0 1251 120 45 158 138 1131 1051 75 80 957 118 175 73 45 782 94 49 52 67 40
internal_count=1409 1251 120 45 158 138 1131 1051 75 80 957 118 175 73 45 782 94 49 52 67 40
cat_boundaries=0 1 2 3
cat_threshold=4098 2 2
is_linear=0
shrinkage=0.05


Tree=35
num_leaves=16
num_cat=1
split_feature=15 15 19 1 4 1 1 2 19 15 11 7 0 1 4
split_gain=1.18479e+13 2.22018e+12 1.80457e+12 1.74791e+12 1.27305e+12 7.37973e+11 4.7774e+12 3.78438e+11 3.52054e+11 3.00045e+11 2.76457e+11 1.63787e+11 9.22506e+10 4.04921e+10 2.59891e+10
threshold=1.5319788666261231 1.675200266679215 -0.29643363090871727 3.5433124974118151 -0.71341802989582237 0.20778279747172429 0.15108824166537713 -0.28827772238274207 -0.28984855367959139 2.2069791943202364 0 -0.051076336927347692 -0.27663811499762669 0.30227372381563622 0.77957331188749568
decision_type=2 2 2 2 2 2 2 2 2 2 9 2 2 2 2
left_child=3 -2 -3 5 9 6 8 13 10 -4 -1 -11 -10 -7 -15
right_child=1 2 4 -5 -6 7 -8 -9 12 11 -12 -13 -14 14 -16
leaf_value=-4598.5444714604591 26939.970819091799 21296.223744419643 14915.79740513393 12843.207148437501 -3361.6407969599186 -6271.4179986572271 21511.832981178977 -11298.96687593006 -628.91572212260928 7211.1596601562505 -1991.9953942425175 12117.455051491479 2501.8955620659726 -3415.1724381271679 -4877.9221862792974
leaf_weight=137 21 28 21 20 23 20 22 21 183 75 647 22 27 98 44
leaf_count=137 21 28 21 20 23 20 22 21 183 75 647 22 27 98 44
internal_value=0 11607.2 9701.95 -1816.38 7399.54 -2060.91 -1534.46 -4983.73 -2044.53 9497.06 -2531.54 8323.93 -226.383 -4165.09 -3868.42
internal_weight=0 190 169 1219 141 1199 1016 183 994 118 784 97 210 162 142
internal_count=1409 190 169 1219 141 1199 1016 183 994 118 784 97 210 162 142
cat_boundaries=0 1
cat_threshold=5122
is_linear=0
shrinkage=0.05


Tree=36
num_leaves=16
num_cat=1
split_feature=15 15 19 1 4 1 1 9 19 15 11 9 16 1 4
split_gain=1.06973e+13 2.00371e+12 1.62862e+12 1.5781e+12 1.14893e+12 6.64703e+11 4.31288e+12 3.4154e+11 3.1895e+11 2.70791e+11 2.52716e+11 1.24594e+11 1.13217e+11 3.65441e+10 2.34551e+10
threshold=1.5319788666261231 1.675200266679215 -0.29643363090871727 3.5433124974118151 -0.71341802989582237 0.20778279747172429 0.15108824166537713 -0.19551742625489102 -0.28984855367959139 2.2069791943202364 0 0.54948384861536759 0.39841607530791695 0.30227372381563622 0.77957331188749568
decision_type=2 2 2 2 2 2 2 2 2 2 9 2 2 2 2
left_child=3 -2 -3 5 9 6 8 13 10 -4 -1 -11 -10 -7 -15
right_child=1 2 4 -5 -6 7 -8 -9 12 11 -12 -13 -14 14 -16
leaf_value=-4384.2585509008295 25592.972154017858 20231.412290736611 14170.007338169642 12201.047421875001 -3193.5586973770805 -5957.8471319580085 20436.240962357959 -10734.018461681548 -651.47328252377724 6965.7656214663866 -1893.9115998069265 11316.75 2873.373490084135 -3244.4138253348215 -4634.0260823336521
leaf_weight=137 21 28 21 20 23 20 22 21 184 76 647 21 26 98 44
leaf_count=137 21 28 21 20 23 20 22 21 184 76 647 21 26 98 44
internal_value=0 11026.8 9216.85 -1728.26 7029.56 -1960.61 -1460.98 -4734.54 -1945.62 9022.2 -2409.17 7907.73 -215.064 -3956.83 -3675
internal_weight=0 190 169 1219 141 1199 1016 183 994 118 784 97 210 162 142
internal_count=1409 190 169 1219 141 1199 1016 183 994 118 784 97 210 162 142
cat_boundaries=0 1
cat_threshold=5122
is_linear=0
shrinkage=0.05


Tree=37
num_leaves=24
num_cat=3
split_feature=15 15 13 4 3 20 3 18 10 0 4 18 3 3 20 0 4 4 4 4 4 4 4
split_gain=9.65842e+12 1.81174e+12 1.74206e+12 2.91359e+12 1.40294e+12 8.96515e+12 1.07621e+12 3.19705e+11 3.75311e+11 9.62728e+11 1.17477e+12 3.55232e+11 1.80615e+11 1.57322e+11 1.3613e+11 3.36957e+10 3.09356e+10 1.82724e+10 1.82019e+10 1.19269e+10 1.5937e+10 9.02622e+09 8.02979e+08
threshold=1.5319788666261231 1.6913733428289759 1.043267112896769 -0.71739199189501501 0.9083321424956714 1.299253664050027 1.5676941211819269 0 1 -0.29639313990948152 -0.18544190970033839 2 1.1024161637808843 1.0000000180025095e-35 1.9545047967773939 -0.29639313990948152 0.35847576064916808 1.0000000180025095e-35 -0.30387559598611796 -0.30387559598611796 0.94625775925266697 -0.3591446495861485 -0.50377160617216921
decision_type=2 2 2 2 2 2 2 1 1 2 2 1 2 2 2 2 2 2 2 2 2 2 2
left_child=4 -2 -3 6 7 -6 12 15 9 10 -9 17 -4 -13 -7 19 18 -10 -17 22 -21 -11 -1
right_child=1 2 3 -5 5 14 -8 8 11 21 -12 13 -14 -15 -16 16 -18 -19 -20 20 -22 -23 -24
leaf_value=-4216.3800842285154 22471.955497685187 -886.63272769325658 3225.243289005055 28829.112473754882 30323.673990885422 -3019.0891185942151 16401.176912144252 10121.194765170785 -4282.6663281250003 -2246.0199254918984 -4546.6819726562499 -1629.8593160522914 8345.8389347956745 2150.7848801185346 -8111.1848507254463 -2903.7358602834302 -4202.9060678335336 -5550.4564412434902 -1346.4449625651041 -3065.1915656323704 -4507.3527262369789 -3397.6783096976906 -4528.3799164870688
leaf_weight=32 27 38 51 20 24 21 28 43 60 27 20 538 26 29 35 86 39 54 24 53 30 46 58
leaf_count=32 27 38 51 20 24 21 28 43 60 27 20 538 26 29 35 86 39 54 24 53 30 46 58
internal_value=0 10475.5 8488.36 11338.4 -1644.42 4755.95 8006.78 -2093.97 -1504.03 872.205 5464.73 -1984.34 4954.28 -1411.6 -6201.65 -3437.34 -2992.95 -4489.39 -2563.96 -4018.76 -3586.45 -2971.72 -4417.45
internal_weight=0 190 163 125 1219 80 105 1139 817 136 63 681 77 567 56 322 149 114 110 173 83 73 90
internal_count=1409 190 163 125 1219 80 105 1139 817 136 63 681 77 567 56 322 149 114 110 173 83 73 90
cat_boundaries=0 1 2 3
cat_threshold=1541 16 2064
is_linear=0
shrinkage=0.05


Tree=38
num_leaves=24
num_cat=6
split_feature=3 6 0 3 11 3 0 3 3 0 3 0 14 17 11 0 3 0 11 0 14 0 0
split_gain=5.75676e+12 2.64856e+12 2.60822e+12 1.54893e+12 1.53845e+12 1.45712e+12 1.30811e+12 5.64578e+11 2.67169e+11 2.5262e+11 2.0039e+11 1.46956e+11 2.71711e+12 1.41719e+11 4.14791e+11 6.00875e+11 1.19389e+11 5.12405e+10 3.91666e+10 2.92152e+10 2.17543e+10 3.7605e+09 2.08947e+09
threshold=0.85606703363019243 -0.071552703409630367 2.018237278929512 2.2084507034119585 0 1.0110949124335089 -0.28980813160552993 1.7993049907102379 0.48700704312840809 -0.11530541155081211 1.2884442864320091 -0.29639313990948152 1 2 3 -0.29639313990948152 1.6681315732075626 -0.27663811499762669 4 -0.29639313990948152 5 -0.28322312330157834 -0.29639313990948152
decision_type=2 2 2 2 9 2 2 2 2 2 2 2 1 1 9 2 2 2 9 2 1 2 2
left_child=4 2 3 5 6 -2 11 -4 13 -3 -7 12 -1 14 15 -6 -11 -10 22 -20 -16 -8 -15
right_child=1 9 7 -5 8 10 21 -9 17 16 -12 -13 -14 18 20 -17 -18 -19 19 -21 -22 -23 -24
leaf_value=13622.231410303657 23984.543866257442 -5624.9095898437508 -4415.524945623225 27977.242982700893 4153.9564732142853 4562.257568359375 -3744.0023662220347 7046.0769531250007 3250.7371152343749 -1474.2355792236331 10745.489226973685 3650.1444848632814 -6956.9683699898105 -4281.6108598188921 -2304.2083117254851 -3355.6641488008718 3989.0318078613282 -144.71668640136718 -2623.6548608650501 -1928.6797649788768 -3479.1468967013893 -4691.3096740722658 -3861.3780433654788
leaf_weight=53 21 20 22 21 70 20 22 21 25 20 38 40 23 55 87 43 20 20 339 273 72 20 64
leaf_count=53 21 20 22 21 70 20 22 21 25 20 38 40 23 55 87 43 20 20 339 273 72 20 64
internal_value=0 7780.27 11479.7 15907.7 -1320.81 12699.4 3165.35 1182 -2008.2 -1036.7 8613.34 6103.22 7394.32 -2196.46 -1079.72 1190.92 1257.4 1741.65 -2562.17 -2276.44 -2668.43 -4195.1 -3741.22
internal_weight=0 203 143 100 1206 79 158 43 1048 60 58 116 76 1003 272 113 40 45 731 612 159 42 119
internal_count=1409 203 143 100 1206 79 158 43 1048 60 58 116 76 1003 272 113 40 45 731 612 159 42 119
cat_boundaries=0 1 2 3 4 5 6
cat_threshold=5120 1 5 774 514 1
is_linear=0
shrinkage=0.05


Tree=39
num_leaves=19
num_cat=2
split_feature=15 19 3 1 9 3 3 17 1 3 11 3 3 1 20 16 9 3
split_gain=8.07279e+12 2.00303e+12 2.5498e+12 1.41348e+12 6.42165e+11 5.95249e+12 4.90605e+11 4.62369e+11 2.29364e+12 4.31376e+11 3.87501e+11 3.39888e+11 1.53451e+11 9.92278e+10 8.74228e+10 6.91601e+10 5.52096e+10 5.80108e+10
threshold=1.5319788666261231 -0.28984855367959139 1.5762828619355782 3.5433124974118151 -0.24725362589865899 -0.37720508716197237 2.229516780070369 0 0.19833370483733309 0.77865721926921994 1 0.80106772896264122 1.1927790548379706 -0.028444518388055517 1.6435033245106103 -0.21623646600874016 1.4190831376277004 -0.11276162773557837
decision_type=2 2 2 2 2 2 2 1 2 2 9 2 2 2 2 2 2 2
left_child=3 -2 9 4 5 7 -4 8 -1 -3 -9 16 15 14 -13 -11 17 -6
right_child=1 2 6 -5 11 -7 -8 10 -10 12 -12 13 -14 -15 -16 -17 -18 -19
leaf_value=-1830.880538056716 20774.925071022728 -3428.9428533380687 12306.867145182292 11679.501406250001 -1270.8282831101192 25732.010429687503 22271.263592819942 -4935.0903732944544 11033.480710678101 712.77992165305398 -1855.963110743716 -8449.8018380301346 7379.1376667417326 -10154.249547230114 -4073.7583100585939 4331.9659035422583 -477.13915793678984 -4516.0907659912109
leaf_weight=259 33 22 30 20 21 20 21 132 40 22 597 21 29 22 25 33 22 40
leaf_count=259 33 22 30 20 21 20 21 132 40 22 597 21 29 22 25 33 22 40
internal_value=0 9577.21 7223.55 -1503.28 -1723.17 -1283.94 16409.9 -1809.54 -106.339 2803.72 -2472.74 -4771.6 4436.08 -7392.4 -6071.52 2884.29 -2624.43 -3398.87
internal_weight=0 190 157 1219 1199 1048 51 1028 299 106 729 151 84 68 46 55 83 61
internal_count=1409 190 157 1219 1199 1048 51 1028 299 106 729 151 84 68 46 55 83 61
cat_boundaries=0 1 2
cat_threshold=33 5122
is_linear=0
shrinkage=0.05


Tree=40
num_leaves=16
num_cat=1
split_feature=13 11 1 1 3 3 3 3 1 3 1 1 13 3 1
split_gain=7.25654e+12 1.8236e+12 3.36592e+12 1.44449e+12 1.2908e+12 1.73868e+12 6.45229e+11 4.63951e+11 3.51992e+11 1.69158e+11 1.36373e+11 1.13878e+11 7.28725e+10 5.93177e+10 3.92761e+10
threshold=0.58756985625088831 0 0.19833370483733309 0.94481202295423727 0.74865892670504619 1.5762828619355782 2.229516780070369 2.2879614108958495 2.3054813623065691 1.1927790548379706 0.075495500590247594 -0.34971366795735598 2.6568671071273773 0.48700704312840809 0.25502826064368028
decision_type=2 9 2 2 2 2 2 2 2 2 2 2 2 2 2
left_child=1 2 11 -4 -2 9 8 -7 10 12 13 -1 -6 -3 -12
right_child=4 6 3 -5 5 7 -8 -9 -10 -11 14 -13 -14 -15 -16
leaf_value=-3484.8062049502423 21628.704696800596 -1815.8537809581867 25116.099460565478 7159.7426025390632 144.98448963994565 11784.085848999024 6364.5461192255434 21491.818154296878 -7962.0801591796881 7010.1807314116377 -4622.7196634432166 440.18080462831443 3811.2582504734851 7.7821395549368351 -2839.3505495346071
leaf_weight=42 21 870 21 24 23 32 23 20 25 29 41 33 33 47 125
leaf_count=42 21 870 21 24 23 32 23 20 25 29 41 33 33 47 125
internal_value=0 -1286.26 4364.89 15539.4 10085.6 8316.27 -1907.58 15517.8 -2096.51 3910.6 -1961.11 -1757.81 2305.47 -1722.38 -3279.82
internal_weight=0 1251 120 45 158 137 1131 52 1108 85 1083 75 56 917 166
internal_count=1409 1251 120 45 158 137 1131 52 1108 85 1083 75 56 917 166
cat_boundaries=0 1
cat_threshold=4098
is_linear=0
shrinkage=0.05


Tree=41
num_leaves=25
num_cat=7
split_feature=15 19 2 11 2 14 12 11 19 6 0 14 0 0 15 19 12 0 19 19 12 0 0 0
split_gain=6.67356e+12 1.91679e+12 8.14363e+11 7.32572e+11 1.78117e+12 6.55313e+11 9.45682e+11 2.99837e+11 2.75881e+11 1.69921e+11 1.07722e+11 1.05718e+11 1.11523e+11 9.80323e+10 2.43931e+11 7.74436e+10 6.39834e+10 5.65582e+10 4.77661e+10 4.61335e+10 4.45828e+10 3.25279e+10 5.57449e+09 5.41902e+09
threshold=1.5319788666261231 -0.28984855367959139 2.1386694688914165 0 1.9494273486415845 1 2 3 0.28634570386892444 -0.097714628991557653 -0.29639313990948152 4 -0.29639313990948152 -0.28980813160552993 2.33455852940074 -0.29643363090871727 5 1.9392171792820927 -0.28984855367959139 -0.29643363090871727 6 -0.28980813160552993 -0.29639313990948152 -0.29639313990948152
decision_type=2 2 2 9 2 1 9 9 2 2 2 1 2 2 2 2 9 2 2 2 9 2 2 2
left_child=3 -2 8 4 5 6 18 16 -3 11 -7 20 -13 14 -10 17 19 -11 -1 22 -9 -21 -5 -18
right_child=1 2 -4 7 -6 10 -8 9 13 15 -12 12 -14 -15 -16 -17 23 -19 -20 21 -22 -23 -24 -25
leaf_value=-1263.095684455423 19659.538091856062 -72.806572690217394 15095.040557065216 -4832.6731442769369 15234.029527355377 -6992.4837252103362 9774.4454337284478 -792.99923258463548 11650.971895751954 -3107.1615275065105 -2595.3575602213546 731.97420126009399 -1682.15043548584 3556.8653950352827 5274.8295505778005 -1451.0501060748923 -4698.6644209428268 -6231.7454568045487 1417.2168989701704 -3049.9451397705079 -1838.4136454922977 -580.33437637329098 -3775.9404296875 -5561.7501537692169
leaf_weight=68 33 23 23 24 21 26 29 135 20 30 30 119 80 31 60 29 44 28 22 40 417 20 26 31
leaf_count=68 33 23 23 24 21 26 29 135 20 30 30 119 80 31 60 29 44 28 22 40 417 20 26 31
internal_value=0 8705.52 6403.08 -1369.03 1402.9 -176.675 1922.25 -1895.3 4911.18 -1451.56 -4636.88 -1226.55 -238.528 5943.89 6868.87 -3560.74 -3727.79 -4615.58 -607.908 -3161.48 -1582.74 -2226.74 -4283.17 -5055.41
internal_weight=0 190 157 1219 196 175 119 1023 134 838 56 751 199 111 80 87 185 58 90 110 552 60 50 75
internal_count=1409 190 157 1219 196 175 119 1023 134 838 56 751 199 111 80 87 185 58 90 110 552 60 50 75
cat_boundaries=0 1 2 3 4 5 6 7
cat_threshold=4224 1 2 1026 1 2 4
is_linear=0
shrinkage=0.05


Tree=42
num_leaves=24
num_cat=8
split_feature=15 15 3 6 3 15 3 17 18 18 5 3 7 3 5 18 5 14 5 14 14 5 14
split_gain=6.02288e+12 1.4633e+12 1.09998e+12 6.0105e+12 7.29054e+11 1.39308e+12 2.90685e+12 3.80903e+11 6.14737e+11 5.31737e+11 8.39389e+11 2.74378e+11 7.74819e+10 7.54223e+10 5.43203e+10 4.27119e+10 3.70978e+10 1.93222e+10 1.2449e+10 8.51926e+09 5.35226e+09 7.35211e+08 1.40487e+08
threshold=1.5319788666261231 1.675200266679215 0.9083321424956714 -0.089620928566063698 1.6998214363070303 2.2069791943202364 0.54022226546623753 0 1 2 -0.29639313990948152 1.1024161637808843 1.0091218550672647 1.0000000180025095e-35 -0.29639313990948152 3 -0.29639313990948152 4 -0.28980813160552993 5 6 -0.28980813160552993 7
decision_type=2 2 2 2 2 2 2 1 1 1 2 2 2 2 2 1 2 1 2 1 1 2 1
left_child=2 -2 7 -4 5 -3 -7 9 14 16 17 -8 -5 15 20 -10 22 -11 -16 -12 -9 -18 -1
right_child=1 4 3 12 -6 6 11 8 13 10 19 -13 -14 -15 18 -17 21 -19 -20 -21 -22 -23 -24
leaf_value=-3654.112547743056 20718.070872860862 -5061.8494547526043 21151.921189880373 -8750.2140560302742 13390.293471827652 24848.929804687501 1724.0574217960752 -6743.0924019607846 -2688.102313696289 4862.3517152528502 -2506.5040528414543 7551.0509671118962 -4729.0033532184107 581.20856548108554 -5081.0993218315971 -1415.0254153500512 -2039.5401166643417 3436.5419070870539 -3778.9605748330396 -1487.0829910278321 -5794.6520106724338 -1670.3013147060688 -3508.1221538837144
leaf_weight=45 21 27 32 25 33 20 58 51 115 74 57 31 23 38 45 515 28 35 31 32 21 26 26
leaf_count=45 21 27 32 25 33 20 58 51 115 74 57 31 23 38 45 515 28 35 31 32 21 26 26
internal_value=0 8270.24 -1300.58 4366.74 6723.47 5105.78 7624.37 -1698.63 -2261.74 -199.837 1392.48 3753.68 -6823.38 -1558.72 -5135.33 -1712.54 -2638.38 4404.52 -4549.96 -2139.97 -6466.46 -1861.76 -3600.65
internal_weight=0 190 1219 80 169 136 109 1139 816 323 198 89 48 668 148 630 125 109 76 89 72 54 71
internal_count=1409 190 1219 80 169 136 109 1139 816 323 198 89 48 668 148 630 125 109 76 89 72 54 71
cat_boundaries=0 1 2 3 4 5 6 7 8
cat_threshold=33 2561 645 1280 1 1 1 1
is_linear=0
shrinkage=0.05


Tree=43
num_leaves=18
num_cat=3
split_feature=15 19 1 0 1 1 12 18 19 0 19 12 1 1 15 19 1
split_gain=5.43767e+12 1.69762e+12 1.25264e+12 7.1347e+11 6.35507e+11 4.31237e+12 6.49513e+11 2.62277e+11 2.44988e+11 2.00777e+11 1.2984e+11 9.19115e+10 1.25577e+11 7.15826e+10 3.23242e+10 1.68055e+10 2.14703e+09
threshold=1.5319788666261231 -0.28984855367959139 3.5433124974118151 2.2355425529599153 0.22195643642331106 0.16053733429976833 0 1 0.28634570386892444 -0.22066554441403796 -0.28984855367959139 2 -0.075689981560011457 0.91646474505106368 2.5476825040903699 -0.28984855367959139 1.4361648399425793
decision_type=2 2 2 2 2 2 9 1 2 2 2 9 2 2 2 2 2
left_child=2 -2 4 8 5 7 15 10 -3 -9 -1 14 -13 -8 -10 16 -6
right_child=1 3 -4 -5 6 -7 13 9 11 -11 -12 12 -14 -15 -16 -17 -18
leaf_value=-4646.1374598600432 18165.483357007575 -370.99129585597825 11172.87921875 14039.479479980469 -1687.9624372626797 21462.700544084822 -9600.2735846625437 -844.08583333746435 2973.3572477213543 -3429.5252691429787 -837.54148117591603 10017.6877923584 4414.6413743591311 -6322.4997891333805 5122.2494628906252 -3014.3801699218752 -1117.6044567454944
leaf_weight=98 33 23 20 22 66 21 36 788 30 83 29 20 20 31 42 25 22
leaf_count=98 33 23 20 22 66 21 36 788 30 83 29 20 20 31 42 25 22
internal_value=0 7856.73 -1237.23 5689.92 -1444.24 -960.435 -4183.11 -1432.26 4329.25 -1078.08 -3500.8 5294.48 7216.16 -8083.69 4226.88 -1870.37 -1545.37
internal_weight=0 190 1219 157 1199 1019 180 998 135 871 127 112 40 67 72 113 88
internal_count=1409 190 1219 157 1199 1019 180 998 135 871 127 112 40 67 72 113 88
cat_boundaries=0 1 2 3
cat_threshold=2 2560 2
is_linear=0
shrinkage=0.05


Tree=44
num_leaves=21
num_cat=1
split_feature=13 19 10 20 4 4 15 20 20 19 19 2 4 4 15 13 9 13 19 4
split_gain=5.1979e+12 1.77544e+12 1.76398e+12 1.33487e+12 8.98614e+11 2.48957e+12 7.92009e+11 7.33097e+11 4.31671e+11 1.92818e+11 1.91133e+11 1.24476e+11 8.75258e+10 7.51975e+10 7.11826e+10 8.69121e+10 3.94489e+10 9.85232e+09 8.93507e+09 3.07828e+09
threshold=0.58756985625088831 0.10525608006796229 0 0.75409521405223912 -0.18544190970033839 -0.3591446495861485 1.3935512687365159 1.5026184798973181 0.075833998660247245 -0.29643363090871727 -0.28984855367959139 2.4507529654437707 0.11722195525220953 -0.3591446495861485 2.33455852940074 2.2099066382970434 0.89137390126126737 3.3653393848270325 -0.28984855367959139 0.35847576064916808
decision_type=2 2 1 2 2 2 2 2 2 2 2 2 2 2 2 2 2 2 2 2
left_child=2 -2 3 4 5 18 8 14 10 11 12 -10 -4 -12 -3 -16 -11 -17 -1 -6
right_child=1 7 6 -5 19 -7 -8 -9 9 16 13 -13 -14 -15 15 17 -18 -19 -20 -21
leaf_value=-1885.2097924017137 22072.646765718007 7001.7516207787303 -1334.9216257158298 15516.471391601564 -3758.4310058593751 11624.755263671876 -9671.5249511718757 15306.248271484377 -7367.8734767539836 -3178.3203979492191 -251.81190305370498 -3389.6248172760011 -2583.3753544229303 2802.197339928669 1496.0883478338069 4457.549972955112 -37.90372506141663 5703.7745200892859 -3058.9051628561583 -3003.6583611188616
leaf_weight=31 21 31 515 20 22 60 32 20 51 20 163 32 193 23 22 29 20 35 34 35
leaf_count=31 21 31 515 20 22 60 32 20 51 20 163 32 193 23 22 29 20 35 34 35
internal_value=0 8534.94 -1089.65 3101.68 1907.84 4280.33 -1908.13 6459.81 -1682.62 -4459.79 -1300.53 -5834.09 -1675.25 125.834 4947.6 4207.15 -1608.11 5139.08 -2499.14 -3294.97
internal_weight=0 158 1251 202 182 125 1049 137 1017 123 894 83 708 186 117 86 40 64 65 57
internal_count=1409 158 1251 202 182 125 1049 137 1017 123 894 83 708 186 117 86 40 64 65 57
cat_boundaries=0 1
cat_threshold=16
is_linear=0
shrinkage=0.05


Tree=45
num_leaves=20
num_cat=2
split_feature=13 18 1 19 1 19 1 9 10 1 1 1 9 1 16 19 19 1 1
split_gain=4.6911e+12 1.67515e+12 4.85167e+12 1.60234e+12 7.57111e+11 5.7017e+11 1.09806e+12 5.13942e+11 2.42684e+11 5.93913e+11 2.9554e+11 1.64941e+11 1.56987e+11 8.15113e+10 7.19699e+10 9.55265e+10 5.85432e+10 3.32129e+10 1.31583e+10
threshold=0.58756985625088831 0 0.19833370483733309 0.10525608006796229 2.9810914856655395 -0.29643363090871727 -0.39695913112931192 1.2535272987676429 1 0.42038738174552609 0.094393685859029977 -0.34026457532296478 -0.24725362589865899 0.25502826064368028 -0.065588776054353454 2.6866063538853138 -0.28984855367959139 -0.34026457532296478 -0.42530640903248546
decision_type=2 1 2 2 2 2 2 2 1 2 2 2 2 2 2 2 2 2 2
left_child=1 2 5 -2 8 11 -7 14 9 16 12 18 -10 -12 15 17 -3 -5 -1
right_child=3 4 -4 7 -6 6 -8 -9 10 -11 13 -13 -14 -15 -16 -17 -18 -19 -20
leaf_value=-675.52397225119853 20969.013211495538 -1563.414120248648 21608.629007056454 5245.6849780273442 -11147.063006882441 -2443.1913956872349 12785.627675781252 13543.864773559571 -1185.4535891743888 7985.7957581259998 -5825.9588468852799 -6665.1021441915764 -3365.8279288413682 -3179.0822438270816 2429.5437876383467 3615.0021665915465 1168.3709228515625 7813.512441837087 -2254.161014441288
leaf_weight=22 21 91 31 20 21 29 20 20 678 22 38 23 94 124 24 39 25 34 33
leaf_count=22 21 91 31 20 21 29 20 20 678 22 38 23 94 124 24 39 25 34 33
internal_value=0 -1035.17 3643.94 8108.19 -1729.08 -454.222 3772.65 6136.82 -1560.72 423.149 -1838.68 -3109.57 -1450.94 -3799.95 4870.66 5500.63 -974.667 6862.47 -1622.71
internal_weight=0 1251 158 158 1093 127 49 137 1072 138 934 78 772 162 117 93 116 54 55
internal_count=1409 1251 158 158 1093 127 49 137 1072 138 934 78 772 162 117 93 116 54 55
cat_boundaries=0 1 2
cat_threshold=2052 2
is_linear=0
shrinkage=0.05


Tree=46
num_leaves=23
num_cat=2
split_feature=3 1 19 3 10 1 1 17 19 1 3 1 1 1 1 3 1 5 6 1 1 1
split_gain=3.11181e+12 3.09932e+12 4.06266e+12 2.85797e+12 1.07212e+12 1.09627e+12 3.0454e+12 8.37689e+11 9.43573e+11 4.96045e+11 3.75444e+11 1.89231e+11 5.47906e+11 2.31071e+11 1.87434e+11 1.64964e+11 1.63712e+11 1.2604e+11 9.73333e+10 4.9996e+10 4.25511e+10 1.74131e+10
threshold=0.9083321424956714 1.5495539515552734 -0.29643363090871727 2.229516780070369 0 0.26447735327807148 0.075495500590247594 1 -0.28984855367959139 2.1826431580594838 1.2884442864320091 0.42038738174552609 0.67078833655689263 0.15108824166537713 -0.42530640903248546 0.63608570185714697 -0.27412092688222645 -0.29639313990948152 -0.089620928566063698 0.26447735327807148 -0.40640822376370311 -0.30246820478539999
decision_type=2 2 2 2 1 2 2 1 2 2 2 2 2 2 2 2 2 2 2 2 2 2
left_child=4 2 18 10 5 6 7 8 -1 11 20 13 -13 15 -9 -6 -12 -14 -2 -15 -4 -20
right_child=1 -3 3 -5 9 -7 -8 14 -10 -11 16 12 17 19 -16 -17 -18 -19 21 -21 -22 -23
leaf_value=6782.101844812476 -9594.9608691406247 24475.888041992192 3295.1911132812502 24985.416036854622 -1813.2846828022853 -6365.2292068872703 20021.239608101227 1353.0916517103042 -2965.7654476390167 -8086.8213252898195 10927.411361929087 7599.4905596051904 474.96917099952702 -7105.7978120349699 -2790.5838422335109 2402.8104502360029 5316.4254094050484 -3998.4490619536368 -4334.7698288690472 -3825.6746150090144 72.694205322265631 -6396.2338714599609
leaf_weight=92 20 20 21 23 697 39 23 37 34 31 26 21 32 21 104 24 26 31 21 26 20 20
leaf_count=92 20 20 21 23 697 39 23 37 34 31 26 21 32 21 104 24 26 31 21 26 20 20
internal_value=0 5818.89 3710.75 9203.94 -956.709 1460.78 2563.62 1059.78 3846.45 -1853.01 5301 -1647.94 605.195 -1894.38 -1590.44 -1672.94 8121.92 -1726.24 -6735.31 -5291.26 1723.24 -5340.36
internal_weight=0 197 177 116 1212 329 290 267 126 883 93 852 84 768 141 721 52 63 61 47 41 41
internal_count=1409 197 177 116 1212 329 290 267 126 883 93 852 84 768 141 721 52 63 61 47 41 41
cat_boundaries=0 1 2
cat_threshold=80 67
is_linear=0
shrinkage=0.05


Tree=47
num_leaves=19
num_cat=3
split_feature=15 15 1 5 1 1 12 1 12 15 9 2 10 9 1 15 1 1
split_gain=3.78942e+12 1.14918e+12 1.138e+12 6.20502e+11 6.04622e+11 3.47969e+12 6.54857e+11 5.90959e+11 2.09339e+12 1.6207e+12 4.07487e+11 2.32192e+11 1.34545e+11 1.19725e+11 6.47993e+10 1.15163e+10 3.23418e+09 1.32784e+09
threshold=1.5319788666261231 1.675200266679215 3.5433124974118151 -0.28980813160552993 0.20778279747172429 0.15108824166537713 0 -0.39695913112931192 1 2.6039446689754517 0.21880330589228392 -0.28163764798801111 2 1.4190831376277004 0.91646474505106368 2.501481727630241 1.4361648399425793 0.51015376177224248
decision_type=2 2 2 2 2 2 9 2 9 2 2 2 1 2 2 2 2 2
left_child=2 -2 4 7 5 11 16 9 15 -3 -5 12 -1 -13 -8 -9 17 -6
right_child=1 3 -4 10 6 -7 14 8 -10 -11 -12 13 -14 -15 -16 -17 -18 -19
leaf_value=-2290.7512819488325 17590.140955171133 21878.736260695689 10795.979531250001 -4275.5684708305034 -1992.9015495954243 18915.268936434659 -9254.0396933661577 -3946.0450292968753 14374.780179036459 2858.660813903809 4508.1620636970765 -4852.982013039511 -629.36648430195214 -1359.1237516077554 -6135.4341777186237 -2249.2612158203128 -1145.0977253354829 -1594.5497565049391
leaf_weight=144 21 21 20 23 35 22 36 20 30 24 31 61 748 41 31 20 29 52
leaf_count=144 21 21 20 23 35 22 36 20 30 24 31 61 748 41 31 20 29 52
internal_value=0 6558.98 -1032.61 5188.25 -1229.92 -753.401 -3875.52 7264.34 4390.53 11734.7 766.944 -1188.72 -930.309 -3448.59 -7811.1 -3097.65 -1602.38 -1754.81
internal_weight=0 190 1219 169 1199 1016 183 115 70 45 54 994 892 102 67 40 116 87
internal_count=1409 190 1219 169 1199 1016 183 115 70 45 54 994 892 102 67 40 116 87
cat_boundaries=0 1 2 3
cat_threshold=2 2 16
is_linear=0
shrinkage=0.05


Tree=48
num_leaves=22
num_cat=5
split_feature=15 19 18 0 0 7 12 19 19 18 6 0 15 0 19 19 0 14 14 20 19
split_gain=3.42108e+12 1.87423e+12 8.16114e+11 2e+12 5.83308e+11 2.99446e+11 2.68281e+11 2.63577e+11 1.85582e+11 1.74888e+11 1.68747e+11 8.61302e+10 1.32093e+11 6.12251e+10 5.48598e+10 5.0962e+10 1.52836e+11 6.82901e+10 2.08033e+10 1.38502e+10 1.33292e+09
threshold=1.5319788666261231 -0.28984855367959139 0 1.6527693180601972 2.2355425529599153 -0.077156193097226752 1 0.28634570386892444 -0.29643363090871727 2 -0.090296879297343938 -0.28980813160552993 2.33455852940074 -0.28980813160552993 -0.28984855367959139 -0.28326347645046551 -0.29639313990948152 3 4 1.556436166990701 -0.29643363090871727
decision_type=2 2 1 2 2 2 9 2 2 1 2 2 2 2 2 2 2 1 1 2 2
left_child=2 -2 3 6 7 9 14 -3 10 13 -7 12 -9 18 20 17 -17 -11 -4 -12 -1
right_child=1 4 5 -5 -6 8 -8 11 -10 15 19 -13 -14 -15 -16 16 -18 -19 -20 -21 -22
leaf_value=-1351.4570441045262 17062.74277935606 -2151.3125541355298 -3721.6546369018561 16510.244505673363 11503.916165438566 -9431.7554547991076 3973.0170372596158 8121.1612353515629 -1138.5510810620858 -1384.6177427943549 -4984.4246606445313 1532.831618309021 3429.0979634602868 -945.84568277994788 902.08262671493912 2957.2237997731859 -1802.2123790844068 -256.09900514951318 -2347.348953728927 -3219.1223918457035 -988.77453549033726
leaf_weight=76 33 23 100 21 22 21 39 20 33 480 20 32 60 33 41 31 37 186 38 25 38
leaf_count=76 33 23 100 21 22 21 39 20 33 480 20 32 60 33 41 31 37 186 38 25 38
internal_value=0 6231.03 -982.181 1770.51 3954.3 -1573.61 266.231 2724 -4200.06 -1303.69 -5730.81 3725.18 4602.11 -2721.42 -666.444 -923.735 367.531 -1069.45 -3343.22 -4003.7 -1230.56
internal_weight=0 190 1219 215 157 1004 194 135 99 905 66 112 80 171 155 734 68 666 138 45 114
internal_count=1409 190 1219 215 157 1004 194 135 99 905 66 112 80 171 155 734 68 666 138 45 114
cat_boundaries=0 1 2 3 4 5
cat_threshold=2176 2 513 1 1
is_linear=0
shrinkage=0.05


Tree=49
num_leaves=19
num_cat=2
split_feature=13 10 1 13 1 15 18 1 1 1 1 15 9 1 13 0 1 1
split_gain=3.28224e+12 1.54281e+12 6.45873e+12 9.81213e+11 1.81186e+12 9.30782e+11 9.71146e+11 6.50574e+11 2.35673e+11 2.21848e+11 4.82119e+11 1.62106e+11 1.35167e+11 1.06766e+11 8.90206e+10 5.14878e+10 4.61035e+10 5.13399e+09
threshold=0.58756985625088831 0 0.19833370483733309 1.7520433182472586 -0.27412092688222645 1.3935512687365159 1 -0.18907909317270574 2.414145927602068 -0.12293544473196742 -0.32136639005418238 2.5293186290603811 -0.24725362589865899 -0.42530640903248546 2.9884550496759754 -0.29639313990948152 0.94481202295423727 -0.39695913112931192
decision_type=2 1 2 2 2 2 1 2 2 2 2 2 2 2 2 2 2 2
left_child=1 2 9 4 -2 6 7 17 12 10 13 -5 -8 -1 -13 -16 -9 -3
right_child=3 5 -4 11 -6 -7 8 16 -10 -11 -12 14 -14 -15 15 -17 -18 -19
leaf_value=1028.0373779296876 24240.398164062499 -2625.8708203125002 23805.877426147461 1308.8808672736675 4536.2175057547438 -10045.880102539064 -490.89057720208467 -11410.655943870544 -6204.5772607421877 -4582.1309082031248 7140.5870381673176 8325.8740869140638 -2384.5214941296622 -2142.379671507244 2751.5237617187504 5801.2810582314778 -8395.636969866071 -1578.5851074218751
leaf_weight=40 20 25 32 34 28 32 790 32 20 30 21 20 107 79 25 31 21 22
leaf_count=40 20 25 32 34 28 32 790 32 20 30 21 20 107 79 25 31 21 22
internal_value=0 -866.652 3047.88 6781.45 12746.3 -1633.93 -1385.31 -5834.77 -827.442 -680.224 155.899 4178.61 -716.775 -1076.69 5462.44 4439.78 -10216 -2135.65
internal_weight=0 1251 202 158 48 1049 1017 100 917 170 140 110 897 119 76 56 53 47
internal_count=1409 1251 202 158 48 1049 1017 100 917 170 140 110 897 119 76 56 53 47
cat_boundaries=0 1 2
cat_threshold=16 2049
is_linear=0
shrinkage=0.05


Tree=50
num_leaves=22
num_cat=3
split_feature=13 4 18 3 4 4 3 4 15 3 15 10 3 3 10 3 4 4 4 19 3
split_gain=2.96223e+12 1.52324e+12 1.46225e+12 2.69181e+12 1.27758e+12 2.77416e+12 1.16279e+12 3.91976e+11 8.45475e+11 2.50745e+11 2.2472e+11 1.95743e+11 2.50269e+11 1.3386e+11 9.8678e+10 8.78859e+10 6.47352e+10 4.80114e+10 4.19266e+10 2.42989e+10 5.88665e+09
threshold=0.58756985625088831 -0.71341802989582237 0 0.9083321424956714 -0.18544190970033839 -0.3591446495861485 1.5762828619355782 -0.09332682036695425 0.38101423460889094 2.2879614108958495 2.5293186290603811 1 1.3943352868676155 0.9083321424956714 2 1.1927790548379706 -0.3591446495861485 0.35847576064916808 0.94625775925266697 -0.29643363090871727 0.92701914984407829
decision_type=2 2 1 2 2 2 2 2 2 2 2 1 2 2 1 2 2 2 2 2 2
left_child=2 6 3 4 5 -1 10 8 11 -8 -2 16 -13 14 19 20 -4 -16 -6 -9 -12
right_child=1 -3 7 -5 18 -7 9 13 -10 -11 15 12 -14 -15 17 -17 -18 -19 -20 -21 -22
leaf_value=-6327.581346709153 -3012.2092681884769 19338.219658203128 -1979.6017691748484 19578.578948709237 -3148.252576789856 13683.423195062684 7771.2392683919279 -1410.9488911527746 7872.6744176793982 14998.856831054687 859.29047320822019 -949.51553876447258 4265.5575566609705 -6590.6005149147722 -2652.5122138390179 5409.3122021484378 -4343.3407519531247 -4553.2744388580322 -5827.3652237601909 -2857.6601590401788 2017.1526901971729
leaf_weight=29 24 20 56 23 40 43 30 170 27 20 23 555 24 22 52 20 60 92 23 35 21
leaf_count=29 24 20 56 23 40 43 30 170 27 20 23 555 24 22 52 20 60 92 23 35 21
internal_value=0 6442.38 -823.32 3543.07 1073.54 5623.44 4573.42 -1473.44 -808.177 10662.3 1113.83 -1145.42 -720.896 -2807.83 -2569.37 2661.1 -2948.08 -3615.79 -4126.34 -1580.83 1411.91
internal_weight=0 158 1251 158 135 72 138 1093 722 50 88 695 579 371 349 64 116 144 63 205 44
internal_count=1409 158 1251 158 135 72 138 1093 722 50 88 695 579 371 349 64 116 144 63 205 44
cat_boundaries=0 1 2 3
cat_threshold=2052 16 39
is_linear=0
shrinkage=0.05


end of trees

feature_importances:
LES=187
ending_cases=177
current_batch_observations=95
starting_cases=74
time_since_last_event=74
expense=67
duration=42
batch_hour=32
month=30
observations=27
is_weekend=27
batch_month=26
avg_waiting_time_lag_1=24
max_delay=17
batch_day=15
pending_cases=12
mean_IBCR=12
points=9
std_IBCR=7
min_delay=7
weekday=6

parameters:
[boosting: gbdt]
[objective: regression]
[metric: huber]
[tree_learner: serial]
[device_type: cpu]
[data: ]
[valid: ]
[num_iterations: 250]
[learning_rate: 0.05]
[num_leaves: 31]
[num_threads: 0]
[deterministic: 0]
[force_col_wise: 0]
[force_row_wise: 0]
[histogram_pool_size: -1]
[max_depth: 6]
[min_data_in_leaf: 20]
[min_sum_hessian_in_leaf: 0.001]
[bagging_fraction: 0.8]
[pos_bagging_fraction: 1]
[neg_bagging_fraction: 1]
[bagging_freq: 0]
[bagging_seed: 3]
[feature_fraction: 0.5]
[feature_fraction_bynode: 1]
[feature_fraction_seed: 2]
[extra_trees: 0]
[extra_seed: 6]
[early_stopping_round: 100]
[first_metric_only: 0]
[max_delta_step: 0]
[lambda_l1: 0]
[lambda_l2: 0]
[linear_lambda: 0]
[min_gain_to_split: 0]
[drop_rate: 0.1]
[max_drop: 50]
[skip_drop: 0.5]
[xgboost_dart_mode: 0]
[uniform_drop: 0]
[drop_seed: 4]
[top_rate: 0.2]
[other_rate: 0.1]
[min_data_per_group: 100]
[max_cat_threshold: 32]
[cat_l2: 10]
[cat_smooth: 10]
[max_cat_to_onehot: 4]
[top_k: 20]
[monotone_constraints: ]
[monotone_constraints_method: basic]
[monotone_penalty: 0]
[feature_contri: ]
[forcedsplits_filename: ]
[refit_decay_rate: 0.9]
[cegb_tradeoff: 1]
[cegb_penalty_split: 0]
[cegb_penalty_feature_lazy: ]
[cegb_penalty_feature_coupled: ]
[path_smooth: 0]
[interaction_constraints: ]
[verbosity: 1]
[saved_feature_importance_type: 0]
[linear_tree: 0]
[max_bin: 255]
[max_bin_by_feature: ]
[min_data_in_bin: 3]
[bin_construct_sample_cnt: 200000]
[data_random_seed: 1]
[is_enable_sparse: 1]
[enable_bundle: 1]
[use_missing: 1]
[zero_as_missing: 0]
[feature_pre_filter: 1]
[pre_partition: 0]
[two_round: 0]
[header: 0]
[label_column: ]
[weight_column: ]
[group_column: ]
[ignore_column: ]
[categorical_feature: 10,11,12,14,17,18]
[forcedbins_filename: ]
[precise_float_parser: 0]
[objective_seed: 5]
[num_class: 1]
[is_unbalance: 0]
[scale_pos_weight: 1]
[sigmoid: 1]
[boost_from_average: 1]
[reg_sqrt: 0]
[alpha: 0.9]
[fair_c: 1]
[poisson_max_delta_step: 0.7]
[tweedie_variance_power: 1.5]
[lambdarank_truncation_level: 30]
[lambdarank_norm: 1]
[label_gain: ]
[eval_at: ]
[multi_error_top_k: 1]
[auc_mu_weights: ]
[num_machines: 1]
[local_listen_port: 12400]
[time_out: 120]
[machine_list_filename: ]
[machines: ]
[gpu_platform_id: -1]
[gpu_device_id: -1]
[gpu_use_dp: 0]
[num_gpu: 1]

end of parameters

pandas_categorical:[[0.0, 1.0, 2.0, 3.0, 4.0, 5.0, 6.0], [0.0, 1.0, 2.0, 3.0, 4.0, 5.0, 6.0, 7.0, 8.0, 9.0, 10.0, 11.0, 12.0], [0.0, 8.0, 9.0], [0.0, 1.0], [0.0, 1.0, 2.0, 3.0, 4.0, 5.0, 6.0], [1.0, 2.0, 3.0, 4.0, 5.0, 6.0, 7.0, 8.0, 9.0, 10.0, 11.0, 12.0]]
